nep4_spin 1 Fe 
spin_mode 2 2
spin_feature 2 2 2 2 2 0 1 1
spin_n_max 4
cutoff 7 6 184 118
n_max 4 4
basis_size 8 8
l_max 4 2 0
ANN 50 0
  7.8741811e-02
 -1.3516302e-01
 -3.3091834e-01
 -3.1796369e-01
 -2.5114483e-01
 -1.6299651e+00
 -7.5654364e-01
  1.1659990e-01
 -9.6531942e-02
 -6.2934232e-01
 -1.0352902e+00
  1.1309275e-01
  1.9581817e-01
  1.6243006e-01
  8.6613500e-01
  6.4048827e-01
  9.7684377e-01
  1.1918834e+00
  1.7486655e+00
 -1.0997900e+00
  1.3012296e+00
 -7.2737366e-01
 -2.1112030e+00
 -3.3047393e-01
 -1.8532753e+00
  1.0931318e+00
  3.3935308e-01
 -1.6135180e+00
  9.1254753e-01
 -3.3244511e-01
  1.2066764e+00
 -6.8477160e-01
 -1.1592778e-01
 -4.3649676e-01
  7.3877418e-01
  1.0829297e+00
  2.1725318e-01
  3.3750796e-01
 -1.0823843e-01
 -1.1453733e+00
  7.8429443e-01
  5.1468469e-02
  1.3280002e+00
 -5.4921977e-02
  3.5385948e-01
  4.7651234e-01
  8.8021487e-01
  5.8590913e-01
  1.3337469e-01
 -4.8076606e-01
 -1.3634100e+00
 -6.4991283e-01
  7.9609340e-01
 -5.1322937e-01
  1.8580319e-01
  2.5152063e+00
  7.0933390e-01
 -8.7279487e-01
  8.2642001e-01
 -1.0865380e+00
  9.4100487e-01
 -1.4493682e+00
 -5.4282367e-01
  6.6767651e-01
 -4.2252356e-01
  1.2091120e+00
  2.1152537e+00
  1.6735861e-01
 -1.2133405e+00
  7.9251349e-01
 -1.2204581e+00
 -3.7384063e-01
  1.3255934e+00
 -1.5521348e-01
  1.0553492e-02
  3.6516660e-01
 -3.7238064e-01
 -1.3914150e+00
  5.9738767e-01
 -1.8523432e+00
  4.7294379e-05
  4.8475632e-01
  3.3561561e-01
 -2.1299544e-01
 -1.0107483e+00
 -1.4138010e-01
 -1.1127295e+00
 -5.0288492e-01
 -1.2931744e+00
  1.2051458e-02
 -6.5088266e-01
 -1.1327265e-01
  3.0622581e-02
  5.6356717e-02
  4.4740176e-01
  2.0608804e-01
  4.6927291e-01
  1.0174624e+00
 -3.3799902e-01
 -8.8044322e-01
  5.2085495e-01
 -1.0394742e+00
 -4.1036904e-01
 -7.9381101e-02
 -1.2478201e+00
  2.2271228e+00
 -7.5053431e-02
  2.5329116e-01
 -5.4660517e-01
 -1.4393941e+00
 -1.1860681e+00
  4.6702045e-01
 -2.4453847e-01
 -7.6294702e-01
  1.5197041e+00
 -1.6962965e-01
  2.1943729e-01
 -8.4133679e-01
  1.1611218e+00
  5.7348108e-01
  4.7649440e-01
 -2.0553961e-01
 -2.8815159e-01
  7.1929967e-01
 -4.2035097e-01
  8.7007171e-01
  5.0801629e-01
  4.5540887e-01
  2.8229648e-01
 -1.6984704e-01
  3.6989570e-01
  7.9614049e-01
 -8.9858001e-01
 -7.7489203e-01
 -1.5412890e+00
  1.0633185e+00
 -1.2152240e+00
  1.3886801e+00
 -3.0643359e-01
 -9.5488715e-01
  4.8667206e-03
 -1.5986128e+00
  1.0390865e+00
 -6.6707379e-01
  2.2180228e-01
  1.6949114e+00
 -7.1590781e-01
  4.7271386e-01
 -1.0467677e+00
 -1.2037374e-01
 -2.0420930e+00
 -9.6206582e-01
  3.1052139e-01
 -4.2522573e-01
 -9.8618364e-01
 -1.6275544e-01
 -5.4662842e-01
 -1.4994600e-02
 -7.7866727e-01
  4.4218179e-02
  1.6311806e+00
 -2.0326064e+00
 -7.1157557e-01
  1.4632124e-01
 -1.8273285e-02
 -9.9162883e-01
  3.7551683e-01
  5.6873250e-01
 -1.4167700e+00
  8.6372018e-01
  8.2239717e-01
 -1.6949679e+00
 -1.4993136e+00
 -9.4646126e-01
  4.1900465e-01
 -2.6655966e-01
 -1.7892933e+00
  7.1788448e-01
  1.2011746e+00
 -4.2003405e-01
  1.0274723e+00
  2.5755498e-01
  1.2789017e-01
 -1.0615151e+00
  9.0457471e-03
 -6.0868418e-01
 -6.9065595e-01
  3.4571934e-01
  1.5850269e+00
  7.6971143e-02
 -8.4349507e-01
 -6.6386819e-01
 -1.1980973e+00
 -1.4300963e+00
  7.4178755e-01
 -4.3811229e-01
  1.3412126e+00
  1.5567620e-01
 -1.2457311e+00
  7.8662944e-01
  9.5058495e-01
  8.8987982e-01
 -2.0274711e-01
  2.3930830e-01
  2.0562155e+00
  4.9919289e-01
  8.8024992e-01
  1.4349715e-01
 -6.5914720e-02
 -5.1165187e-01
  5.7475454e-01
 -9.3058422e-02
 -6.2212360e-01
 -4.6527421e-01
 -1.4481786e+00
 -6.1342156e-01
  1.5442204e+00
 -3.2858032e-01
  3.4193349e-01
  2.7205995e-01
 -5.4710817e-01
  5.7211912e-01
 -5.9068304e-01
  2.1192957e-01
  5.6965262e-01
 -1.0667959e+00
 -8.4300375e-01
  1.5755970e+00
  1.7639015e+00
  4.6767488e-01
  8.5414094e-01
  9.4514024e-01
 -1.5359181e+00
 -4.0941370e-01
  3.7789142e-01
  5.1091874e-01
 -8.5349786e-01
  3.3937562e-01
  2.1839976e-01
 -1.0670142e+00
  1.4217919e+00
 -1.0158644e+00
  1.0136260e+00
  2.1354173e-01
 -3.0351651e-01
  9.7232693e-01
 -9.4991541e-01
 -1.9350000e-01
 -2.5336881e+00
  3.7012520e-01
 -4.7867289e-01
  4.0657811e-02
  2.6290068e-01
 -4.7445643e-01
 -1.7800208e+00
  1.9302789e+00
 -4.0900272e-01
  3.8756454e-01
  1.2965778e+00
 -7.0671856e-01
 -3.8874391e-02
  3.5767742e-02
  7.1338475e-02
  3.4224007e-01
  1.6022283e-01
  3.2786450e+00
  4.0154311e-01
 -9.7134817e-01
  3.3660799e-02
 -2.4350308e-01
 -1.1511194e+00
  1.0675057e+00
  1.3168759e+00
 -1.8226956e-01
  6.9658375e-01
 -6.4006197e-01
  3.1387508e-01
 -4.4622350e-01
  8.3935106e-01
  7.7889574e-01
  9.0334290e-01
 -4.2275152e-01
 -2.4129254e-01
 -2.1069455e-01
 -7.1389067e-01
 -3.4707895e-01
 -4.5882803e-01
  9.9317813e-01
 -1.3354740e-01
  1.0678191e+00
 -1.1631642e-01
  2.3471360e+00
 -5.4572338e-01
  1.2775072e+00
 -1.7011915e+00
  2.4983996e-01
  4.4889499e-02
 -7.4038666e-01
  4.0847841e-01
 -1.4076944e-01
  6.4797503e-01
  1.2801271e-02
 -3.7474051e-01
 -3.8672736e-01
 -1.7224029e-01
 -1.0123827e+00
  1.1721996e+00
 -1.7241014e+00
  3.4963578e-01
  2.2118187e-02
 -1.4032400e+00
  3.5129896e-01
  2.0101607e+00
  2.5726333e-01
 -4.5601568e-01
 -2.4810457e-01
 -5.0338024e-01
  1.4985918e+00
 -5.8487165e-01
 -1.1805359e-01
 -1.0283341e-01
  1.1464479e+00
  2.0232010e-01
 -6.5888792e-01
 -6.5013188e-01
 -3.1143793e-01
 -6.1093774e-02
 -2.2530906e+00
  1.2255946e+00
  2.5972435e-01
  2.2305777e+00
  1.5615371e+00
  9.8525923e-01
 -7.2838992e-01
  1.3003525e+00
 -1.6943313e-01
  1.8601644e-01
 -4.8799986e-01
  5.4660046e-01
  1.2083644e+00
 -2.0423298e+00
  2.0844276e+00
 -9.8738372e-01
 -7.7894859e-02
 -2.6552323e-01
 -4.1248894e-01
 -1.2988173e+00
 -3.6269972e-01
 -9.4818515e-01
  1.0523582e+00
  1.9273439e-01
  7.2292638e-01
 -1.4870862e+00
 -2.6724253e+00
  5.9377491e-01
  5.0212198e-01
  1.9327866e-02
  7.8994197e-01
  3.4975296e-01
  8.6264968e-01
 -3.4843379e-01
 -8.9403802e-01
 -7.8943789e-01
  1.0103085e-02
  1.0225264e+00
 -2.3344867e+00
  1.0198758e+00
 -4.6157330e-01
 -1.8447934e+00
 -1.6864334e-01
 -2.5075707e-01
  8.7973028e-01
  1.3757415e-01
 -9.8047590e-01
 -7.9716080e-01
 -1.5303272e+00
 -7.2245592e-01
 -1.4570167e+00
 -1.2921115e+00
  3.7283614e-01
 -5.3298038e-01
 -9.4070166e-01
 -1.6105151e-01
  1.9302489e-01
  6.6643757e-01
 -1.6565131e+00
  3.6399126e-01
 -1.0555246e+00
  2.3998633e-02
 -4.8499846e-01
 -3.7652424e-01
 -1.2269853e-01
 -1.9118782e+00
 -1.2980690e+00
 -2.7319822e-01
 -5.3655672e-01
  9.0297127e-01
 -1.3707070e+00
  2.4526339e+00
 -2.8596961e-01
  1.0119208e+00
  7.7374148e-01
  2.8437001e-01
  7.5189281e-01
 -2.2321622e-01
 -1.6824566e-01
 -3.9579567e-01
 -3.7477088e-01
 -4.8304787e-01
 -9.4858986e-01
  4.8983189e-01
  5.6126630e-01
  7.4323612e-01
 -7.1616513e-01
  1.0890538e+00
 -1.8998889e+00
 -2.2734376e-02
  1.5947965e+00
  1.0730380e+00
 -2.7292943e-01
  1.0028751e+00
  6.2300842e-02
  7.5687659e-01
 -2.7508751e-01
  1.2155361e-02
 -3.8487014e-01
 -5.2295513e-02
 -5.8174372e-01
  5.8294195e-01
  1.4917257e-01
  1.4131761e+00
  7.8165531e-02
  1.3556987e+00
 -8.6278236e-01
  1.5055593e+00
 -1.3864787e+00
  2.7480564e+00
 -2.6618844e-01
  5.4274321e-01
 -2.3026417e-01
 -1.5669805e+00
 -6.2778771e-01
 -2.6332349e-01
  2.8007035e+00
  3.4447435e-01
 -3.7486732e-02
  8.0200171e-01
 -1.6495264e+00
 -3.2974780e-01
 -2.1568567e-01
 -1.6621459e+00
 -3.2685125e-01
  1.6051053e+00
 -1.0805491e-01
  1.0899358e+00
 -1.3304274e-01
 -2.9537098e-02
  7.6486963e-01
  3.8851067e-01
 -1.8571995e+00
 -7.6499516e-03
  1.2856538e+00
 -7.7307606e-01
 -1.2278020e+00
 -7.2072819e-02
 -1.9405441e+00
 -5.1044387e-01
 -2.0030384e-01
  1.7056460e+00
  3.6324131e-01
  2.0416188e+00
  6.9795126e-01
 -5.7964557e-01
  1.6877152e-02
 -1.4523599e-01
  3.5297409e-01
 -8.0468422e-01
 -6.1183482e-01
 -1.6232121e+00
 -4.5509586e-01
 -9.4115061e-01
  9.5198071e-01
 -4.6826181e-01
 -7.8298563e-01
  6.0871279e-01
  1.3257958e-01
  5.1030058e-01
 -9.9416161e-01
  1.0723372e-01
  3.0401415e-01
  2.3671573e-01
 -2.1277530e+00
 -3.1917013e-02
  1.0567223e+00
  8.8285905e-01
 -6.2740827e-01
 -6.7371845e-01
  3.9680514e-01
 -4.8603594e-01
  7.1720165e-01
 -2.0143199e-01
 -1.8325994e+00
 -5.2825636e-01
  1.2617878e+00
  1.8701236e-01
 -5.7819670e-01
 -5.9108984e-01
  1.6433145e+00
 -5.4035956e-01
 -4.2714620e-01
  7.8570700e-01
  1.5954903e+00
  1.1431626e+00
  1.0971719e+00
 -1.2848277e-02
  1.4874585e+00
 -6.7811304e-01
 -4.0580723e-01
 -3.0143797e-01
 -1.8042868e-01
 -1.4394499e+00
 -1.5256858e+00
  7.4313170e-01
  3.4384173e-01
 -8.0461806e-01
 -2.1168227e-01
  6.5880251e-01
  7.0179307e-01
  6.9211781e-02
 -5.5890995e-01
  1.6915535e+00
  1.2743418e+00
 -4.0734524e-01
  2.0998955e+00
 -9.1121465e-01
 -2.0500736e+00
  8.5109299e-01
  1.5926993e-01
  7.0273179e-01
  1.0235908e+00
  3.6218572e-01
 -5.7107365e-01
 -8.9501917e-01
  8.3308488e-01
 -5.2984852e-02
 -2.2297651e-02
 -1.5958329e-01
 -1.6146088e-01
  8.1496048e-01
 -1.5284687e+00
 -2.4515140e+00
  1.0690854e+00
 -2.2055922e+00
 -1.0441748e+00
 -4.5463300e-01
  1.0397824e+00
 -2.0598357e+00
 -8.3745074e-01
  9.6904606e-01
  1.4171879e-01
  1.5364262e-01
  1.2405912e+00
 -4.8093230e-01
  1.2509042e-01
 -3.4397513e-01
  1.5531535e+00
  9.3543336e-02
 -2.3392472e-02
  7.6995420e-01
  1.1501312e+00
  7.1812648e-01
 -1.2402871e+00
 -6.9880873e-01
  3.8715675e-01
  9.4284701e-01
 -1.8184614e-01
  3.9535511e-01
 -9.8325402e-01
  6.7458473e-02
  1.4619110e-03
 -4.3329385e-01
  6.8314785e-01
  2.1547881e-01
  3.3251569e-01
  1.3108922e+00
  6.3584852e-01
  2.9582927e-01
 -7.2066450e-01
 -7.4648798e-01
 -1.1304921e+00
 -8.4768397e-01
  4.5277765e-01
 -1.1190323e+00
 -1.7576900e+00
 -7.0229214e-01
  1.2982897e+00
  5.4203421e-01
 -1.3092794e-01
  4.3665662e-01
 -1.1944567e-01
  1.2082587e-01
 -1.1004664e+00
 -7.6768607e-01
  7.7128552e-02
  5.9093243e-01
 -8.9397460e-01
  6.0164803e-01
  1.7049503e-01
 -1.3671364e-01
 -1.6630088e-01
  1.7701851e-01
 -7.5598609e-01
  5.8985919e-01
 -8.5001796e-01
  1.8555982e+00
  1.9202400e+00
  8.1905365e-01
  1.1491224e+00
 -5.5435717e-01
 -1.1010873e+00
  1.3757589e-01
  1.9559531e-01
 -1.4063826e+00
 -1.8143449e+00
 -6.7402005e-01
 -1.8342373e+00
  1.1219920e+00
 -3.7245992e-01
  1.3107660e+00
 -3.8093761e-01
 -3.0742118e-01
 -1.0979656e+00
 -1.9449869e-02
  7.5548804e-01
  9.1118807e-01
  1.9273093e-01
 -3.1026730e-01
 -9.6387470e-01
 -6.8663335e-01
 -2.3746444e-01
  2.1948655e-01
 -7.0999563e-02
  2.9281619e-01
 -1.2023597e-01
  3.6608380e-01
 -1.2366202e+00
  2.2089674e-01
 -9.6604896e-01
 -2.2766735e-01
 -1.4913260e+00
 -6.1915511e-01
  4.0483192e-02
  7.5559533e-01
  3.7489650e-01
  1.0781599e+00
 -2.0793626e+00
 -8.7618625e-01
 -8.9454025e-01
  1.6791471e+00
 -1.3363173e+00
  7.9811162e-01
  1.2394557e+00
 -1.3355668e+00
 -4.6483651e-01
  7.2935343e-01
 -1.1304617e+00
  1.1156608e+00
  9.3309212e-01
  4.0281993e-01
  2.0259750e+00
 -1.9786632e+00
  2.4848440e-01
 -2.3618597e-01
 -5.0873613e-01
 -1.7587552e-02
  7.6763391e-01
  1.3116063e+00
 -9.2605048e-01
 -3.2610404e-01
  1.7284974e+00
 -4.5546776e-01
 -2.9968032e-01
 -7.6665771e-01
  1.5418211e+00
 -9.1470784e-01
 -1.6237534e+00
 -1.4714843e+00
  2.4396805e-01
 -4.2413157e-01
 -5.0834680e-01
 -1.8895014e-01
  1.3927206e-01
  4.9385327e-01
  1.2785150e+00
  8.7446010e-01
 -9.6167779e-01
 -1.5337877e+00
  1.2638459e-02
  1.6782008e+00
 -8.7526065e-01
 -1.6569177e+00
 -3.8984846e-02
 -1.5734073e+00
 -2.6062765e+00
  1.3100719e-01
  4.3767998e-01
  8.6752212e-01
  1.0491444e+00
 -6.2394187e-02
  3.3407465e-01
  1.8986619e-01
 -7.7198887e-01
 -3.2618034e-01
  4.7601545e-01
  6.1295617e-01
  2.2397254e+00
  5.5753571e-01
 -8.1638485e-01
  6.0294682e-01
 -3.1957349e-01
  2.4903511e-01
  2.3564847e-01
 -2.9122010e-01
 -1.1264404e+00
  4.8298623e-02
  4.0912202e-01
 -1.3940043e+00
 -1.3589387e-01
 -6.1950350e-01
 -1.6862012e+00
  5.3706098e-01
 -2.8993803e-01
  8.0598879e-01
 -2.7206463e-01
  1.2135134e+00
 -4.7834811e-01
 -5.9772468e-01
  4.8834813e-01
 -5.6118894e-02
 -1.6176878e+00
 -1.1515021e+00
 -8.4798872e-01
  1.3620205e+00
 -2.4222568e-02
 -3.1544957e-01
 -7.4480668e-02
  1.0222207e+00
  2.8147068e+00
 -4.9354520e-01
  5.2587622e-01
  3.4256354e-02
  1.3253034e+00
  2.1918378e+00
  2.4253929e+00
 -1.0677850e+00
 -2.3995239e-01
  4.3812266e-01
  8.6107707e-01
 -4.6773344e-01
  6.3090399e-02
  4.9289507e-01
  2.1728671e-01
  1.1110233e-01
  2.6219034e-01
 -2.8815499e-01
 -6.3843536e-01
  1.0632085e+00
 -2.1021101e+00
 -4.6796921e-01
 -1.1714357e+00
 -8.8509554e-01
  8.5448998e-01
  1.0394042e+00
  6.2762666e-01
  1.2723774e+00
  7.3356628e-02
  1.8485875e+00
  4.6960220e-01
  7.0785093e-01
 -3.1432450e-02
  2.8139564e-01
  1.2793212e+00
  5.6465458e-02
  1.1706403e+00
 -5.0609547e-01
  4.9740532e-01
  5.6856608e-01
 -3.1067353e-01
  1.8906326e+00
 -1.9845954e-01
  1.4945451e+00
  1.2951832e+00
 -5.1977837e-01
 -7.5544018e-01
  1.7731294e-01
  1.7371172e-01
 -8.7076026e-01
  6.4143097e-01
 -7.8128844e-01
 -7.9566407e-01
 -2.6578176e-01
 -9.1606903e-01
 -1.1794365e-01
 -5.7004815e-01
  9.5745331e-01
 -9.5771003e-01
 -1.0370861e+00
 -8.9694810e-01
  4.3558624e-01
 -4.5044520e-01
 -1.0127058e-01
  3.5940185e-01
  1.1100808e+00
  1.1043923e+00
  2.1830778e-01
  7.9623556e-01
 -2.6442771e+00
  2.6048690e-01
  1.6925569e+00
 -1.9896783e+00
 -4.3417653e-01
  2.9847631e-01
  2.1466580e-01
  1.4577512e+00
 -1.4320379e+00
  4.2226261e-01
  1.5255238e+00
 -1.1667974e-01
  4.5128557e-01
 -1.6099337e+00
 -2.2459619e-01
 -1.1453090e+00
  7.6214290e-01
 -2.8078473e-01
  1.5896167e+00
  2.9975212e-01
  1.8682456e+00
  6.0080074e-02
  7.4990588e-01
 -1.6614619e+00
  2.2700161e-01
 -9.7478503e-01
  4.5259908e-01
  2.9633799e-01
 -5.9558228e-02
  2.6720411e-01
 -1.1831541e+00
 -7.6455027e-01
 -1.9277078e+00
 -1.5810580e+00
 -8.0047214e-01
 -6.6852754e-01
 -1.0058966e+00
  1.7881655e+00
  4.7637519e-01
 -9.2913669e-01
 -6.4059180e-01
  6.7287344e-01
  4.4399211e-01
 -1.8194920e+00
  9.7083455e-01
 -1.3072766e+00
 -8.4209956e-02
 -2.0582466e+00
 -6.9303584e-01
 -9.7264618e-01
 -1.6775509e+00
 -1.1343528e+00
  5.7438087e-01
  1.4036698e+00
 -5.7613420e-01
 -1.1861063e+00
 -1.7919320e+00
 -8.2462567e-01
 -4.8442489e-01
 -6.1208844e-01
 -4.4650209e-01
  1.1410987e+00
  2.6352021e-01
  1.3313828e-01
  1.7002325e+00
  1.2833667e+00
 -4.9490890e-01
 -1.1496364e+00
  1.3503636e+00
  4.9209207e-02
 -1.1139280e-01
  1.0027789e+00
  4.0616086e-01
 -1.4378338e+00
 -2.3137991e+00
 -4.4504324e-01
  1.3141253e+00
  2.5638610e-01
 -7.1521306e-01
  2.4772064e-01
 -6.2066060e-01
 -7.1601522e-01
  8.6037248e-01
  4.5483994e-01
 -2.3735091e-01
  6.0935222e-02
 -3.4504411e-01
  7.2649741e-01
 -1.4830076e+00
 -6.4881951e-01
  1.5556071e+00
  1.8798690e+00
  9.0210009e-01
 -1.0679460e+00
  1.0275769e-02
  9.5713675e-01
  1.3789179e+00
  8.7550230e-02
 -3.0730510e-01
  5.8788991e-01
 -1.2865437e+00
 -4.8041016e-01
 -8.4796625e-01
 -7.0466357e-01
  1.2877010e+00
 -6.8687028e-01
 -1.0218941e-01
  1.2436554e+00
 -5.9395927e-01
  9.2543000e-01
 -8.4808409e-01
 -6.0776687e-01
 -6.2896065e-02
  4.8061219e-01
  2.5199080e-01
 -1.6706853e+00
  9.0171361e-01
  8.5436386e-01
 -3.5021698e-01
 -3.8089055e-01
  5.4858595e-01
  5.3513306e-01
  1.2723017e+00
  8.3540851e-01
 -7.9296690e-01
 -6.4577043e-01
  5.0670499e-01
  6.2641084e-01
  1.2376291e+00
  7.2799808e-01
  1.3590516e+00
  3.7462309e-01
  3.4591287e-01
  8.2948007e-02
  6.7203343e-01
 -8.3222461e-01
  6.0457897e-01
 -1.8782190e+00
 -1.7339243e+00
 -9.7416604e-01
  1.6074773e+00
  1.8683782e+00
 -3.5255966e-01
  2.9305977e-01
 -2.6146643e+00
 -4.7611007e-01
 -3.2468736e-01
  1.7534697e+00
 -1.8603964e+00
  1.9284628e-01
  5.9647316e-01
 -7.6478094e-01
 -1.3227291e+00
  1.6324010e-02
  8.5273439e-01
 -5.8631837e-01
  1.7139328e-01
  5.3076148e-01
 -1.9546837e+00
  2.2055910e+00
  9.2978072e-01
 -1.3344804e+00
  3.8718894e-01
  2.3163475e-02
 -3.0764136e-01
  1.4063148e-01
  2.2032361e+00
  8.5657883e-01
 -1.0115582e-01
  1.2285680e+00
  3.8356632e-01
 -7.9427443e-02
 -3.0156901e-01
  7.1989870e-01
 -9.1247696e-01
 -5.1846075e-01
 -1.0374528e+00
 -8.3720392e-01
 -8.3296257e-01
  6.5843266e-01
 -7.0731485e-01
 -2.5969398e-01
 -3.4820655e-01
  7.5316268e-01
  2.0183842e+00
 -1.1260865e+00
 -2.2323358e-01
  9.0863061e-04
 -1.5094727e+00
 -9.6207309e-01
 -3.3532128e-01
 -4.7964428e-02
  4.7599915e-01
 -2.1933471e-01
 -8.9821440e-01
 -1.2390194e-01
  4.5722798e-01
 -2.3498464e-01
  1.6367624e-02
 -6.6346180e-01
 -4.3209264e-01
 -1.1324505e+00
 -2.4092858e+00
  5.5244088e-01
  6.7283541e-02
 -4.2739064e-01
 -1.0531703e+00
  7.9676485e-01
  1.1894317e+00
  3.9165208e-01
  8.2152532e-03
 -2.9159355e-01
  1.9248949e-01
  2.4122935e-02
 -6.4006947e-02
 -2.4171948e-01
 -1.8759645e+00
 -8.5238242e-01
 -9.6101832e-01
 -1.5002422e+00
  2.4319055e-02
 -7.0861030e-01
  1.4498577e+00
  1.2954457e+00
 -1.6692710e+00
 -7.0524836e-01
  5.6617898e-01
 -3.4651387e-01
  5.8929268e-02
 -9.3785167e-01
 -2.1043694e+00
  1.0512353e+00
  1.5789371e+00
  8.0037284e-01
  1.9149420e+00
 -8.7937556e-02
  3.5447147e-01
  1.6183296e+00
  6.2804413e-01
  2.0495491e+00
  6.1550438e-01
  1.2013455e-01
  1.2623655e+00
  1.4578108e-01
 -2.3554330e+00
  1.2811428e-01
  3.0206980e-02
 -1.1148762e-02
  1.3385613e+00
 -1.3116451e-01
  5.2392870e-01
 -3.5157952e-01
 -1.1982090e+00
 -1.2454122e+00
  1.4843485e-01
 -1.2257241e+00
 -5.6485826e-01
  1.1644242e+00
  1.5466895e+00
 -1.0362949e+00
  2.0686747e-01
  3.2765335e-01
  9.9867254e-02
  7.6579183e-01
 -1.0467094e+00
 -6.5074521e-01
 -1.4712076e+00
 -9.8686749e-01
 -9.4516677e-01
 -1.0355859e+00
  5.9833515e-01
 -1.9789135e-01
 -4.9037106e-02
  2.2164204e+00
  1.1997200e+00
 -6.3204789e-01
 -8.2847607e-01
 -8.1099939e-01
  7.0208132e-01
  6.1773765e-01
 -4.3594573e-02
 -5.0422418e-01
 -2.8601596e-01
  3.6009556e-01
  8.1836087e-01
 -9.7390848e-01
  3.0419199e-02
  1.1762536e+00
 -4.6652573e-01
 -7.7108735e-01
 -1.2571054e+00
 -5.3627357e-02
  1.3126035e-01
 -2.0626327e-01
  8.5497999e-01
  1.1564082e+00
 -2.0231068e+00
 -5.5103409e-01
 -8.2204252e-01
  8.9465857e-01
  1.1189133e+00
 -4.6832889e-01
 -1.7210671e+00
 -3.3701143e-01
 -6.1348164e-01
  1.1546469e+00
  6.7006254e-01
 -1.1395470e+00
  2.9530832e-01
  1.0552936e+00
 -2.3315158e+00
 -1.4531403e+00
 -6.3852048e-01
 -1.7574497e-01
 -4.1844630e-01
 -7.4449819e-01
 -7.2937816e-01
 -6.1643678e-01
  2.2260223e-01
  1.4651527e+00
  2.3298301e-01
 -1.5124214e+00
 -3.7556407e-01
  1.4987274e-01
  3.9850956e-01
 -6.3131833e-01
  1.9026169e+00
  6.7146532e-02
  8.9995128e-01
 -1.0025235e+00
  1.0193322e+00
  1.1747075e+00
 -2.7077399e-02
  1.5188982e-01
  6.2712473e-01
  1.0679302e+00
  1.1467373e+00
  1.1433030e+00
  3.7893346e-01
  7.8117669e-02
  1.0339327e+00
  5.2949768e-01
 -1.7426714e-01
 -1.8005886e+00
 -2.4661097e-01
  3.8327157e-01
  1.9853081e+00
  1.4628545e+00
 -8.3056819e-01
  1.0668206e-01
 -1.0607872e+00
 -1.4207044e-01
  7.2301793e-01
 -7.9775232e-01
 -3.7119356e-01
  9.5909655e-02
  2.5225947e-02
  1.1070268e+00
  1.2689691e+00
 -9.0117830e-01
  3.1139058e-01
  5.2055311e-01
 -2.0980366e-01
  1.6351573e-01
  1.1167994e+00
  2.1903460e+00
 -1.6973034e+00
 -1.3851532e-01
 -1.0635804e+00
  6.3309908e-01
 -5.5701513e-02
  1.4612811e+00
 -1.1280799e+00
 -2.3635759e+00
 -1.6569467e+00
 -2.6878831e-01
  1.3776200e+00
  1.3606626e+00
 -2.3771632e+00
 -1.3050131e-01
  8.8267714e-01
 -2.2852576e-01
 -8.7357521e-01
  9.6725214e-01
  6.4338696e-01
 -5.4570740e-01
 -3.5007334e-01
 -9.9329787e-01
 -5.9524614e-01
  2.0007691e+00
  1.4003751e-01
 -1.1523451e+00
 -2.0987504e+00
  9.5310134e-01
 -1.5239325e+00
 -1.1619434e+00
 -1.5006326e+00
  1.1296061e-01
  4.8148213e-03
 -3.3325702e-01
 -1.6727698e+00
 -2.4817489e-01
 -6.4676642e-01
  2.0815382e-02
  3.7641415e-01
  3.6211807e-01
 -7.1232998e-01
  9.9960476e-01
 -4.4437000e-01
  1.5552725e-01
  8.5762012e-01
 -3.2590759e-01
  1.6795925e+00
  4.5614195e-01
  1.5561062e-01
  3.7602809e-01
 -2.1261215e+00
  1.0851839e+00
  1.9006107e+00
 -1.3138856e+00
 -1.2580839e+00
 -3.4060174e-01
 -9.5379525e-01
 -6.2551081e-01
 -1.8477106e+00
  5.5299807e-02
 -9.6702039e-01
  4.9247399e-02
  3.7521976e-01
 -5.7286721e-01
  5.2772152e-01
  1.0979807e+00
  1.9027294e-01
 -1.4277754e+00
  2.4174720e-02
 -1.5569069e+00
  1.2019810e-01
  8.8118237e-01
 -5.6675100e-01
  7.8088170e-01
 -1.4883353e+00
 -4.4601476e-01
  2.3807949e-01
  1.4766179e+00
  6.3839525e-01
  3.2740384e-01
 -5.5886412e-01
  8.4847867e-01
 -7.5197184e-01
  1.5151606e+00
 -1.0165114e+00
 -8.5999697e-01
 -2.6172695e-01
 -6.9193298e-01
 -1.7228769e+00
 -1.0204341e+00
 -6.0913992e-01
  1.2579677e-01
  4.8886305e-01
 -7.2990543e-01
  5.9940934e-01
  4.5533934e-01
 -3.8931783e-02
 -5.7311451e-01
  1.5459179e+00
  2.2448962e+00
  2.8566912e-01
  9.7854841e-01
  3.0064878e-01
  9.4009387e-01
  8.5117036e-01
 -6.2376159e-01
  1.3064139e+00
 -4.1912702e-01
  3.1675333e-01
 -2.6861918e+00
 -1.2761006e+00
 -8.0416709e-01
 -8.9759463e-01
 -1.7180037e+00
  4.8480409e-01
 -6.9199342e-01
  1.9883007e+00
  8.9852190e-01
 -8.7017745e-01
  1.3436968e-02
  1.4099046e-02
  4.2209256e-01
  1.0598657e+00
 -6.8929613e-01
 -8.8033170e-01
  2.0326428e-01
 -4.7831643e-01
  7.9369140e-01
 -1.2642679e+00
  5.8648430e-02
  1.8033890e+00
 -3.7865764e-01
  1.7004420e-01
  1.6308014e+00
 -8.3678818e-01
  2.5921609e+00
  1.1761632e+00
  1.2148926e+00
 -1.5033039e-01
  1.4217608e+00
  1.6208781e-01
 -4.2036054e-01
 -1.0484829e+00
 -2.6953503e-01
  5.0873268e-01
 -1.5527028e-02
 -1.7642860e+00
  5.2415347e-01
  1.5489098e-01
 -1.3181055e-01
  1.7423829e+00
  8.4809887e-01
 -1.1040500e+00
 -4.2083579e-01
  1.7425786e-01
 -5.7821977e-01
  1.6064570e+00
  7.4657017e-01
  1.2396413e+00
 -1.7549244e+00
 -8.4210587e-01
 -1.5407842e+00
  6.8827271e-02
  2.1243784e+00
 -1.0969635e+00
 -5.5369067e-01
 -7.1340072e-01
 -2.9980436e-01
  6.2623322e-02
 -2.4833190e-01
 -3.5083689e-02
  8.9457774e-01
 -5.6092165e-02
 -1.5865557e-01
  6.0409880e-01
 -2.2122592e-01
 -1.6165679e+00
 -9.2470074e-01
  8.0160517e-01
  2.3664814e-01
 -1.2845998e+00
 -5.9990484e-01
 -4.3769693e-01
 -1.0839266e+00
 -6.0386795e-01
  9.7038400e-01
 -2.1042731e+00
 -4.6218070e-01
  5.9066635e-01
  3.7114403e-01
  6.4018655e-01
  9.3942112e-01
 -5.0030881e-01
 -2.9931641e-01
 -1.0803524e+00
 -1.1278980e+00
  1.4014944e+00
 -5.1330835e-01
  8.6281919e-01
  2.2028186e+00
  2.8695530e-01
 -4.0114006e-01
  8.0804330e-01
 -1.3812058e+00
  6.7086238e-01
  5.3255218e-01
  1.3189187e+00
 -4.0719357e-01
  1.3484113e+00
  5.4405445e-01
  5.6253183e-01
 -4.3709981e-01
 -4.5990151e-01
  1.1377046e+00
  9.2990327e-01
  6.1583513e-01
 -1.3682297e+00
 -7.2428852e-01
  2.1189072e+00
 -6.5825474e-01
 -1.2208997e-01
  1.1065655e+00
 -1.8612839e-01
  1.0008625e+00
  7.6009995e-01
  1.9019965e+00
 -1.1037364e+00
  1.9311689e+00
  9.5250463e-01
  4.2550874e-01
 -1.5480875e+00
  5.2194589e-01
 -8.0237055e-01
 -5.0323820e-01
 -7.8143895e-01
  3.2871875e-01
 -8.3626831e-01
  2.1152279e+00
  1.5268277e+00
 -1.2028694e+00
  1.3750330e+00
  2.7556828e-01
 -1.0847880e+00
  6.3209802e-01
  2.6050779e-01
  1.0571536e+00
 -1.4347620e-01
 -1.5846506e+00
 -1.7383348e+00
 -2.9742703e-01
 -1.2651826e-01
  2.8321302e-01
 -1.2535629e+00
 -1.1925308e+00
 -2.0132643e-01
  2.0705290e-02
 -9.0965039e-01
  1.8133646e+00
 -9.0595388e-01
 -8.3984071e-01
  4.7504419e-01
  8.7118793e-01
 -6.4760387e-01
  8.7501204e-01
  1.4871709e-01
  1.4255106e+00
 -2.0418894e-01
  2.6304156e-01
  9.7822374e-01
  1.9686123e+00
  7.5817597e-01
 -8.5740256e-01
  8.8476944e-01
  6.3242280e-01
  1.6193904e+00
  6.9381833e-02
  1.2511712e+00
 -1.0467604e+00
  6.9099349e-01
 -1.1152809e+00
 -5.1977855e-01
 -1.8453178e+00
  8.8046563e-01
  8.4458455e-02
 -6.9002283e-01
  3.5325533e-01
  1.9145571e-01
  2.3376484e+00
 -8.6637151e-01
  8.1176925e-01
 -1.2015445e+00
 -1.3373666e+00
 -9.9838799e-01
 -4.9245048e-01
 -1.4309169e+00
  4.7777154e-02
  6.2513322e-02
 -1.7951031e+00
  3.0300093e+00
 -2.9466662e-01
  1.1983936e+00
  3.1928062e-01
  8.2243353e-02
  2.3002970e+00
 -1.3432229e-01
  1.0337180e+00
  1.4408782e-02
 -5.1694912e-01
  5.7268697e-01
  2.6054168e-01
  1.1932377e+00
 -1.5604337e-02
 -1.6147386e-02
 -3.7536573e-01
 -1.7497045e-01
  6.8365759e-01
 -7.8350770e-01
 -5.4681681e-02
 -1.9605837e+00
  8.8276094e-01
  8.3158302e-01
  1.3283694e-01
 -2.2668705e+00
  1.3401802e+00
 -1.6074265e+00
 -7.3675513e-01
  3.3773932e-01
 -1.1969565e+00
  1.0983286e+00
 -4.8368481e-01
 -9.7805268e-01
 -1.6276032e+00
  3.9488962e-01
  5.4959506e-01
  2.8409165e-01
 -6.6762990e-01
  2.1396840e-01
 -9.2075402e-01
  4.0347734e-01
 -1.9197991e-01
  2.7560153e+00
  1.5307014e+00
 -7.0777184e-01
  6.5390289e-01
  5.7561892e-01
 -1.2793626e+00
  3.1369132e-01
 -2.1591626e-01
  5.2919775e-01
 -2.7760789e-01
 -7.8655511e-01
 -1.1964247e+00
 -2.5055036e-01
 -6.0981572e-01
  1.4129866e+00
  6.9367218e-01
 -1.7038143e-01
 -5.5175297e-02
 -1.6584839e+00
 -1.1726745e+00
  7.2111690e-01
 -4.0976086e-01
 -1.3039684e+00
 -1.9030105e-01
  1.0742491e+00
  1.6660976e-01
 -2.3739439e-01
  5.3299713e-01
  6.8968797e-01
 -5.4039890e-01
 -1.2442366e+00
 -2.1966116e+00
 -7.1141231e-01
 -7.8424925e-01
  9.1895157e-01
 -1.3841751e-01
 -8.3928013e-01
 -9.0726495e-01
 -1.4717305e+00
  1.7224845e-01
 -3.5919955e-01
 -3.8986020e-02
  3.2614863e-03
  6.9718260e-01
  5.1525903e-01
 -9.8772913e-01
 -9.6979004e-01
 -1.1590775e+00
  7.0848018e-01
  1.0070771e+00
 -1.1893146e+00
 -4.9599028e-01
  2.3554921e-02
  4.0962793e-02
  2.4078688e-01
  1.4191464e+00
 -1.0199960e-01
  3.2251385e-01
 -4.4842899e-01
 -4.1265032e-01
 -1.7116113e+00
 -2.4964617e-01
  1.2670196e+00
  1.7094139e+00
  3.3205158e-01
  7.2097236e-01
 -7.5912726e-01
  7.2489995e-01
 -9.3909748e-02
  5.3432560e-01
 -1.1450728e+00
  4.0070862e-01
 -1.8686872e+00
 -9.6863943e-01
  3.2081019e-02
  1.3677492e+00
 -9.6011686e-01
 -1.1344177e-01
  7.3104137e-01
  9.4458503e-01
  4.6887395e-01
 -5.9527183e-01
  8.0367959e-01
 -1.1502322e+00
  1.4682478e-01
  1.0357583e+00
 -4.1977361e-01
 -1.0970182e+00
 -1.2499924e+00
 -9.1005880e-01
  3.6284703e-01
 -1.3395208e+00
 -4.1724753e-01
  2.2977941e-01
  1.3011663e+00
  5.5132294e-01
  9.4000667e-01
 -3.6468855e-01
 -3.7540370e-01
  3.3533081e-02
 -9.7161514e-01
  2.9101056e-01
  8.9190966e-01
  6.0792756e-01
 -1.1191468e-01
  6.5499026e-01
  2.1130097e-01
  1.9121563e-02
 -1.5546969e+00
  7.2203785e-01
  6.1974758e-01
 -6.6493744e-01
 -7.5799471e-01
  6.9136995e-01
 -1.2463251e+00
 -1.2059386e+00
 -1.4403733e+00
 -1.9120914e+00
 -1.9150451e+00
 -6.5107852e-02
  3.5296802e-03
  3.1553689e-01
 -2.8979963e-01
  1.3010272e+00
  7.8610122e-01
  3.8002354e-01
  5.3627604e-01
 -4.7742344e-02
  7.2269791e-01
 -1.8432450e-01
  3.4316269e-01
 -9.7616637e-01
 -7.2130692e-01
  7.2630423e-01
 -2.4712291e+00
  9.1094351e-01
  3.8417444e-01
  1.4530126e+00
  5.1673812e-01
 -6.3833553e-01
 -3.5157433e-01
  6.2619704e-01
 -9.0726930e-01
  1.7611260e+00
 -2.4919136e-01
 -4.6937159e-01
 -2.2400525e-01
  2.3405161e-01
 -9.1015205e-02
  2.8200075e-01
  8.9642918e-01
 -6.2835330e-01
  1.9227120e+00
  5.1982683e-01
 -2.4552070e-01
 -5.1362145e-01
  6.9240195e-01
  1.0297831e+00
 -7.3790796e-02
  3.9702123e-01
  1.1403520e-01
 -2.0081120e+00
  8.7384170e-01
 -4.6226822e-02
 -9.8898619e-01
  1.5727474e-01
 -9.5140696e-01
 -6.0914207e-01
 -7.9828918e-01
  1.4553109e+00
  4.2651150e-01
  2.1083059e+00
 -1.0722829e+00
  5.9126496e-01
 -4.4278899e-01
  4.3863032e-02
 -1.0068113e-01
 -5.1283920e-01
 -6.7413361e-03
 -6.3372588e-01
 -4.7309682e-01
 -1.6928187e-01
 -9.6386051e-01
  6.0673887e-01
  6.8122762e-01
  9.5701391e-01
  8.0217814e-01
 -2.2113400e+00
  1.1005173e+00
 -6.1929411e-01
  1.4378339e-01
  2.4635857e-01
 -9.4863832e-01
 -1.8033718e-01
 -1.2158668e+00
  1.3472728e+00
  7.2760063e-01
  7.6929051e-01
 -6.6396272e-01
 -1.1116495e+00
  4.4867152e-01
  2.4081902e-01
 -1.8832196e+00
 -1.7877075e-01
 -1.6922514e-01
  1.3924987e+00
  8.9841658e-01
 -1.0831504e+00
 -6.3766307e-01
 -9.7407855e-02
  1.3284156e+00
  7.6094401e-01
 -5.8288407e-01
 -2.3060694e+00
  2.3201156e+00
 -1.3887910e+00
  1.3704764e+00
  1.3165644e+00
  8.4389669e-01
  2.6650220e-01
  7.6338923e-01
  1.3171170e+00
 -2.7700818e+00
  5.3217793e-01
 -1.0188222e+00
  3.5334118e-02
 -1.1849601e+00
  1.8170459e+00
  1.0010875e+00
 -1.3633759e-01
  8.1257187e-03
 -2.9854149e-01
  4.9906719e-01
  9.3204552e-01
  7.6749384e-02
 -6.1837912e-01
 -7.8846240e-01
  1.5276160e+00
 -1.0631313e+00
 -1.2994159e+00
 -6.6396676e-02
  1.2733528e-01
  2.7022955e-01
 -2.4590433e-01
  3.0934459e-01
 -4.1311684e-01
 -8.0709857e-01
 -1.2910011e+00
  1.4205476e+00
 -1.3059443e+00
  5.1903278e-01
  3.0058581e-01
  8.2480729e-01
 -5.2159119e-01
  1.5468516e+00
 -4.6465686e-01
  6.5191996e-01
 -4.9645904e-01
  1.3936312e+00
 -9.7643369e-01
  8.7719500e-01
 -1.4425056e-01
 -4.1184723e-01
 -1.4070530e+00
  4.6875280e-01
  3.8573760e-01
  5.3597367e-01
 -2.1906924e-01
 -1.1027135e-01
  7.9136379e-02
 -4.0766588e-01
  3.2705221e-01
 -9.0359879e-01
 -5.2380437e-01
  4.2365381e-01
  1.5691271e+00
 -1.1278245e-01
  7.2559816e-01
 -1.6698877e+00
 -5.5603374e-02
  7.2222525e-01
 -3.4737434e-02
 -9.1477948e-01
 -3.8453913e-01
 -7.7472222e-01
  2.0806937e+00
  6.5903115e-01
  1.9840533e-01
 -7.0136935e-01
 -3.7745878e-01
  5.1142550e-01
  5.3103399e-01
 -4.7656080e-01
 -1.0312632e-01
 -6.7893729e-02
 -1.2112581e-02
 -1.6208144e+00
 -1.2890588e-02
  6.8701738e-01
  1.1587485e+00
 -5.9822863e-01
 -3.9572504e-01
 -8.4456182e-01
 -4.1027734e-01
  4.0944856e-01
 -1.3428897e-01
 -2.9758638e-01
 -1.3545660e+00
 -1.0051411e+00
  2.4172319e-01
 -1.2446872e+00
 -1.0105165e+00
  1.4495161e+00
 -1.5011245e+00
 -5.0478566e-01
 -3.5765532e-01
  4.8139742e-01
 -4.7233623e-01
 -9.5116115e-01
 -5.8714271e-01
  6.0120821e-01
 -6.2905140e-02
 -1.7259307e+00
  4.1179895e-01
  5.6291354e-01
  1.8934395e+00
 -8.8984537e-01
 -4.2481390e-01
  2.1154033e-01
 -4.6400285e-01
  4.4116217e-01
  6.0051411e-02
  3.4741500e-01
 -1.5088869e+00
  3.9812145e-01
 -2.1588144e-01
  8.1001782e-01
 -2.2550701e-01
  6.0330850e-01
 -1.1173224e+00
 -3.1321776e-01
 -5.9439123e-02
 -1.9212302e+00
 -2.0183502e-02
  1.5502988e+00
  4.7381604e-01
  4.5826730e-01
  9.2549890e-01
  7.1506703e-01
  1.2160009e-01
 -4.3786585e-01
 -1.3299701e+00
  2.2584848e+00
  6.8892813e-01
  9.2698210e-01
  1.2793729e-01
 -1.5749058e-01
 -8.9956266e-01
 -5.0243294e-01
 -1.1756308e-01
 -5.3928131e-01
  7.4876529e-01
  1.1672479e+00
  1.0548122e-01
 -1.1628609e+00
 -1.8400886e+00
  1.3019582e+00
 -8.4524542e-01
  1.0545935e-02
  1.9443682e-01
  5.7902014e-01
 -4.4214925e-01
  6.5401769e-01
  1.6175878e-01
  1.2636479e+00
  1.0245919e+00
 -1.6452292e+00
 -2.7507678e-01
 -3.0040675e-01
 -6.6407800e-01
 -9.3565470e-01
  1.5447341e+00
 -1.8273590e+00
  8.9042336e-02
 -7.0398593e-01
 -1.1267136e+00
  7.5542867e-02
  2.0085094e+00
  3.5413569e-01
  9.3793839e-01
 -3.2048279e-01
  1.4839778e+00
 -6.8641490e-01
 -5.5807203e-01
  6.9953787e-01
 -1.2054508e+00
  6.1300862e-01
 -2.6560497e-01
  3.8089836e-01
  2.7139467e-01
  6.1331475e-01
 -6.0862064e-01
 -2.3151467e+00
  1.7246716e+00
  5.3868961e-02
  5.6512183e-01
 -1.1197781e-01
 -1.2780930e+00
  1.0989558e-01
  1.3699296e+00
  2.0271859e+00
 -7.7900928e-01
  2.1497817e-01
  1.7758110e+00
 -7.0886827e-01
  9.0927064e-01
  2.9327154e-01
  4.2897329e-01
 -2.8453428e-01
 -1.5481402e+00
  1.1965438e+00
  1.9769248e-01
  2.0758414e+00
 -1.5306216e+00
 -4.1659003e-01
 -4.6078938e-01
 -4.3355393e-01
  8.0782568e-01
  1.0158463e+00
  6.2258697e-01
 -1.9601381e+00
 -7.8830481e-01
  4.9392989e-01
  7.0979393e-01
 -7.6025242e-01
  2.1136576e-01
 -9.4804727e-03
  7.6216084e-01
  5.8302939e-01
 -9.1889101e-01
  2.2196671e-01
 -7.5011533e-01
 -1.9347699e+00
  6.6132742e-01
  6.5795696e-01
  3.1655815e-01
 -3.6759356e-01
 -3.0431595e-01
  1.0331892e-01
 -2.3961859e+00
 -9.9583608e-01
  1.5965648e+00
 -1.3487600e+00
 -3.5673621e-01
  6.9500923e-01
  1.4167076e+00
  2.1702290e-01
  1.7089453e+00
  7.9017639e-02
  1.6717899e+00
 -4.4247827e-01
 -8.4140062e-01
  5.4999834e-01
 -1.3137522e-01
  6.6567081e-01
 -5.6477702e-01
  1.5583560e-01
  8.7342483e-01
  2.6417237e-02
 -1.6941596e+00
  3.1673208e-01
 -7.8725207e-01
  1.5971943e+00
  1.0549527e+00
 -6.0097456e-01
  2.4026060e+00
 -1.7042406e+00
 -4.2302671e-01
  3.6476502e-01
  4.9009111e-02
 -6.1481506e-01
  8.7129092e-01
 -9.4833553e-01
  6.5860814e-01
 -4.8841596e-01
 -2.6484367e-01
 -2.7230126e-01
  1.7472162e+00
  1.0990701e+00
 -3.5360962e-01
 -3.3029392e-01
 -9.3105417e-01
  7.5286144e-01
 -1.5854035e-02
  3.2510686e-01
  1.4765975e-01
  8.3973563e-01
 -1.4252726e+00
 -1.7625145e+00
  1.2532903e+00
 -1.3617035e+00
 -2.2634699e+00
  9.8748922e-01
  1.4759203e+00
  3.7973255e-01
  2.5618961e+00
 -1.1604205e+00
 -9.2659223e-01
  8.3631277e-01
  3.3303103e-01
 -9.6502429e-01
  1.1401046e-01
  1.9977902e-01
 -8.9663786e-01
 -7.9749477e-01
 -1.9392680e+00
 -8.3925521e-01
 -7.6078963e-01
 -2.8456381e-01
  2.4284658e+00
  6.1735219e-01
 -5.1876163e-01
  6.4538425e-01
  8.3487731e-01
 -9.3347067e-01
  9.8785532e-01
 -4.5919347e-01
  2.2081320e+00
 -4.0610793e-01
 -6.5950565e-02
  6.2377207e-02
  1.4721409e+00
  9.5014882e-01
 -9.2928571e-01
 -3.6427823e-01
 -7.2778243e-01
 -8.4559065e-01
  2.3544881e-01
  7.5979805e-01
 -1.7033216e-02
 -2.0438354e+00
 -5.5201638e-01
 -2.5251597e-01
  6.9189221e-01
 -1.5548205e+00
  1.6856675e-01
  1.7101858e+00
  6.8267119e-01
  6.2259912e-01
 -7.4605429e-01
 -1.6996126e-01
  1.9549111e+00
 -8.1026161e-01
 -1.1893682e+00
  6.3885188e-01
 -1.4794310e+00
 -1.7792913e-01
  4.3897146e-01
  6.7075104e-01
  9.1564506e-01
 -2.3932594e-01
  5.9038919e-01
 -2.2683410e-01
  2.0593922e-01
 -6.0257733e-01
 -1.5542966e-01
  8.9771375e-02
 -1.1099068e+00
 -3.8800114e-01
 -2.3739746e-01
 -1.0843675e+00
  2.0850029e+00
  1.3660075e-01
 -3.8351765e-01
 -2.5768921e-01
 -1.3202600e+00
 -2.8590241e-01
  1.3343337e+00
  1.4542693e+00
 -4.2798460e-01
  4.5812657e-01
  1.4594853e-01
  1.0081695e+00
  4.0434137e-01
  1.4699786e+00
  1.6790463e+00
  5.3193349e-01
  1.1150663e+00
  2.0071793e+00
  5.6611586e-01
  7.1661884e-01
  1.4472879e+00
 -7.4865901e-01
 -2.6382598e-01
 -9.4185299e-01
 -9.4703221e-01
  5.7435340e-01
 -9.7233421e-01
  1.4999844e+00
  3.8775367e-01
  3.1589776e-02
 -9.1270626e-01
 -1.1684378e+00
 -1.1608347e+00
  1.6273926e+00
 -9.7124982e-01
  1.8144758e-01
 -1.8941470e+00
 -2.9107924e+00
 -7.6126087e-01
 -4.6101776e-01
  7.7978671e-01
  9.9022800e-01
 -1.1399943e+00
 -1.5429315e-01
  6.6217762e-01
 -1.5150343e+00
 -1.1808078e+00
  1.7155905e+00
 -8.6589772e-01
 -1.1632524e-01
 -2.3432696e-02
 -1.9269320e-01
  4.2159262e-01
  1.3952258e+00
 -2.6344877e-01
 -1.9269001e+00
 -1.4013159e+00
 -1.4321645e+00
  6.7237303e-02
  4.4329858e-01
 -7.5364727e-01
 -2.8927097e-01
  7.0690310e-01
 -3.4074941e-01
  1.0812820e+00
 -5.8780837e-01
  1.3793132e-01
  1.3446112e+00
  1.9387242e-01
  1.3374937e+00
  3.8334791e-02
 -2.8203943e-01
 -1.4179450e+00
  1.9723555e-01
  4.7711200e-01
  9.8469549e-01
 -1.8358126e+00
  1.6662383e+00
 -1.2266151e-01
 -1.2075490e+00
  1.7384261e+00
 -5.5524462e-01
 -8.0358136e-01
  1.5405717e+00
  2.0354397e+00
 -8.4191585e-01
  7.4425745e-01
 -1.2447781e-01
  1.7195566e+00
 -1.1872834e+00
  1.8721679e+00
 -5.5776709e-01
 -1.4742537e-01
 -3.3427751e-01
  7.4928540e-01
 -2.3032790e-01
 -4.7625753e-01
  9.2086810e-01
 -1.5739254e+00
  2.7906460e-01
  6.4716601e-01
  5.7780164e-01
  1.2384501e+00
  1.1982247e+00
  1.1532258e+00
  6.8632230e-02
 -3.9525816e-01
  2.1812630e+00
 -2.1783254e-01
 -1.2739612e+00
  6.8394423e-01
  2.4704868e-01
  1.3401344e+00
 -1.5454511e-01
 -1.6133876e+00
  1.0979021e+00
 -4.5087859e-01
 -8.4372509e-01
 -3.5962847e-01
 -1.5166503e-01
  1.6671160e+00
 -1.0210774e+00
  1.7737105e+00
  7.0395219e-01
  1.2909555e+00
  1.0173681e+00
  1.5502834e+00
  8.2355517e-01
 -1.4832039e-01
 -9.9600768e-01
 -4.9582753e-01
  1.4993789e+00
 -3.3658430e-01
  3.8783652e-01
 -1.0055832e+00
 -3.8956314e-01
  1.7741394e-01
 -1.1927656e+00
 -7.4731416e-01
  1.9888824e-01
  9.9015728e-02
 -1.6610936e+00
 -1.8561621e+00
 -1.3642243e+00
 -2.1575598e-02
  1.1118870e+00
  1.9504037e+00
  9.9245697e-01
 -1.2018623e+00
  9.5957905e-01
  1.9443099e+00
 -2.7285403e-01
  8.4015185e-01
 -4.9883571e-01
 -1.0767102e+00
  3.1500152e-01
 -1.1671616e+00
  2.0621067e-01
  2.6757768e-01
  6.9442219e-01
 -5.9787017e-01
 -1.2055200e+00
 -1.1963428e+00
 -6.7778307e-01
  5.2541691e-01
  3.3171687e-01
 -1.2863085e+00
  2.3921092e+00
 -3.6273709e-01
 -5.9254640e-01
 -1.3659538e-01
  4.9816784e-01
 -5.5639666e-01
  1.5865660e-01
 -1.0987167e+00
 -3.4573418e-01
  2.0116401e+00
 -7.6797068e-01
 -1.9320635e+00
  9.5621955e-01
  1.1579857e-01
 -8.2422078e-01
 -2.8419024e-01
 -3.3337417e-01
 -1.1290236e+00
  1.1822726e+00
 -1.5924298e+00
 -5.8717555e-01
 -3.9104742e-01
  6.5874177e-01
 -7.8278536e-01
  1.2265276e+00
 -1.3766178e+00
  3.0194122e-01
  4.8595941e-01
 -1.4015639e-01
 -9.1856843e-01
 -1.1030349e+00
 -1.8832996e-01
 -2.0377688e-01
  5.9991801e-01
  9.2334110e-01
  2.3858838e+00
 -1.6483491e-02
 -2.5099599e-01
 -7.7851158e-01
 -1.0448078e-01
  7.7321965e-01
 -5.6056577e-01
 -2.0427109e-01
 -3.1087026e-01
  2.6931861e-01
  8.9619529e-01
  2.1328506e+00
 -1.1905309e+00
  6.1366808e-02
  7.1725136e-01
  7.9184812e-01
  3.1456420e-01
  7.5769162e-01
  1.3564243e+00
 -6.9854230e-01
 -6.8903887e-01
 -5.6604332e-01
 -2.0468409e+00
  1.2132902e-01
 -1.5722511e+00
  7.0094395e-01
  2.1424247e-01
  1.1602572e+00
  7.5435233e-01
 -1.1267994e-01
  3.2273147e-01
  3.8229036e-01
  6.2322229e-01
  1.4857985e+00
 -8.7044394e-01
 -1.9175354e+00
  8.5228187e-01
  1.7854062e-01
 -4.8899746e-01
 -1.6451384e-01
  7.1357000e-01
 -1.1417834e+00
  1.0379165e+00
  4.6251875e-01
  6.1292249e-01
  1.7503183e+00
 -2.2788210e+00
  1.2501481e+00
  1.2884934e-01
  9.3299758e-01
  2.1413375e-01
  1.4153203e-01
 -9.4541365e-01
  2.8065151e-01
 -2.6894128e-01
  9.1880590e-02
  1.8128986e-02
 -1.8026766e-01
  1.5051366e+00
  1.6884818e+00
 -1.4931085e+00
 -7.8331046e-02
 -2.4878100e-01
  5.3525186e-01
 -8.0531412e-01
  4.7171921e-01
  6.4461851e-01
 -8.2570598e-02
 -8.1851494e-01
  3.2143161e-01
 -9.7487319e-01
  2.9287472e-01
  3.0786362e-01
 -7.9646990e-02
 -6.9090992e-01
  2.1058266e-01
  5.1947820e-01
 -2.4314234e-01
  7.0743635e-02
 -2.8616354e-01
 -3.2206112e-01
  1.2073855e+00
  1.4247963e+00
  6.9561589e-01
 -6.2890071e-01
  8.2492478e-02
 -3.6676857e-01
  5.6244373e-01
 -1.3297076e+00
 -1.5059597e+00
 -1.2199490e-01
  1.1595225e+00
  7.0334023e-01
 -4.6075627e-01
  5.8420670e-01
  2.4279466e-01
 -6.5979558e-01
  1.1615875e-01
  8.6441052e-01
  2.1291542e-01
  1.2621409e-01
 -7.9286009e-01
  7.8380066e-01
 -1.1529057e+00
 -2.7531320e-01
 -2.2286396e+00
  2.0820837e-01
  1.7928539e-01
 -1.0461246e+00
 -1.1355594e+00
  3.8293529e-01
 -7.5048096e-02
  8.7512320e-01
  3.1989574e-01
  1.4082743e-01
 -6.5230650e-01
  3.7213841e-01
 -2.5729826e-01
 -2.3845039e-01
 -1.5593886e+00
  6.0987208e-02
  1.3140385e+00
 -2.4764299e-01
 -3.2020670e-01
  4.9073838e-02
  3.7617248e-01
  3.2236883e-01
  1.3383147e+00
 -1.3595736e-01
  2.9071796e-01
 -2.1802905e-01
 -1.0379163e+00
 -1.0810447e+00
  1.7325974e+00
  1.1748118e+00
 -6.0680300e-01
 -6.6800125e-02
  2.7621728e-01
 -1.4574445e+00
  7.4662685e-01
  5.3168535e-01
  1.0305351e-01
 -1.1322970e+00
  1.8789573e+00
  3.8143021e-01
  1.3327132e+00
  7.8338847e-02
 -5.5133575e-01
  3.4112707e-01
 -5.2172029e-01
 -3.1164306e-01
 -1.5501961e-01
  9.1557211e-01
  1.7271571e-01
  1.2552656e+00
 -4.8244283e-01
 -1.1230943e+00
 -3.8446096e-01
 -5.9632486e-01
  4.5677790e-01
 -2.1517615e-01
 -3.5143550e-02
 -1.7092373e+00
  4.5079187e-01
 -5.6910056e-01
 -1.5499033e+00
 -7.6354319e-01
 -5.3170204e-01
  9.4611317e-01
  2.8814891e-01
  2.4640326e-01
  3.2679945e-01
 -7.3044509e-01
  4.3547264e-01
 -5.5865681e-01
  2.6967606e-01
  1.1034701e+00
 -1.6805900e+00
  1.4304709e+00
  2.3819737e+00
  4.4436237e-01
  6.1541981e-01
 -1.0814668e+00
 -9.6082199e-01
  9.2501086e-01
 -9.2462385e-01
 -2.0472814e-01
  3.4944406e-01
  7.3004350e-02
  4.3947339e-01
  4.7040749e-01
 -9.4613516e-01
  1.0544319e+00
 -7.3047155e-01
  2.4425165e-01
 -8.4349906e-01
 -6.1049944e-01
 -4.4291094e-01
  2.7632389e-02
 -5.9143269e-01
  4.9650085e-01
 -8.2342190e-01
  4.3726030e-01
 -1.1414157e+00
  1.1429067e+00
  7.6272392e-01
  1.0983504e+00
  1.0956905e+00
  7.3486251e-01
 -1.5475109e+00
  1.5624155e+00
 -6.4916712e-01
 -1.9077793e-01
  2.7267654e+00
 -6.0982298e-02
  6.9908673e-01
  3.0896297e-01
 -1.5716990e+00
  6.8264812e-01
 -1.0120027e+00
 -8.2384780e-02
  1.5296508e+00
  1.0001782e+00
  2.2170713e+00
 -2.2564812e-01
  1.3316532e+00
  1.0199884e+00
 -6.0138941e-01
 -4.2066437e-01
 -3.4153709e-01
  2.0316710e-01
 -6.7063278e-01
  7.4339020e-01
 -1.5778710e+00
  7.7603823e-01
  3.9011261e-01
 -2.4342552e-01
 -2.4164569e-01
 -5.5236572e-01
 -1.4899096e+00
 -1.6545038e-01
 -3.0176017e-01
  4.6807167e-01
  3.2734001e-01
  2.3416151e-01
  2.5625028e-02
  3.5181710e-01
  1.2035115e+00
  1.7223319e+00
  9.9055344e-01
  2.7465135e-01
 -4.9559020e-02
 -5.0329536e-01
 -1.3069692e+00
  7.6285034e-01
  4.9140155e-01
  6.7568833e-01
 -9.0195465e-01
  2.1689052e-02
  4.5089364e-01
 -3.1655014e-01
  4.8727024e-01
  1.0157046e+00
  1.7281859e+00
 -1.0766712e+00
 -1.2063813e+00
  1.4256260e-01
 -1.2565825e+00
 -1.5109116e-01
  1.3880508e-01
  1.5603936e+00
 -7.6662719e-01
 -1.2696995e+00
 -7.0856750e-01
  2.2628480e-01
  1.0728528e+00
 -8.2829869e-01
  8.1443542e-01
 -1.1350927e-01
  4.9257967e-01
 -2.8691179e-01
  3.3234739e-01
 -3.7933743e-01
 -1.5115696e+00
  4.2748541e-01
  2.9934785e-01
  9.4242668e-01
 -1.7898700e-01
 -2.6574582e-02
  8.4370619e-01
 -8.8325642e-02
  3.9750916e-01
 -2.1662798e+00
  1.7124639e+00
 -4.8673025e-01
 -1.1618415e+00
  2.7343915e+00
  9.9704075e-01
  6.6694242e-01
 -8.0293363e-01
 -1.5267115e+00
  6.6856706e-01
 -5.6967533e-01
 -6.3029945e-01
 -5.2925932e-01
 -5.7061738e-01
  1.7405882e-01
 -8.9135401e-02
  6.8172812e-02
 -1.8945577e+00
 -1.0905415e+00
 -2.8782827e-01
 -6.2944949e-01
  8.1682909e-01
 -7.8929472e-01
 -2.5056648e-01
 -1.5775001e+00
 -3.9548373e-01
 -1.0208222e+00
  3.7617177e-01
 -2.6881033e-01
  4.1270417e-01
 -8.2557446e-01
 -2.3772449e+00
  1.1281928e+00
  9.3429185e-02
  3.2424569e-01
 -2.9092291e-02
  5.5137819e-01
 -1.9540220e-01
  5.5348259e-01
  1.5877542e+00
 -5.7506621e-01
  2.1782347e-03
 -1.2562484e+00
  6.7655152e-01
 -1.5575486e+00
 -1.1385727e+00
  7.7523518e-01
  1.2870331e+00
 -1.7544089e-01
  5.0158918e-01
 -9.9091409e-03
 -9.4822323e-01
  1.2482759e+00
 -9.3456119e-01
 -7.6240861e-01
 -3.0536020e-01
  1.1182929e+00
 -7.4851400e-01
 -2.3289156e-01
 -4.4540149e-01
 -4.3794048e-01
 -5.7014078e-01
 -6.1276710e-01
  1.8297750e-01
  2.7277955e-01
  1.3314471e+00
  6.0823423e-01
 -6.0637385e-01
 -5.1575983e-01
 -6.7059058e-01
  1.0479469e+00
 -6.2018365e-01
 -9.9398911e-01
  2.9441324e-01
  5.4204702e-01
  1.8533687e-01
 -5.1649326e-01
 -4.3154269e-01
  1.5890330e+00
  6.9043887e-01
 -3.5064968e-03
 -4.9253485e-01
 -4.4328484e-01
  1.0368654e-01
  2.7598780e-01
 -2.2425921e+00
  8.3520800e-01
 -1.2183203e+00
 -5.2415401e-02
  4.2238483e-01
 -5.1674646e-01
  2.7733959e-02
  1.2509348e+00
 -4.6266553e-01
 -3.2795516e-01
  1.6739674e+00
 -9.5601112e-01
 -8.3301413e-01
  8.8948345e-01
 -7.5422466e-01
 -5.1611483e-02
 -3.6146771e-02
  3.7824750e-01
  6.5874562e-02
 -1.8849723e+00
 -5.2389283e-02
 -2.1506740e-01
  2.5527729e-02
 -6.0799342e-01
  3.3752260e-01
  1.3855591e+00
  1.1278201e+00
 -7.2914946e-01
 -1.1329743e-01
  3.6895028e-01
 -2.3233625e-01
  9.4800562e-01
  3.7929294e-01
  9.4252884e-01
  1.4734226e+00
 -5.8924644e-03
  8.8201769e-02
 -2.5571895e+00
 -6.6933399e-01
  2.0288348e-01
  3.8902375e-01
  4.6832186e-01
  1.2599220e+00
  1.1245149e+00
  6.2376297e-01
  5.5180037e-01
  1.1120826e-01
  1.5191419e+00
  7.2650790e-01
  1.4597015e+00
  1.5557756e+00
  1.9959131e-01
 -8.2428181e-01
  1.6203845e-01
  1.1460980e+00
  5.7902002e-01
  1.3252640e+00
  5.8613962e-01
  2.6019818e-01
 -1.6151690e+00
  1.3199723e+00
  1.7112817e+00
  1.9171450e-01
  4.3870652e-01
 -1.6302699e-01
  2.0048447e-01
  2.3254709e-01
 -6.3968688e-01
 -6.3566953e-02
 -9.0615296e-01
 -3.9107215e-01
  2.4955630e-01
  4.8001298e-01
 -1.3280505e+00
  3.4653330e-01
  5.4604530e-01
  1.9288296e-02
  6.6139877e-01
 -4.1099557e-01
  1.0543662e+00
  2.4639999e-03
 -1.3965021e+00
  6.0258806e-01
 -9.4187856e-01
 -1.1040548e+00
 -5.5931330e-01
 -1.2114035e+00
  1.4014223e-01
  5.1213866e-01
  1.4774588e-01
  1.6790076e+00
 -4.2334229e-01
  7.3034024e-01
 -7.3674381e-01
  4.3215153e-01
 -4.4786373e-01
  2.3532507e+00
  7.6197612e-01
  6.0078800e-01
  7.0345873e-01
  2.7879989e-01
  1.1343107e+00
 -7.2611022e-01
  1.2621713e+00
  1.8251261e-01
 -2.5572702e-01
  3.0744493e-01
 -6.0702473e-01
  3.8313925e-01
 -2.4493988e+00
 -8.0200458e-01
 -3.1757099e-03
 -1.4309727e+00
  1.5408532e-01
 -4.5636413e-01
  1.4857002e+00
  6.1821818e-01
 -7.3010099e-01
  7.7285892e-01
  8.6733562e-01
  5.2157623e-01
 -1.0231452e+00
 -9.0474612e-01
  2.6515216e-02
  1.8564422e-02
  5.3195769e-01
 -4.7325630e-02
 -4.8028317e-01
  2.0748852e-01
  2.7396781e-02
  1.7857549e+00
 -1.2716156e-02
  1.6864510e+00
  4.9579379e-01
  2.6213543e-02
 -1.1225696e+00
  7.1324754e-01
  5.3838331e-01
  8.8599712e-01
  2.9650325e-01
  1.0685860e-01
  4.0403378e-01
 -5.3559703e-01
 -7.7743620e-01
 -1.8733948e-01
  3.9340192e-01
 -2.5487038e-01
 -1.1611140e+00
  7.9313910e-01
  2.1086133e+00
  9.5815563e-01
 -2.3622075e-01
  3.8269985e-01
  2.4116282e+00
 -1.7772539e+00
 -2.7067766e+00
 -2.2272558e+00
  4.5953107e-01
  1.0662141e+00
  1.2388921e+00
  2.4835825e-01
  2.9226327e-01
  4.0116569e-01
 -8.0076076e-02
 -1.3799112e+00
 -6.4630724e-02
  1.1489753e+00
 -1.6047924e+00
 -3.2293096e-01
  8.0020356e-01
 -4.0182537e-01
 -8.7112558e-01
  1.1939389e+00
 -3.4630388e-01
 -1.5786631e+00
 -1.1041796e+00
 -9.2037670e-02
 -2.0618537e-02
 -1.0200900e+00
 -6.3066506e-01
 -1.0381669e+00
 -9.0812451e-01
  1.1533996e+00
 -2.2438519e+00
  7.5278389e-01
  4.7192025e-01
 -4.8699352e-01
 -2.0097987e-01
  2.3200138e-01
  2.5260642e-03
  2.1236551e+00
  7.7736217e-01
  4.3291119e-01
 -2.4709688e-01
 -8.5797030e-01
  1.0634270e+00
  3.2576004e-01
  1.1614550e+00
  3.7887263e-01
  8.9792800e-01
 -2.2911055e+00
  1.9458444e+00
 -2.1859419e-01
 -1.8807211e+00
  8.9116836e-01
  6.9667238e-01
 -2.2069062e-01
  1.2585430e-01
  1.3877715e+00
 -8.7344401e-02
 -8.2362145e-01
 -4.7419438e-01
 -1.1493713e+00
  4.7137839e-01
 -6.4888608e-01
 -1.2473499e-01
 -4.9861088e-01
 -9.5329666e-01
  1.2262455e+00
 -1.2188548e+00
 -3.3661604e-01
 -1.4985494e-01
 -4.0409803e-01
  1.3121362e+00
 -1.4578201e-01
  1.1482149e+00
 -9.2754304e-01
  1.3124400e+00
  1.1266676e+00
 -1.8381855e-01
 -3.3844823e-01
 -7.1824753e-01
  7.2695032e-02
 -4.6224535e-01
  1.2182789e+00
 -1.0352954e+00
  2.5503930e-01
 -3.7041470e-01
  1.4313080e+00
 -1.3704280e+00
 -1.1836302e-01
  6.1836767e-01
  1.4099424e+00
 -1.3739499e+00
  4.5846930e-01
 -1.3517108e+00
  1.7785274e+00
 -3.1600300e-02
  5.3788108e-01
  6.2109858e-01
 -1.6868002e+00
 -4.7988895e-01
 -4.1293654e-01
  1.3077818e+00
  9.5812291e-01
  5.8846062e-01
 -1.1892813e+00
  1.4391788e+00
 -1.7651143e+00
  5.1552117e-01
  5.0203741e-01
  3.1428236e-01
 -1.7861087e+00
  1.3171413e+00
 -8.8671929e-01
 -8.0009818e-01
  1.2135860e+00
 -8.7670130e-01
 -9.8421991e-01
 -3.6045223e-01
 -1.1980882e+00
  8.1287420e-01
 -2.3657209e-01
  1.5923855e-01
 -1.6567329e+00
 -1.7918399e-01
  1.4476159e+00
 -9.5894963e-02
 -2.0587666e-01
 -6.0898662e-01
  3.8311848e-01
 -2.9690149e-01
 -1.9297148e-01
 -2.8811485e-01
  7.4335143e-02
 -5.5355352e-01
 -6.7926151e-01
 -2.0811636e+00
 -9.4730449e-01
 -9.2782825e-01
 -2.9979530e-01
  1.0163270e+00
  5.1638442e-01
  9.9186498e-01
  3.9912966e-01
 -2.7667984e-01
 -9.4940335e-02
 -2.1905531e-01
 -1.2630704e-01
 -9.5996058e-01
 -6.8137103e-01
 -1.8829228e+00
  7.4735075e-01
  3.5230842e-01
 -1.0622615e+00
 -1.3177190e+00
  4.4357657e-01
 -6.8421698e-01
  1.7900495e-01
  9.4619077e-01
 -1.2791976e+00
  1.7342742e-01
  1.2393781e+00
 -2.1503577e-01
  1.0564951e-01
  7.1490163e-01
  9.4882421e-02
 -1.4589722e-01
  1.2137630e+00
 -1.1378332e+00
  1.4235594e+00
 -3.7212554e-01
 -5.5578303e-01
 -3.1574693e-01
 -1.0693930e+00
  9.3675560e-01
 -8.6496562e-01
 -1.0960830e+00
 -1.0159231e+00
 -1.3353883e+00
 -7.2850800e-01
  3.6944193e-01
  2.7750549e-01
  1.5927863e-01
 -5.3924674e-01
  1.4707253e+00
 -9.2398602e-01
 -5.9478158e-01
 -6.7358366e-03
  9.0848237e-02
  2.6010999e-01
  8.1533825e-01
  1.1709280e+00
 -1.7317030e+00
  7.3033631e-01
 -5.3945214e-01
 -3.7029922e-01
 -4.3111005e-01
 -2.4923892e+00
  8.9959180e-01
 -1.3799044e+00
  1.4797705e-01
 -6.9751614e-01
  7.2314548e-01
  9.4939208e-01
  6.1170542e-01
 -1.3970681e+00
 -1.3913219e+00
  1.2749770e+00
 -7.8546858e-01
 -1.1304383e+00
  4.2831594e-01
 -1.3865353e-01
  1.0013859e+00
 -9.5998335e-01
  3.5888276e-01
  1.5459454e+00
 -8.0331349e-01
  6.9078527e-02
 -1.0663847e+00
 -3.9868477e-01
 -7.0706648e-01
 -1.8058518e+00
 -7.8196114e-01
  5.9114122e-01
 -7.1156061e-01
  6.0692066e-01
 -1.2792271e+00
  1.0412543e+00
 -4.8736292e-01
 -1.0354731e-01
 -1.4816785e+00
 -5.7438868e-01
  6.0921460e-01
  1.0718362e+00
  4.0738198e-01
 -1.4484727e+00
 -8.7875038e-01
  2.2169337e+00
 -8.3912349e-01
 -8.2432026e-01
  7.9648954e-01
  2.2483756e-01
  9.8725975e-01
 -1.5813302e-01
 -2.6955405e-01
  5.4550964e-01
  5.0349987e-01
 -7.6046562e-01
 -1.1824778e+00
 -4.3062660e-01
 -7.6923281e-01
  1.6594211e+00
  1.0461807e+00
  4.6484405e-01
  1.0223191e+00
 -9.9461049e-01
  6.0910970e-01
 -6.4400482e-01
 -7.6223147e-01
 -8.9998382e-01
  9.5004725e-01
  9.2303164e-02
 -1.2943859e-01
  2.3907617e-01
 -2.5712663e-01
  7.0045280e-01
  1.1269045e+00
  8.3083016e-01
  2.4665526e-01
  8.3330190e-01
 -3.3272884e+00
 -7.4775791e-01
 -6.7030919e-01
  4.8737273e-01
 -7.3484904e-01
  4.0937015e-01
  1.4071010e+00
  1.7448837e+00
 -9.1753379e-02
  2.3417654e+00
  1.0407692e+00
 -3.8445148e-01
 -1.9389299e+00
 -2.8686309e-01
  1.2202187e+00
 -2.6396310e-01
 -7.9150307e-01
 -5.6112605e-01
 -1.5553108e+00
  5.2391934e-01
  9.0422422e-01
  5.5870038e-01
  4.1706130e-02
  7.9404831e-01
 -7.7734905e-01
  1.1509154e+00
  7.7045935e-01
 -1.3517257e+00
  1.8929744e-01
 -4.5981494e-01
 -1.8237586e-01
  1.5368166e+00
  2.3562784e-01
  1.2439851e-01
  4.8709083e-01
 -1.2531214e+00
  7.8730893e-01
 -1.0764962e+00
 -1.5467982e+00
 -1.7400811e+00
  7.2367996e-01
 -1.9870871e+00
 -1.9876502e+00
 -4.9989393e-01
 -2.1541354e-01
 -1.2825837e+00
 -2.3276322e-01
  9.4984181e-02
  1.5853446e+00
 -4.6736702e-01
 -2.2135879e-01
 -4.1901952e-01
  8.5972136e-01
 -7.6005876e-02
  1.6645162e+00
  2.8603953e-01
 -3.2249388e-01
 -3.7897535e-02
  1.1803355e-01
  6.3308275e-01
  2.1859655e-01
  4.9477205e-01
  7.2871470e-01
  1.1269503e-01
  7.3227751e-01
  2.0529761e+00
 -2.5862044e-01
 -1.0099504e+00
  3.8697854e-01
 -5.1789296e-01
  4.2324564e-01
 -6.6930336e-01
 -6.3242304e-01
  1.3083636e-02
 -1.4510672e+00
 -1.8007718e-02
  8.7282598e-02
  5.5648232e-01
 -6.6870552e-01
  5.9515488e-01
 -9.9221474e-01
  8.9734244e-01
 -1.0587921e+00
  4.3154263e-01
  1.2443298e+00
 -1.7170578e+00
 -2.2318611e-01
 -1.3935493e+00
  2.9506238e-02
 -1.4898146e-02
 -1.3766872e+00
  5.8084734e-02
 -5.6555498e-01
 -1.0778854e+00
  1.3762153e+00
 -1.2279706e-02
  5.7363683e-01
  2.5476491e-01
 -1.9834203e+00
  8.9799321e-01
 -8.7528235e-01
 -6.7287278e-01
  1.7304754e+00
 -1.3093510e-01
  1.4466134e-01
  1.4095446e+00
 -9.4716567e-01
  8.2988602e-01
 -8.2289028e-01
  1.1153948e+00
  3.0350873e-01
 -7.9508297e-02
  4.1002366e-01
 -1.9742781e+00
  2.0509622e+00
  1.9020567e+00
 -1.8980459e+00
  7.2977471e-01
 -6.0325533e-01
  2.1076567e-01
  8.6138600e-01
 -1.9425071e+00
 -1.2106304e+00
 -2.8946933e-01
  8.4220690e-01
  2.4598103e+00
 -1.5207517e+00
 -1.7247586e-01
 -9.6042508e-01
 -1.4226478e-01
 -6.6422582e-01
 -1.0426178e+00
  4.5179012e-01
 -1.6022102e+00
  4.7335503e-01
 -7.7019796e-02
  8.0807698e-01
 -9.5445579e-01
  1.0544134e+00
  1.5625639e+00
  2.2130191e+00
 -6.1538440e-01
  3.8335338e-01
  4.8609596e-02
  1.4100471e+00
  8.2871938e-01
  3.2751627e-02
 -4.7661129e-02
  5.3464425e-01
  2.0963938e+00
  6.5969795e-01
 -1.0988895e-01
  1.8850571e+00
 -2.2840288e+00
  8.0485487e-01
  1.4608761e+00
 -2.0633688e+00
 -5.0277311e-01
 -7.6600289e-01
  1.0759844e-01
 -3.0977976e-01
 -6.5110397e-01
  7.7846175e-01
  7.1159023e-01
  1.7337844e-01
 -1.4700251e+00
  1.2833837e+00
 -7.3204482e-01
  1.2718242e+00
  5.7624370e-01
 -3.6320987e-01
 -3.5756409e-01
 -2.9033029e-01
 -6.2737145e-02
  3.4366113e-01
 -5.9125453e-01
 -9.8932558e-01
  1.2222744e+00
 -1.3395660e-01
  5.9080698e-02
  1.2025130e+00
  1.5071248e+00
  4.2559147e-01
 -1.5204666e+00
  1.3082664e+00
  4.3426667e-04
  7.2813225e-01
  6.0652524e-01
 -7.0376647e-01
  1.8879588e-01
 -3.7066525e-01
  8.0141819e-01
  1.0796342e+00
  2.4232347e+00
  1.0198245e+00
  1.1920422e+00
  1.0271370e-01
  1.5167774e+00
 -9.8588049e-01
  6.5868193e-01
 -1.4295761e-01
 -6.2949556e-01
 -1.4152138e+00
  2.2097981e+00
  8.1370157e-01
  8.2383513e-01
  7.3278785e-01
  1.7479781e+00
 -6.9622874e-01
 -3.0230317e-01
 -3.6908278e-01
  1.0497258e+00
 -7.9316545e-01
 -7.1167761e-01
  4.6469036e-01
  9.5175689e-01
  2.2924536e-01
 -8.8753510e-01
  8.6932272e-01
  1.8388988e+00
 -8.3246827e-02
  5.5713880e-01
  3.7624949e-01
  8.1994914e-02
  7.5130439e-01
 -4.9018204e-02
 -5.5012763e-02
 -9.0222746e-01
  6.0575831e-01
 -1.6761936e-01
 -2.1517502e-01
 -1.2801778e+00
  1.5387791e-02
 -3.2859489e-02
 -1.1451321e+00
 -1.0460302e+00
 -9.8563850e-01
 -8.6135018e-01
 -4.7809336e-01
 -7.0382279e-01
  1.1298122e+00
  2.5048202e-01
  4.1400723e-02
 -6.5009117e-01
 -9.6658683e-01
  5.4121971e-02
  7.7053428e-01
  1.2112045e+00
 -1.8417042e-04
 -9.6353930e-01
 -1.8649160e+00
  1.0405682e+00
  1.4046354e+00
  1.0546550e+00
  6.9080132e-01
  5.2212673e-01
  9.6115816e-01
 -1.2304547e+00
 -1.8748150e+00
  1.2125428e+00
  5.2154851e-01
  9.7372192e-01
  2.5597528e-01
  1.0075755e-01
  1.2254276e+00
  1.2126230e+00
  2.8231430e-01
 -1.2166698e+00
 -6.3784987e-01
  7.1161354e-01
  1.1875809e+00
 -8.8735527e-01
  4.4374740e-01
  5.8420146e-01
 -1.4037113e+00
  1.5842190e+00
  1.9578471e+00
  1.5309627e+00
  1.3308313e+00
  1.8016851e+00
 -1.1774657e-01
  1.2238270e+00
 -8.4604204e-01
  7.4069679e-02
  1.4140980e+00
 -1.8086262e-02
  1.6906904e+00
 -1.6104912e+00
  1.9485738e+00
 -6.1504549e-01
  1.3580528e+00
  2.8764179e-01
  2.2156513e+00
 -1.0823770e+00
  1.0037843e+00
  4.5393640e-01
 -1.4111190e+00
  2.5964022e-01
 -3.7231454e-01
 -5.6956887e-01
 -5.0376904e-01
 -1.7266077e-01
  2.0214536e+00
  1.0217532e+00
  1.8425231e+00
 -6.3923782e-01
  1.5051773e+00
  1.2730650e+00
  5.7819170e-01
  6.7334974e-01
  2.4890286e-01
 -9.5836490e-01
  6.8894523e-01
 -2.7504752e+00
 -1.7772264e+00
  2.2956893e+00
  1.1123545e+00
 -1.6224454e-01
  1.6285714e+00
 -1.1434145e+00
  1.2046860e+00
  8.1251258e-01
 -1.0653377e+00
 -4.0635231e-01
 -7.2177309e-01
 -1.9880270e+00
 -2.6432472e-01
 -9.1638964e-01
  3.2074526e-01
  1.9992164e-01
  8.9666015e-01
 -1.9870687e-01
  2.0595548e+00
 -2.7764952e-01
  5.1795989e-02
 -1.1542701e+00
  7.4101621e-01
 -1.8418019e-01
  1.0362979e+00
 -1.5359914e+00
 -1.3662179e+00
  8.1183136e-01
  1.5198849e-01
 -1.7035071e-02
  1.4314588e+00
 -3.3819973e-01
  2.5131685e-01
  7.0992154e-01
  1.5190184e+00
 -7.3162508e-01
 -3.4888467e-01
 -9.6423215e-01
 -5.2583903e-01
  3.3252797e-01
 -1.1112320e-01
 -9.0563929e-01
 -6.8659775e-02
  2.4245682e-01
 -3.8322359e-01
 -1.8525964e+00
  1.8792154e+00
  7.8792602e-01
 -1.5510215e+00
  5.4619128e-01
  1.5719810e-01
 -5.4553080e-01
  1.4680219e+00
  7.3672813e-01
  8.9501429e-01
 -8.1876045e-01
  1.2158775e+00
  2.7827585e+00
 -8.6056256e-01
 -2.0183382e+00
  7.0217580e-01
 -9.3447208e-02
 -5.7767999e-01
  4.9851883e-02
  1.1087548e+00
 -1.8588215e-01
 -2.0274441e+00
  1.3188540e+00
  9.1939414e-01
 -1.7113428e+00
 -4.2922828e-01
  1.0087920e+00
 -1.4325485e+00
  1.2584703e+00
 -7.6856130e-01
 -4.2391053e-01
 -1.1690810e+00
 -7.8347033e-01
 -1.8168980e-01
  2.2138064e+00
  1.1968888e+00
  6.2229234e-01
  1.0311124e+00
 -7.9913712e-01
  3.1567752e-01
 -1.0435370e-02
  6.7482954e-01
  7.6308101e-01
  1.7998812e+00
 -2.6863739e-01
 -6.5995133e-01
  1.8487650e+00
 -3.4969845e-01
  1.2923604e-01
 -1.5391070e+00
  3.8223323e-01
  6.8276680e-01
  9.9846888e-01
 -2.5421412e+00
  4.1866273e-01
  1.4867010e+00
  1.2360940e+00
  5.8064085e-01
  1.8373781e+00
 -3.7983036e-01
  5.1239341e-01
 -3.6273709e-01
 -1.5452135e+00
  3.5025424e-01
 -8.4732342e-01
 -1.9985461e-01
  1.3643712e-01
  1.4049791e+00
 -6.0031033e-01
 -7.9139888e-02
  1.3549241e+00
 -1.1075778e+00
 -3.7732640e-01
 -1.4051645e+00
 -2.9320514e-01
  4.7717187e-01
  4.1595269e-03
  9.8677151e-02
 -4.1765875e-01
  1.5735152e+00
  4.3251851e-01
  2.1907582e+00
  3.8574290e-01
  3.0857864e-01
  7.2852075e-01
  7.1105725e-01
 -1.2975677e+00
 -5.3944653e-01
  7.7657712e-01
 -3.1087643e-01
 -2.0652883e-01
 -1.0955441e-01
 -1.5712363e-01
 -8.5475057e-02
  8.5417384e-01
  1.5311567e-01
 -4.6651623e-01
 -2.9640242e-01
 -2.5644952e-01
 -1.5456324e+00
 -1.7168814e-02
  3.0732026e-02
  2.6171541e-02
  3.2955152e-01
 -2.7262807e-01
 -2.0483157e-03
  1.2015504e+00
 -4.2631745e-01
 -1.5522153e+00
  8.4255767e-01
  1.3816732e+00
  3.2824913e-01
 -1.7694581e+00
 -1.3599192e-01
  6.2509048e-01
 -2.1072745e+00
 -2.1219692e-01
 -1.8395703e-01
  4.7668290e-01
 -4.3756643e-01
  7.0159066e-01
 -8.6079663e-01
  1.9381211e+00
 -2.9676938e-01
  8.8910913e-01
 -6.0404077e-02
 -6.2665129e-01
 -1.3768966e+00
 -1.2821136e+00
  1.1095361e+00
 -7.1064807e-02
  5.0626582e-01
  1.0554074e+00
  2.0936384e+00
  1.6982076e+00
 -3.8432220e-01
 -1.7038594e+00
  1.7645814e+00
  8.1991071e-01
  7.7398324e-01
  3.0625460e-01
 -2.9717010e-01
 -9.2818886e-01
  2.1044119e-01
  5.1404059e-01
 -1.4849979e+00
  1.5200467e+00
 -1.1851252e+00
  6.5321642e-01
  2.2201660e+00
  1.7098674e+00
 -3.1923753e-01
  3.8823578e-01
 -1.7575853e+00
  2.2498040e-01
  1.7809244e+00
 -4.3046597e-01
 -3.2380107e-01
 -1.0124311e+00
 -1.6147165e+00
  2.2637625e-01
  1.3308680e+00
  1.3308058e+00
  5.4799336e-01
  1.6561039e-01
  9.8465048e-02
 -8.8629788e-01
  9.2993152e-01
 -1.4157476e+00
  7.2224480e-01
  1.0009704e+00
  2.0086565e+00
  1.5849062e+00
 -5.7025415e-01
 -7.7812517e-01
  5.5066776e-01
 -6.7511356e-01
  7.3790616e-01
 -1.0674582e-01
  2.6403469e-01
  4.6223637e-01
 -8.9534283e-01
 -9.3677938e-02
  1.4141797e+00
  5.6215960e-01
 -4.7324142e-01
 -9.4848907e-01
 -3.3447859e-01
 -5.2600998e-02
 -8.7585819e-01
 -6.9541663e-01
  1.6193554e+00
  2.8389943e-01
 -3.8480818e-01
 -8.1074566e-01
  1.5991268e+00
 -2.2322559e-01
 -1.7821409e+00
  1.5779922e+00
 -5.9006178e-01
  9.9946097e-02
  1.9376040e-01
  1.2200192e+00
  7.4342734e-01
 -1.2200935e+00
 -9.7236812e-01
 -1.0877712e+00
  5.4363841e-01
  2.3898457e-01
 -2.5462627e-01
  1.4622912e+00
  4.5451531e-01
  6.8649977e-01
 -5.0903624e-01
 -1.9455524e-01
  2.1987944e+00
  4.7878540e-01
 -3.4698141e-01
 -1.4026517e+00
  1.7954984e+00
  1.5739938e+00
  9.9798793e-01
  2.3036113e-01
  1.8124239e-01
  1.2317362e+00
 -2.6095209e-01
 -3.8028786e-01
 -6.5062553e-01
 -4.6063330e-02
  8.3075963e-02
 -1.9088432e+00
  8.3615142e-01
 -3.3870485e-01
 -1.0684907e+00
 -5.5339915e-01
 -4.2268714e-01
  1.6597288e+00
 -1.0550846e+00
 -1.6446069e-01
 -8.1146425e-01
 -3.0104116e-01
  1.7350211e+00
 -5.4521435e-01
  8.0957048e-02
 -1.2399970e-01
  4.4850612e-01
  5.9514028e-01
 -3.5020801e-01
  1.1939626e+00
  2.4998699e-01
  2.8916392e-02
  7.4058974e-01
  3.6619079e-01
 -3.5383132e-01
  1.5477704e+00
 -9.5657098e-01
 -3.3465898e+00
  8.3505708e-01
  9.9493772e-01
  1.9126269e-01
  6.8566138e-01
  3.1729782e-01
 -8.6260986e-01
  1.3569316e-01
 -1.5408075e-01
  1.0856059e+00
 -8.1701785e-02
 -6.9669598e-01
 -3.0397615e-01
 -6.4473504e-01
  6.2453473e-01
 -1.0755706e+00
 -9.2714882e-01
  1.2549920e+00
  3.0115250e-01
  8.5687310e-01
  2.4169679e-01
 -2.7182660e-01
  9.7514051e-01
  7.2967446e-01
 -1.9074927e-01
 -2.0358491e-01
 -2.0666279e-01
 -8.0689460e-01
  9.8985481e-01
  6.4838581e-02
 -6.4087617e-01
  9.9051201e-01
 -4.1761592e-01
 -2.6717903e-02
  6.3402563e-01
  8.1036985e-01
  3.7355179e-01
 -4.8211548e-01
 -9.0118244e-02
  1.0651823e+00
 -8.7857109e-01
  3.0389941e-01
 -3.5446501e-01
  2.5230899e-01
  5.4073304e-02
  7.8562844e-01
  5.1747543e-01
  9.9619800e-01
  9.8920161e-01
  8.9510441e-01
  5.9200025e-01
  2.1977949e+00
  1.0252302e+00
  6.9487594e-02
  8.5142660e-01
 -5.8546376e-01
  1.3195920e+00
  1.9992847e+00
  7.2131431e-01
 -3.3149087e-01
  9.6055835e-01
 -1.2092372e-01
  7.8387588e-01
  1.4996459e+00
  1.1121560e+00
 -1.5779863e-01
 -4.2206994e-01
 -1.2001876e+00
  8.3622116e-01
  1.6555513e+00
 -3.0263224e-01
 -7.1116352e-01
  1.3490194e+00
 -1.1467997e+00
 -2.8174520e-01
  1.8818325e+00
 -2.0300183e-01
  7.4589992e-01
 -1.0261971e+00
  1.0709061e-01
 -3.7294334e-01
 -1.7751498e+00
  1.2288650e+00
 -1.7281389e+00
 -7.7865072e-02
 -1.1036049e+00
  7.4336904e-01
 -1.7308091e-01
  1.2617385e+00
 -3.4937942e-01
  4.9138618e-01
 -1.2495603e-01
  7.4878353e-01
  2.8067112e-01
  3.0901062e-01
  4.4353342e-01
  2.1002367e+00
  3.0173039e-01
  7.0934188e-01
 -4.1391569e-01
  9.7378910e-02
  2.1413462e-01
  1.6184579e+00
 -8.2884562e-01
 -1.7323369e-02
  1.4050680e+00
  1.9463063e+00
  3.6793384e-01
  6.8017370e-01
 -5.2012730e-01
 -2.7128804e-01
  1.0560760e+00
  9.9730134e-01
 -1.3891785e+00
  1.6092203e+00
  5.0900888e-01
 -4.8465401e-01
  3.4704521e-01
 -1.1881938e+00
 -5.6479299e-01
  1.8757751e+00
 -3.6406124e-01
  1.8496288e+00
  1.1506003e+00
  1.7531984e-01
  1.1127352e+00
  1.9564449e+00
 -1.3296981e+00
  1.9980311e+00
  1.2861383e+00
  6.1591762e-01
  4.0227741e-01
  1.2265924e-01
  1.7249110e+00
  4.4417861e-01
 -1.4789423e+00
 -2.2061270e-01
 -1.9259008e+00
  6.7165971e-01
 -1.0162598e+00
 -2.2100390e-01
 -3.4495366e-01
  8.1001312e-01
 -3.7540388e-01
 -5.8998150e-01
  1.4962206e+00
  4.9762896e-01
  1.8515354e+00
  7.0524913e-01
  3.9867091e-01
  1.8959644e-01
 -4.4992870e-01
  2.1233015e+00
 -1.3369563e+00
 -1.2847967e+00
  8.4266931e-01
  3.5725439e-01
 -1.0472850e+00
  6.2358969e-01
 -1.3113978e+00
 -3.2060009e-01
 -2.7045798e-01
  2.7126411e-01
  1.4015774e-01
 -9.6784735e-01
 -1.1825718e+00
 -1.9423279e-01
  4.5063406e-01
  1.1760738e+00
  1.5756776e+00
 -1.6594823e-01
  8.2243377e-01
 -1.4325209e+00
  9.1019762e-01
  1.5955760e-01
  1.7176656e-01
 -1.4621488e+00
 -8.9248180e-01
 -1.2730573e+00
 -9.7724898e-03
  1.5645425e+00
  1.2391543e+00
  1.5560982e+00
 -9.9540776e-01
 -1.0621377e+00
 -1.2733942e+00
  5.5188131e-02
 -9.4740319e-01
 -6.0687011e-01
  7.8099626e-01
 -3.0371818e-01
 -5.5665541e-01
 -3.3967367e-01
 -4.7797462e-01
 -1.0756497e+00
 -2.5031593e-01
 -6.9425410e-01
  2.3632836e+00
  3.1917736e-01
  8.7185913e-01
 -8.3906317e-01
  1.5321569e+00
 -1.4131457e+00
  2.0379956e+00
 -1.5543875e+00
 -5.4877523e-02
 -9.5326322e-01
 -2.1355787e-01
  2.3606701e-01
  9.0207714e-01
 -6.2346441e-01
 -1.7395698e+00
 -1.2208258e+00
  1.6838007e+00
  1.0533457e+00
 -1.0172332e-02
  1.5817364e+00
 -5.7321954e-01
 -1.9010510e-01
 -1.2092239e-01
  1.8393276e+00
 -7.2817320e-01
  9.6021898e-02
 -4.1860700e-01
 -4.2198852e-02
 -3.2474827e-02
  1.0806409e+00
 -3.2885667e-02
  1.5408651e+00
  2.5890258e-01
  1.6127237e+00
  2.2855084e-01
 -4.4520608e-01
 -1.2160460e+00
  2.0633535e+00
 -3.4989816e-01
 -2.2524865e-01
 -1.9638638e+00
  1.0667875e-03
 -6.4806879e-01
 -7.8576416e-01
  8.2781518e-01
 -4.5211010e-02
  1.4994409e+00
  8.4706247e-01
  1.7900908e-01
  5.4712433e-01
  2.1367350e+00
 -3.1382036e-01
 -1.0651015e+00
  9.6498251e-01
  4.1967130e-01
  9.5892735e-02
 -6.6869652e-01
  2.3643646e-01
 -4.1341256e-02
 -9.3771559e-01
  2.0760202e+00
 -1.9168267e+00
  1.0716763e+00
 -9.2534548e-01
 -1.2731328e+00
 -2.4538531e+00
 -8.3594257e-01
  6.1483806e-01
  1.0155312e+00
  7.2321808e-01
 -1.6815297e-01
  2.2019024e+00
 -5.5118126e-01
  2.1264513e+00
 -5.1933366e-01
 -1.2461373e+00
  6.5380591e-01
  8.9794564e-01
  6.4611512e-01
  1.4169490e+00
  8.5978562e-01
 -2.2036858e-02
 -6.5764946e-01
 -3.9762169e-01
  2.6664467e+00
  8.5684335e-01
 -9.9671856e-02
 -1.1267059e+00
  3.2511553e-01
 -6.9267005e-01
  1.1377931e+00
  4.0594405e-01
 -3.5296097e-01
 -1.4904699e+00
  6.2042385e-01
  5.6415343e-01
 -5.8400607e-01
 -8.2988077e-01
 -1.2572051e+00
  3.7751579e-01
 -1.3589216e+00
  1.6142684e+00
  5.4678105e-02
 -6.0874695e-01
  2.5411694e+00
  1.2044067e+00
 -5.1633573e-01
  1.4302366e+00
 -1.0312996e+00
 -4.2627841e-01
  1.3164606e+00
  1.5417866e+00
 -1.1784689e+00
  1.0589672e+00
 -1.1560649e+00
 -1.6720097e+00
  4.3240961e-01
  2.0177848e+00
 -7.8040063e-01
 -1.0906031e+00
 -3.1218843e-03
 -3.8533774e-01
 -9.4432181e-01
  3.6106360e-01
 -1.1164414e+00
  9.0000319e-01
  3.9276895e-01
  9.1397512e-01
 -1.8276067e+00
  1.6045916e+00
  1.1035330e+00
  1.2160727e+00
 -9.0480590e-01
 -1.4261658e+00
 -5.0012124e-01
  6.9545162e-01
 -1.6354110e+00
  1.4983535e-01
 -4.6675831e-02
 -1.0838932e+00
 -8.5526490e-01
  7.5838077e-01
 -5.1983351e-01
 -1.4933831e-02
 -3.8573372e-01
  3.4858498e-01
  1.2909437e+00
 -1.0777782e+00
  7.0973702e-02
  1.6910261e+00
 -7.8638941e-01
  3.2942036e-01
 -1.3964610e-01
  1.4792153e+00
  2.8849563e-01
  4.1375053e-01
 -9.6617645e-01
 -1.3988078e+00
 -3.4761474e-01
 -5.7320088e-01
  7.5577992e-01
 -1.9740650e-01
 -6.5046239e-01
  1.0867858e+00
 -1.2052853e+00
 -4.0863165e-01
  9.0916574e-01
 -2.5367358e+00
  1.1941714e+00
 -2.1857394e-01
 -3.2507199e-01
  8.6881554e-01
  2.3591550e-01
  1.1859765e+00
  8.1095737e-01
  1.0247042e-01
 -1.5642401e+00
 -4.3857064e-02
  8.6281836e-01
 -6.5428859e-01
 -3.3906293e-01
 -2.1054302e-01
 -9.5103753e-01
 -9.7378588e-01
 -1.3932167e+00
 -1.6861113e-03
 -3.0480531e-01
 -1.0614463e+00
  1.2438806e+00
 -1.6952868e+00
  3.9655390e-01
 -7.1635610e-01
  1.2522116e-01
  1.3883991e+00
 -8.8984621e-01
  2.8905591e-01
  2.0731211e+00
 -5.3938127e-01
 -4.7149643e-01
 -9.5083338e-01
 -1.7124107e+00
  1.3402784e-01
 -1.8225362e+00
  1.5124987e+00
 -1.2037555e+00
  4.3202177e-01
  6.3355207e-01
 -9.3570523e-02
 -1.7161241e-01
  1.1355571e-01
  2.5481525e-01
 -1.0324898e+00
  4.8340452e-01
  1.2794287e+00
  1.3665702e+00
  4.5133001e-01
  1.2705849e+00
 -9.5677627e-03
  1.9953486e+00
 -1.6586231e-02
  1.0319968e+00
 -2.3647884e-01
  7.5195801e-01
  7.3562151e-01
 -1.1072440e-01
 -3.2968757e-01
  2.0381730e+00
  7.0987988e-01
  1.2785779e+00
 -5.1191129e-02
 -1.1787273e+00
  3.9093041e-01
  2.6432822e-02
  7.9925913e-01
 -1.7188060e-01
  3.9824194e-01
  4.1877825e-02
  2.5082431e+00
 -2.4429872e+00
  6.4530581e-01
 -9.1409880e-01
  1.2762648e-01
 -8.8995737e-01
 -1.2034503e+00
  5.8371121e-01
  4.8931766e-01
 -3.9767215e-01
  2.4265067e-01
 -3.9657652e-01
 -1.2558605e-01
  2.6010332e-01
 -2.7818057e-01
 -1.3093641e+00
  1.0269636e+00
  1.5941126e+00
 -1.5782310e-02
  5.2032357e-01
  6.6317296e-01
  3.1516480e-01
 -6.5628177e-01
  1.7273132e+00
  1.6504945e+00
 -1.1778910e-01
 -1.2316718e+00
  1.2424233e+00
 -6.2462330e-01
  1.7704586e+00
  2.0978637e-01
 -6.5814298e-01
  9.5427848e-02
  1.3069640e+00
 -1.0536499e-02
 -1.0887560e+00
  7.7199274e-01
 -4.7464582e-01
 -1.6595218e+00
  1.4478314e-01
 -5.1370785e-02
 -7.1681243e-01
  1.1030831e+00
 -4.7892082e-01
  1.0445009e+00
 -1.6005923e-01
 -4.0891933e-01
 -1.5161878e+00
 -5.1468551e-01
  1.2237728e+00
  3.1757495e-01
  1.5589917e+00
  4.9722499e-01
  1.3749223e+00
 -3.3997801e-01
 -2.4257307e-01
  8.6184192e-01
  1.1826533e+00
  1.4002143e+00
 -1.9861159e-01
 -1.2409300e+00
  1.5576267e-01
 -3.4937003e-01
  1.1728217e-01
  1.8624689e-01
 -1.3035159e-01
 -2.8494045e-01
 -2.0552611e+00
 -3.8698599e-01
 -9.3394184e-01
  9.1188736e-02
  4.4597942e-01
  1.1893362e-01
  5.6677490e-01
 -1.7987309e+00
  8.8774228e-01
  2.9001879e-02
 -1.2401623e+00
 -6.3087082e-01
  5.0555142e-03
 -1.0270806e-01
  6.0838449e-01
  2.2122080e+00
 -6.3454473e-01
 -5.6195432e-01
 -2.2247617e-01
  1.2069155e+00
 -5.8901209e-01
 -1.4368606e-01
  1.2280712e+00
  9.2477769e-01
  1.6276327e-01
 -2.2486627e-01
  2.9634720e-01
  7.8985810e-01
 -4.9613005e-01
 -1.7531801e+00
 -4.2560190e-02
  2.0520167e-01
  5.2065176e-01
  2.4067563e-01
 -1.1612633e+00
 -2.1679268e+00
 -7.5342697e-01
  3.8216934e-01
 -3.7541576e-02
 -9.1466510e-01
 -8.5414875e-01
  1.3341078e+00
 -7.8372413e-01
  2.1051874e+00
 -7.9348719e-01
 -2.9164541e-01
  1.1196581e+00
 -4.5464876e-01
  1.2987070e+00
  1.4544210e+00
  3.2879966e-01
  7.6921207e-01
 -3.6210501e-01
  1.8286395e-01
  3.5822001e-01
 -1.4532163e-02
  2.2073014e-01
 -1.9219321e+00
  5.2466291e-01
 -4.7300172e-01
  1.0549819e+00
  2.0522921e+00
 -1.1456685e+00
  1.9487645e-01
  7.7154356e-01
  1.1206435e+00
 -5.1555806e-01
 -4.4922423e-01
  1.4864314e+00
 -3.6613581e-01
  1.0886879e-02
  1.4367817e-02
 -1.0615357e+00
 -1.3848899e-01
  7.7526814e-01
  1.5916580e-01
  2.3229809e-01
 -3.3082178e-01
  9.0528554e-01
 -7.2569203e-01
  6.8080503e-01
 -1.9805222e+00
  2.4459743e-01
 -2.0089719e+00
 -9.4159847e-01
  4.9453625e-01
 -6.4238405e-01
  7.5035208e-01
 -8.0728918e-01
 -1.0088282e+00
  5.2620834e-01
 -6.4085585e-01
 -1.4185861e+00
  4.2603165e-01
  5.1455945e-01
  6.0977835e-02
  1.1823340e-01
  1.6141704e+00
  1.2946244e+00
 -1.0964312e-01
 -8.5130012e-01
 -1.6328800e+00
 -6.4825219e-01
 -1.2508961e+00
 -1.3267908e+00
 -1.0474614e+00
  2.3169975e-01
 -1.3766084e-02
 -7.0251149e-01
 -9.3372905e-01
  1.0033532e+00
  3.8688642e-01
  2.3885062e-01
 -2.6625404e+00
 -5.7372415e-01
 -9.8038030e-01
 -5.6656075e-01
 -1.2174564e-01
  2.0356897e-01
  2.3095955e-01
 -8.7494540e-01
 -2.1553792e-01
 -2.1875594e+00
  8.5295504e-01
  5.4630023e-01
 -1.0104587e+00
  1.6103408e+00
  1.4758748e+00
  2.7294302e-01
  1.5397061e-01
 -3.6114034e-01
 -3.7001818e-01
 -2.2928860e+00
  2.2234831e+00
  1.7350091e+00
  4.7752890e-01
 -2.6819336e-01
 -4.8044044e-01
  2.6910895e-01
 -1.8157743e-01
  7.5170803e-01
  2.3002334e-01
  7.2175816e-02
  3.8590983e-01
  8.7766208e-02
 -8.3374923e-01
 -1.5233985e+00
 -1.3136083e-02
  2.8046390e-01
 -3.4092965e+00
 -3.7600350e-01
 -5.0380725e-01
 -2.0544715e-01
 -6.3222200e-01
  1.0542935e+00
  1.3888646e+00
 -9.8239809e-01
  1.1002338e+00
  8.1780189e-01
  8.6593425e-01
 -5.7421935e-01
 -5.4208934e-01
 -7.6055914e-01
 -1.0813575e+00
 -1.1927367e+00
  1.9685487e+00
  2.5961441e-01
 -7.5367928e-01
  3.2221964e-01
 -1.8609327e+00
  5.8846384e-01
 -3.6979651e-01
  5.4641652e-01
 -6.9904298e-01
  6.6349262e-01
 -5.5998373e-01
  1.1803595e+00
 -1.5005686e+00
  4.3810269e-01
 -1.6026368e+00
 -4.5051515e-01
  3.7589309e-01
  1.9465709e-01
  4.6582401e-01
  2.9260066e-01
 -1.3042444e+00
  3.4743354e-01
 -9.9424124e-02
  9.5780373e-01
  1.8750004e+00
 -1.1378750e+00
 -3.7011296e-01
 -8.5213339e-01
 -7.8025705e-01
  1.4654385e-01
  1.9736399e-01
 -7.7682018e-02
 -2.8639756e-02
  5.3317940e-01
 -8.6447608e-01
  1.1967201e+00
 -6.4445204e-01
  1.3651931e+00
 -3.3663821e-01
  2.9769771e+00
 -8.4606707e-01
  5.8700800e-01
  1.0914793e+00
 -1.5100088e+00
 -7.3776263e-01
  2.1549909e+00
 -1.4824157e+00
  2.1338526e-02
 -4.9372154e-01
  1.2880967e+00
 -5.7729166e-02
 -1.2462994e+00
  6.1651868e-01
 -5.6773627e-01
  1.9859096e-01
 -1.2898411e-01
 -2.0278215e-01
  1.4469086e+00
 -1.0693064e+00
 -8.0384433e-01
 -1.5585169e+00
 -3.9617372e-01
  7.5106770e-01
  8.5834898e-02
 -1.5541580e+00
  7.0049459e-01
 -5.0025627e-02
 -6.5561837e-01
  1.5068324e+00
  1.0714908e+00
 -5.5267787e-01
 -7.5429213e-01
  4.0564516e-01
 -1.6236470e+00
  2.9553527e-01
 -2.2555163e+00
  2.7317601e-01
 -1.2847596e+00
  4.2341620e-01
 -6.7278099e-01
  2.5860879e+00
 -2.7055272e-01
 -7.9956830e-01
  8.7909418e-01
 -1.9184649e-01
  1.8097055e-01
 -2.7487260e-01
 -1.0709690e+00
 -7.5178397e-01
  7.8667825e-01
  1.5756321e-01
 -9.7332686e-01
  2.0664570e+00
  5.0201565e-01
  3.6909863e-01
 -1.2913393e+00
 -1.2424724e+00
 -1.6673331e+00
  1.7940776e+00
  2.4486365e+00
 -5.1057374e-01
  7.1923196e-01
 -6.9772530e-01
  1.2166470e-01
  1.2309957e+00
  7.0671952e-01
  1.1629943e+00
  3.9093319e-01
  1.3267975e-01
 -1.5318877e+00
 -1.7310358e+00
  2.4602935e+00
  2.9168206e-01
 -6.4833879e-01
 -1.0119634e+00
  1.2864400e+00
  9.1519278e-01
 -4.1836664e-02
  1.4652966e-01
 -1.5176859e+00
  1.1813056e+00
  2.4520105e-01
  7.7502650e-01
 -2.5215775e-01
 -4.6713188e-01
 -3.8031343e-01
  7.0613950e-01
  8.6565733e-02
 -3.2438582e-01
  2.1940170e-01
 -8.7170657e-03
 -2.1685901e+00
  1.3056273e+00
  2.1214227e-01
 -1.9095075e-01
 -2.7158791e-01
 -9.6354455e-01
 -2.4701679e-01
 -1.2424880e+00
  1.7607002e+00
 -4.2334116e-01
 -1.4217122e+00
  1.6076289e+00
 -1.5316123e-01
  9.2562932e-01
 -9.6477079e-01
 -6.0263437e-01
  1.4671316e+00
  8.6526439e-02
 -1.8118830e-01
  1.1023659e-02
  1.6843972e-01
 -2.3118520e-01
  1.5336285e+00
  1.7498664e-03
  5.9785378e-01
  5.9512782e-01
 -1.6418148e+00
 -4.0939042e-01
 -3.4730551e-01
  8.9028901e-01
  1.8890071e-01
  1.6038128e+00
 -6.7880833e-01
  3.5130620e-01
  1.5713968e+00
  1.6195885e+00
 -3.7291473e-01
 -5.8192343e-01
 -1.0581483e-01
  4.8645014e-01
  9.5399994e-01
  9.2249244e-01
 -3.0984241e-01
 -9.7510196e-02
 -7.5651628e-01
 -1.4268663e+00
  2.4452446e-01
  1.2788560e+00
  1.8299776e+00
 -5.5173236e-01
 -5.3088105e-01
 -2.6007727e-01
 -9.0834939e-01
  1.9712378e-01
 -3.4695756e-01
 -2.0864115e+00
  1.2303157e+00
  6.6981792e-01
  4.9854019e-01
 -2.9191437e-01
  5.6467420e-01
 -7.9944539e-01
 -5.9782374e-01
  1.5652820e-01
  1.3154036e+00
 -4.0889150e-01
 -5.8705777e-01
  3.1358990e-01
  3.7544221e-01
  4.8605147e-01
  7.1150668e-02
  7.2611374e-01
  1.7364131e+00
 -1.1671360e+00
  3.3241642e-01
  6.6055644e-01
  1.0195812e+00
 -4.7512701e-01
 -6.3822466e-01
 -4.5947683e-01
  2.2756677e+00
  4.4835997e-01
  2.7413294e-01
 -4.4035727e-01
 -5.0397608e-02
 -1.6731982e+00
 -5.3974116e-01
  1.8726053e+00
  1.0281616e-01
 -8.4077084e-01
 -7.5743085e-01
  3.9244470e-01
  3.6134106e-01
 -1.7157582e+00
  8.8624187e-02
  4.3447864e-01
  1.0776764e+00
 -9.5478815e-01
 -4.7279581e-02
 -2.1003709e+00
 -1.0649662e+00
  1.4105968e+00
  5.0272930e-01
 -5.8536196e-01
  3.4746262e-01
 -1.4642724e+00
  8.0559897e-01
  2.3905923e+00
 -6.4053857e-01
  7.6552010e-01
 -8.4260410e-01
  1.1854117e+00
 -2.8276939e-02
 -7.4540919e-01
  1.2233191e+00
  5.6432551e-01
 -1.6144571e+00
 -6.2317342e-01
 -1.9629902e+00
  8.2605833e-01
 -1.5672868e+00
  9.3187064e-02
  1.2299159e+00
 -1.3663465e+00
  6.1014915e-01
 -1.9327635e-01
  7.4869227e-01
 -1.1318769e+00
 -1.8929174e+00
  5.4569936e-01
  1.2278047e+00
  2.1381617e+00
  9.7421676e-01
  3.8942164e-01
  1.8766925e+00
 -1.3612351e+00
 -7.2370303e-01
  6.4134163e-01
 -1.4105572e+00
  1.2534040e+00
  4.2850876e-01
  9.3045664e-01
 -1.4332739e+00
 -3.8410169e-01
 -4.3501958e-01
  4.7300237e-01
 -1.2345685e-01
 -4.4849318e-01
 -3.5365051e-01
 -2.3389449e+00
  3.6201846e-02
  3.4598675e-01
  2.4315223e-01
  9.6897528e-02
  3.1125760e-01
  3.1110686e-01
  1.1239468e-01
  7.6782888e-01
  1.3524167e-01
  1.7412172e-01
 -2.0098026e-01
 -4.4863427e-01
  2.5397807e-01
 -4.7002009e-01
 -1.8925643e-01
 -4.1235152e-01
  4.5398161e-01
  1.0446732e-01
 -5.2325033e-02
  7.9905868e-01
  8.8908857e-01
 -3.2945696e-01
  3.2155165e-01
 -9.0835589e-01
  1.5173256e+00
 -6.5304804e-01
 -3.1047612e-01
  4.1342944e-01
 -2.2320879e-01
 -1.2528284e-01
 -7.8215145e-02
  2.5361305e-01
 -4.6613452e-01
 -1.7564763e-01
 -1.5151878e-01
  4.7444236e-01
 -6.5804399e-03
 -1.2574853e-01
 -3.3344477e-03
  3.0451700e-02
  2.7518216e-01
 -1.2255850e-01
  2.4133348e-01
  3.9094916e-01
  1.1407051e-01
  4.0703421e+00
  1.2817075e+00
  9.9647254e-01
 -1.4223701e-02
 -1.1657910e+00
  2.1589587e+00
  1.9262121e+00
 -1.0461913e+00
 -2.3618710e+00
 -1.6719508e+00
 -6.8510288e-01
 -2.0049450e+00
 -1.3557740e+00
 -1.8532564e-01
  7.3803127e-02
  3.2262197e-01
  5.1470179e-02
  1.8155148e+00
  1.7301506e+00
 -8.0073249e-01
 -1.1788679e+00
  5.0883037e-01
 -1.0131438e+00
  1.4960111e+00
 -1.6653304e+00
 -4.3645024e-01
  7.2936857e-01
  6.9737715e-01
  1.6130598e+00
 -1.3576422e+00
 -1.6641212e+00
  3.0342805e-01
 -9.5417805e-02
  9.3652725e-01
  7.7950388e-01
 -1.0960299e+00
 -7.1522886e-01
 -4.8956960e-01
 -3.4643623e-01
 -5.8763313e-01
  2.6590729e-01
  2.2796233e+00
 -1.2535717e+00
 -9.3492645e-01
  6.1847192e-01
  2.2436042e+00
  1.1248502e+00
 -2.0642464e+00
 -2.8006709e-01
 -1.2519820e-01
  1.8535186e-01
 -8.2637292e-01
  4.9495682e-02
  5.6697261e-01
  5.0617301e-01
 -2.2323665e-01
  3.4050140e-01
 -6.8776631e-01
 -1.0950092e+00
  9.4386858e-01
  4.9875957e-01
 -3.7109468e-02
  1.1073115e-01
  3.4443960e-01
 -1.0997193e-01
  2.4336217e-01
  1.4712034e-01
 -8.0500603e-01
  9.2134660e-01
  1.5154564e+00
  4.9692833e-01
 -5.2034843e-01
  3.2479662e-01
  1.8518052e-01
 -4.0642303e-01
  1.7858377e-01
 -3.9308259e-01
 -1.2301176e+00
  1.0318525e-01
 -6.6429013e-01
  5.6591177e-01
 -8.5669535e-01
 -2.2936510e-02
 -7.4276304e-01
 -7.9178023e-01
  2.0658737e-01
 -5.0077391e-01
 -2.5769743e-01
  4.6746975e-01
  4.5129206e-02
 -2.6654896e-01
 -7.2848745e-02
 -4.9405184e-01
 -1.0910554e+00
  4.2332023e-01
 -2.0885651e+00
 -2.2301301e-01
  2.5499752e-01
  2.7925408e-01
 -3.7063849e-01
 -8.2741171e-01
  1.1236967e+00
  7.8929555e-01
  8.7776852e-01
 -7.5783205e-01
 -3.4541196e-01
 -7.4040478e-01
  5.5044359e-01
  9.2526339e-02
  1.4684824e+00
 -7.0540324e-02
  9.5419765e-01
 -6.1392748e-01
  7.3286426e-01
 -8.4612012e-01
 -7.0545197e-01
 -1.0343244e+00
 -4.1782531e-01
 -1.7604829e-01
  1.7579497e-01
  1.5393677e-01
  1.0048275e-01
 -2.7053529e-01
 -9.7030145e-01
  5.7212147e-03
 -5.4341370e-01
 -4.4200119e-02
  3.1564075e-01
  1.1555320e+00
  4.4720396e-01
 -7.5903493e-01
  1.0346396e+00
  4.9827054e-01
  4.2322260e-01
 -2.5603551e-01
 -3.7012768e-01
  1.4748233e-02
  1.4748233e-02
  1.4748233e-02
  1.4748233e-02
  1.4748233e-02
  1.6496208e-01
  1.6496208e-01
  1.6496208e-01
  1.6496208e-01
  1.6496208e-01
  1.3526976e-01
  1.3526976e-01
  1.3526976e-01
  1.3526976e-01
  1.3526976e-01
  8.9144491e-02
  8.9144491e-02
  8.9144491e-02
  8.9144491e-02
  8.9144491e-02
  4.4329267e-02
  4.4329267e-02
  4.4329267e-02
  4.4329267e-02
  4.4329267e-02
  1.3422611e-01
  1.3422611e-01
  1.3422611e-01
  1.3422611e-01
  1.3422611e-01
  8.4136875e-04
  8.4136875e-04
  8.4136875e-04
  8.4136875e-04
  8.4136875e-04
  6.4424286e-04
  6.4424286e-04
  6.4424286e-04
  6.4424286e-04
  6.4424286e-04
  6.4151228e-04
  6.4151228e-04
  6.4151228e-04
  6.4151228e-04
  6.4151228e-04
  2.5199039e-03
  2.5199039e-03
  2.5199039e-03
  2.5199039e-03
  2.5199039e-03
  4.8909844e-03
  4.8909844e-03
  4.8909844e-03
  4.8909844e-03
  4.8909844e-03
  3.3775531e-03
  3.3775531e-03
  3.3775531e-03
  3.3775531e-03
  3.3775531e-03
  1.7062433e-03
  1.7062433e-03
  1.7062433e-03
  1.7062433e-03
  1.7062433e-03
  3.3440532e-03
  3.3440532e-03
  3.3440532e-03
  3.3440532e-03
  3.3440532e-03
  2.5909236e-03
  2.5909236e-03
  2.5909236e-03
  2.5909236e-03
  2.5909236e-03
  1.5153295e-03
  1.5153295e-03
  1.5153295e-03
  1.5153295e-03
  1.5153295e-03
  1.1391509e-03
  1.1391509e-03
  1.1391509e-03
  1.1391509e-03
  1.1391509e-03
  1.4099157e-03
  1.4099157e-03
  1.4099157e-03
  1.4099157e-03
  1.4099157e-03
  5.2794874e-01
  5.0019985e-01
