nep4_spin 1 Fe 
spin_mode 2 2
spin_feature 2 2 2 2 2 0 1 1
spin_n_max 4
cutoff 7 6 184 118
n_max 4 4
basis_size 8 8
l_max 4 2 0
ANN 50 0
 -1.3409866e+00
  4.5984545e-01
 -6.5090781e-01
 -4.5338786e-01
 -2.0114501e+00
 -2.4883100e-01
  6.6525042e-01
  3.9611897e-01
 -1.8261096e-01
 -6.9613647e-01
 -2.5127612e-02
 -7.4526958e-02
 -1.7695469e-01
 -3.4078780e-01
 -4.5462239e-01
 -6.3246965e-02
  3.7648332e-01
  1.6272868e-01
 -3.8690263e-01
 -6.0932839e-01
  1.3716340e+00
  7.4293870e-01
  1.7104852e-03
 -8.6077750e-01
 -5.9822375e-01
 -7.7840351e-03
 -6.5848660e-03
  9.5887296e-02
  5.9049237e-01
 -5.5425325e-03
 -5.8688629e-01
 -1.0334532e+00
 -1.5283810e+00
 -1.5394778e+00
 -4.6973798e-01
  2.6650295e+00
  1.7927667e+00
  3.7087784e+00
  3.0994525e+00
 -2.1774089e+00
  1.7759037e-01
  1.2043150e-03
  2.1985012e-01
  9.1331162e-02
 -3.2874385e-03
  4.8158332e-03
  5.7063084e-02
 -1.8708688e-01
  9.7844884e-02
 -3.0406062e-02
 -6.6370890e-02
 -1.2236424e-01
  2.4198601e-01
 -1.4306291e-02
 -1.8072882e-03
  6.6517822e-02
 -1.2142105e-01
 -2.0716772e-03
 -3.6549801e-03
  2.7589442e-02
  5.2882135e-02
  2.2756498e-01
  8.7027967e-01
  1.4592631e-01
  3.5594773e-02
 -3.8852345e-02
  1.7011842e-02
 -3.2747677e-01
  9.9893749e-02
  1.2418056e-01
  2.3070700e-01
 -4.9134456e-02
  1.3999510e-01
 -3.1002036e-01
 -3.2803874e-02
  1.6608325e+00
 -1.2352554e-01
 -7.2162175e-01
  6.2997007e-01
  8.3149588e-03
 -7.7882275e-02
  5.9243754e-02
  3.4271572e-02
  4.0186253e-01
 -4.6575956e-02
  1.0952865e-01
  7.6948620e-02
  1.8831556e-01
 -1.2222111e-02
  7.3085539e-02
 -2.7830473e-01
 -1.0903593e-01
  1.3476591e-02
  5.9063607e-03
  3.7619698e-01
  1.3075246e-02
 -3.5254434e-02
  3.8871314e-02
  3.0052744e-02
 -4.2485550e-02
  2.1422928e-02
 -1.3839586e-02
  3.8338602e-02
  1.1180872e-01
  1.1362569e-02
  2.8246496e-02
  3.1193709e-02
 -4.1083112e-02
  9.3816817e-03
  7.7797942e-02
  9.0625599e-02
  4.8721181e-03
 -1.0166927e-04
  7.9937512e-03
  3.1035624e-02
  4.5800373e-02
 -1.4838941e-02
  5.2527733e-02
 -3.2445017e-02
 -1.6810553e-02
  1.0381467e-02
  2.8320368e-02
  4.8306127e-04
  5.3312387e-02
 -8.2681431e-03
 -7.3054217e-02
  8.7656211e-03
 -3.4675255e-02
  7.5705540e-03
  1.8044805e-02
  7.3025495e-02
 -1.2926857e-01
  1.6251510e-02
 -5.1674154e-02
 -9.5254957e-04
 -6.0696974e-02
 -1.7326562e-02
  2.1422994e-03
  2.1511048e-02
  3.8558006e-04
 -8.7316800e-03
 -2.7441116e-02
 -9.7167101e-03
 -1.0516420e-02
  2.2467624e-02
 -3.6755938e-02
 -8.9578014e-03
 -8.1502229e-02
 -8.2516298e-02
  4.6493810e-02
  1.0640047e-02
 -3.3844542e-02
 -3.9265968e-02
  4.2853449e-03
  5.4117329e-03
  1.7485425e-02
  1.1090958e-01
 -2.2315145e-02
 -4.9720258e-03
 -8.0055865e-03
 -4.7125020e-03
 -6.1517989e-04
 -1.5705558e-02
 -2.2169909e-01
  6.5613627e-03
 -8.1124514e-02
  1.1950714e-02
 -1.0059168e-02
 -6.3691288e-02
  8.1627537e-03
 -3.8567404e-03
 -1.2135596e-02
 -1.7329512e-02
 -5.6352434e-03
  8.4306672e-03
  5.6540626e-03
  2.2225776e-03
 -1.4068884e-02
  1.1358563e-03
  2.9936492e-02
 -3.4066163e-02
  6.9247641e-02
  5.8554173e-02
  3.4116022e-02
  6.4913183e-03
  9.7411098e-03
 -6.7629651e-03
  6.3910440e-02
  1.5701203e-01
  4.6708900e-03
 -4.6849241e-03
 -1.3979838e-02
 -4.2065987e-03
  1.0800511e-02
 -2.7017271e-02
 -7.2642630e-03
 -8.8948617e-03
 -2.0894801e-02
  3.5376277e-02
  1.8924329e-02
  1.3806793e-02
 -2.1261685e-03
  1.2809825e-02
 -3.3271607e-04
 -1.0255681e-02
 -1.1324215e-03
 -2.0854382e-02
  7.7362560e-02
  1.7678017e-02
  9.7804647e-03
  5.7584033e-03
 -5.6061689e-03
  3.0162722e-02
  4.6613699e-04
  5.2239463e-02
  3.2328047e-02
 -2.5508450e-02
 -3.4984034e-02
  3.9693534e-02
 -3.5772644e-02
 -6.6551100e-03
 -5.0856462e-03
 -3.2745081e-03
  1.6574098e-02
 -2.4953953e-03
 -4.7906023e-04
 -1.3587675e-02
  1.3787417e-03
 -3.7347153e-03
 -2.7092546e-02
  2.3568317e-02
  1.9287448e-02
 -2.2761598e-02
  4.5949679e-02
 -3.6563515e-03
 -4.1102450e-03
  5.8587942e-02
  3.1511717e-02
  2.8643426e-03
  3.2204855e-02
 -1.4746625e-02
  4.6989727e-03
  7.1409881e-02
 -1.8206354e-02
 -7.2297924e-03
 -1.0989445e-02
  2.2386460e-02
 -3.3630364e-02
 -5.5655860e-03
  8.5586369e-02
  2.3750137e-03
  1.7429655e-02
 -5.4686464e-02
  4.3815421e-03
 -4.4437163e-03
 -2.0768898e-02
 -4.1914143e-02
  1.5654945e-03
 -1.1615836e-02
 -3.8131038e-04
  8.1403524e-02
 -1.8761298e-03
 -8.0496013e-02
 -4.0962830e-02
  4.6740011e-03
  1.4757590e-02
  4.8114914e-02
  2.7251476e-02
 -4.5885877e-03
  1.1102164e-02
 -5.6298923e-02
 -1.6909551e-04
 -1.2489549e-02
 -3.4801442e-02
 -7.2248554e-01
 -3.3465214e-03
 -1.2449319e-02
 -7.1985987e-03
  4.2562285e-01
  5.4302657e-01
  1.1714509e-01
 -9.0088397e-02
 -9.6541688e-02
  1.4506573e-03
  1.0239180e-03
 -1.0479029e-02
  5.0143944e-03
 -6.1098658e-02
 -3.1397305e-02
 -7.7281274e-02
  1.1632084e-01
  6.5645719e-01
  1.3026903e-02
 -2.7415484e-02
  1.2066596e-02
 -6.0625687e-02
  4.6325303e-03
  1.2018468e-02
 -3.6192346e-01
  2.0163932e-03
  1.1248782e-02
  4.5752265e-03
 -1.1025009e-02
 -5.5776458e-02
 -2.4007929e-02
 -1.4248549e-03
  2.8308851e-01
  4.2927614e-03
 -2.0669857e-02
  2.6441079e-02
 -1.1534758e-02
  2.0234010e-01
  2.2978736e-02
 -9.3438216e-03
  3.6600832e-02
  3.1464249e-02
 -3.2187711e-02
 -1.4148611e-02
 -2.0969266e-02
  4.4767763e-02
  2.2836851e-03
  2.4120610e-02
 -2.4868844e-02
  5.1432271e-02
  3.9768685e-02
  2.6581385e-03
 -4.8265525e-04
 -2.7705805e-04
  3.8826972e-02
  3.4896135e-03
 -4.7072634e-02
 -1.0209368e-02
  3.9180446e-02
 -1.5978688e-02
  2.2278808e-02
 -1.5430605e-02
  5.1687164e-03
  2.6937706e-02
  2.1875272e-02
  7.3573422e-03
  2.1343183e-02
  4.9397971e-02
  3.5831686e-02
 -4.8891045e-02
  1.7109845e-03
 -1.7659082e-03
 -1.2577495e-02
 -2.9716720e-03
 -3.9141392e-03
 -1.2612483e-02
  1.8482093e-02
  5.7895724e-02
  1.2428947e-02
 -9.4569489e-02
 -2.7678022e-02
  2.7759597e-02
 -3.2263480e-02
  8.4357476e-03
  1.6840445e-02
  2.7036171e-03
  5.2439962e-03
 -1.4002112e-02
 -1.0874838e+00
 -4.4136900e-03
 -7.4583566e-04
  8.5092830e-03
  3.4993362e-01
  7.9160529e-01
 -1.5643431e+00
  9.1410279e-01
 -7.6163739e-01
  1.5883778e+00
  2.2775358e-01
  1.7992868e-01
 -1.4206520e-01
 -1.0969740e-02
 -2.0092985e-01
 -2.4014108e-01
 -2.3431166e-01
  1.3049640e-01
  3.0326837e-01
 -6.8786874e-02
 -2.6824862e-01
 -2.3830784e-02
 -6.6961549e-02
  4.4137123e-03
 -2.3062132e-01
 -3.4450579e-01
 -1.2830167e-01
 -1.1747866e-01
  8.0248835e-03
  2.7293612e-03
 -1.0667992e+00
  6.4037226e-02
  3.6114402e-02
 -3.7664098e-01
  2.8635108e-01
 -3.4417577e-02
  2.1244173e+00
 -3.7673396e-01
  2.0208459e+00
  4.8634702e-01
 -5.9606147e-01
  1.5118228e-01
  2.0072508e-01
 -3.9466187e-01
 -6.5933287e-01
 -5.7881969e-01
  2.3275228e-01
  9.9967487e-02
 -2.4447259e-01
  5.2272817e-03
 -3.1239849e-02
  7.1768281e-03
  4.5283674e-03
 -6.1978474e-02
  2.9814493e-02
  1.4447767e-01
 -1.0049923e-01
 -2.9382855e-04
 -1.9613124e-01
  5.1979256e-01
  2.4305902e-02
  7.8741955e-03
 -2.0062137e-01
  7.5363137e-02
  4.9301106e-02
  1.8384827e-02
 -7.2361492e-02
  8.7708630e-02
  1.6461000e-01
  1.3666755e-01
  2.5407404e-02
 -1.4878881e+00
  1.2626900e-01
 -2.9621544e-01
  1.8080496e+00
  1.8475634e-01
  3.7008670e-01
  2.0428389e-02
  1.5148550e-01
 -5.7019210e-01
  6.3035008e-03
  4.2441511e+00
 -1.7178923e+00
 -3.2369695e+00
 -1.8549962e-01
  1.4650705e-01
  6.4985655e-02
 -1.2579739e-02
 -4.7231600e-02
  7.8209764e-01
 -4.1816711e-02
  1.1075938e+00
  2.6998571e-01
  5.9211589e-02
 -1.7126590e+00
  6.0130447e-02
 -1.9638184e-01
 -2.5843544e+00
 -6.9912410e-01
 -3.6538166e-01
 -2.2032957e-01
  3.8969588e-01
 -4.3884507e-01
 -1.1103969e+00
 -1.3302995e-02
 -2.4100674e-02
 -2.9182932e-01
 -1.5676326e+00
 -4.0240544e-01
  2.2657913e-01
 -3.3561221e-01
 -6.8423912e-02
 -1.2050688e+00
  1.9564744e-02
  1.1896566e-01
 -4.6739966e-01
 -5.9935857e-02
 -2.9847792e-01
 -1.8119889e+00
  3.2657143e-01
  5.2488554e-02
 -2.2270387e-02
 -5.5681783e-01
 -6.1278916e-03
 -5.1368098e-03
  6.6434219e-02
 -4.7370768e-03
  1.9644855e-02
 -7.8747153e-01
 -8.1552044e-02
  2.5455939e-02
 -9.2994355e-02
  3.0755797e-02
 -5.2055124e-02
 -1.0525007e-02
  9.4691692e-03
 -4.7224979e-03
  7.2603476e-01
 -5.2951155e-03
  1.6159585e-01
  1.3152291e-02
 -1.0449026e-02
  1.4669752e-01
 -1.7947013e-02
 -7.5058262e-03
 -4.3137815e-02
 -1.1832433e-02
 -5.4246802e-03
  2.1154860e-02
  1.4862115e-02
 -8.1840968e-03
  2.3808628e-02
 -5.8965776e-03
 -3.1999730e-02
 -5.2511320e-03
 -1.6454019e-04
 -1.5014671e-02
  5.4716561e-02
 -6.5630269e-01
 -1.0814678e-02
  1.4467096e-01
 -2.7180884e-02
  4.9349815e-02
 -4.3481308e-01
  7.1832210e-02
  3.1979993e-01
 -6.6661991e-02
 -4.6731610e-02
 -3.2882545e-02
  3.2126259e-02
  9.3379565e-02
  7.3325351e-02
 -1.0799115e-02
 -3.3720699e-01
 -9.0872096e-03
  9.0208121e-02
 -1.0985454e-02
 -1.8283520e-02
  2.6592681e-02
  3.4886908e-02
  6.4582594e-02
  8.9161536e-03
  3.9145939e-02
 -1.4772268e-01
 -1.5954850e-02
 -3.0015756e-03
  7.8150313e-03
  2.2496689e-02
 -1.8586980e-02
  5.0308073e-01
  3.7038869e-03
 -9.2651872e-03
 -4.2218339e-02
  1.1335569e-02
 -1.8150208e-03
 -1.5087365e-02
  3.6016107e-02
 -4.3557197e-02
  3.7057761e-02
  1.5337741e-02
  4.9550403e-02
 -3.8637330e-03
  3.8423300e-02
 -1.7359680e-02
  1.0148304e-02
 -3.6985308e-02
 -2.2390004e-02
  6.7809755e-03
  1.8578036e-02
  2.5710210e-02
  3.6887236e-02
  2.9663993e-02
 -6.4302422e-02
  5.7785246e-03
 -7.2580772e-03
 -1.9463424e-02
 -6.1184219e-03
 -9.1932109e-03
  2.4523942e-02
 -4.7203224e-02
 -6.2876470e-02
 -7.4488933e-05
  2.6447935e-02
 -7.6387160e-02
  9.2549445e-03
  1.6016039e-03
  8.5918941e-03
  2.7364118e-02
  9.7247697e-03
  1.8433617e-02
  7.9491464e-03
  4.2790875e-02
  4.6756517e-02
 -8.6023554e-02
  1.3759485e-02
  5.8082431e-03
 -1.5346804e-02
 -3.0341145e-02
  2.5585746e-02
 -1.7802639e-02
 -1.6950682e-04
  8.7438561e-03
  2.9570227e-02
  8.7923957e-03
 -2.4878688e-02
  3.5551989e-03
 -8.2103461e-02
 -1.8747350e-02
 -2.0442262e-02
 -8.5426960e-03
  7.0421477e-03
  7.8990459e-03
 -7.9091443e-03
 -4.2044371e-03
 -1.0303853e-01
  1.2303288e-02
  1.8152568e-02
  6.3943816e-03
  4.2534303e-02
 -1.7635884e-02
  3.3730012e-03
  3.3141060e-03
 -1.2538373e-02
  3.3875469e-03
  1.6334152e-02
 -3.0266531e-02
 -5.4357037e-02
 -3.2626126e-02
 -8.6557940e-03
 -4.1871548e-02
  7.4591562e-02
 -3.7635516e-03
 -2.9117862e-02
 -7.4928753e-02
  3.4392928e-03
  1.6563812e-02
 -6.2579596e-03
  2.9493334e-02
 -8.1854545e-02
 -1.5041605e-02
 -2.3200434e-02
 -2.5687395e-03
 -1.0269837e+00
  5.4043829e-01
  5.9939706e-01
  2.3507681e-02
  1.2006074e+00
 -1.9889110e+00
 -1.0875179e-02
 -6.0215961e-02
 -5.4489249e-01
 -5.7019569e-02
 -5.5515176e-01
 -3.0403957e-01
 -2.7699223e-01
 -5.4356568e-02
  1.8348241e-03
 -9.1678701e-02
 -2.7539361e-01
  4.2785662e-01
 -2.1489691e-03
  2.1926610e-01
  5.6605333e-01
 -2.5184441e-01
  1.2950298e+00
  3.6441721e-03
  1.8598761e-02
 -5.0177155e-03
 -6.9856986e-02
 -2.3057845e-03
 -8.9717330e-03
 -1.4301973e-03
  1.1578497e+00
  3.4265916e-03
 -8.4823400e-02
  1.7091890e-01
  1.4245801e-02
  8.7646854e-01
  1.0588878e-02
  3.3313327e-02
  8.9275995e-03
  1.8906204e-01
 -1.2883897e-03
  6.3058026e-02
  8.1716634e-02
 -6.8684645e-02
 -1.0123134e-01
  2.8286833e-02
  1.1624455e-02
 -2.0052793e-02
 -1.2471677e-02
 -2.0852566e-02
  4.0458828e-02
  3.5378069e-02
 -1.1403572e-02
 -1.8721540e-02
 -6.1029813e-04
  1.2585084e-03
 -1.1218874e-01
 -1.0710178e-03
  6.3648701e-02
  1.4029210e-02
  1.2127340e+00
  2.0575128e-02
 -1.8420924e-02
  2.8060080e-02
  4.7297999e-02
 -7.2051561e-01
 -2.4756391e-02
 -6.3300841e-02
  1.6924829e-03
 -4.6973445e-02
 -1.9428054e-02
 -7.8982944e-03
 -5.9028085e-02
 -7.4668630e-04
 -3.8447790e-03
  4.3088231e-02
  3.9804187e-03
  4.8494703e-04
  5.7212655e-03
  3.3272573e-04
  2.9982102e-01
  3.2361433e-05
 -8.1842598e-03
  3.7249387e-03
 -2.3429649e-02
 -2.0004369e-01
  3.1155357e-03
  1.5029019e-01
 -1.7758241e-01
  2.6545972e-02
 -2.3632306e-01
 -1.2057162e-01
  7.4583595e-03
 -1.5215182e-02
 -5.0726101e-02
  2.2736082e-02
 -2.7590092e-02
 -6.1380279e-01
 -4.2357847e-02
 -4.1406751e-02
 -1.0931364e-02
 -2.9827077e-02
 -3.2823950e-03
 -1.6512524e-03
 -8.2051776e-02
  4.2335346e-02
  6.9483239e-03
 -9.8462701e-03
 -1.4163068e-02
 -4.0675417e-02
  1.8188810e-02
 -8.2895933e-03
  5.2664806e-03
 -7.3548490e-03
  4.2527936e-02
 -1.1659439e-01
  2.3735123e-02
 -2.2157902e-02
 -2.7524821e-02
 -1.5629712e-02
 -1.5361514e-02
  5.1313052e-03
  4.7521465e-03
 -7.4833217e-03
  3.3543099e-04
  3.5500079e-02
 -1.5463877e-02
 -1.2912949e-02
  9.1903005e-03
  9.6513713e-03
 -9.1364048e-02
  2.7056172e-02
 -6.8882341e-03
  3.6203802e-02
  2.7395692e-02
 -8.1997737e-03
  2.8024578e-02
  1.7562859e-02
 -2.8648074e-03
 -8.6357966e-03
 -1.9023912e-02
  1.8033460e-02
 -4.1283346e-03
  4.1424841e-02
 -3.6868215e-02
  5.8062733e-03
  2.1943545e-02
  1.4869423e-03
  2.8455786e-02
 -4.3555938e-02
  2.1594789e-02
  5.3345282e-03
  4.7743879e-03
  2.2113182e-02
 -3.7365042e-02
 -1.6700959e-02
 -3.6877717e-03
 -1.8636549e-02
  1.7594405e-02
 -6.3794344e-03
  3.1885326e-02
 -1.1746182e-02
  6.2262103e-02
  2.4684450e-02
  3.4246404e-02
  2.2587035e-02
 -3.4935795e-02
 -1.8678501e-02
  1.3603604e-02
  1.3405738e-02
 -7.3988587e-03
 -1.4973449e-04
 -5.7346411e-02
  2.9371513e-02
 -2.0397346e-02
 -8.5829888e-03
 -3.4420542e-02
 -1.1886063e-02
 -1.2293365e-02
 -7.1821816e-02
  8.8684233e-03
 -6.0863361e-02
 -5.1381361e-02
  1.5699664e-02
  2.1860509e-01
  6.0225654e-01
  1.0425542e-02
 -4.9845919e-01
 -1.6823181e+00
  6.7171669e-01
 -6.7266379e-03
  2.9938525e-01
 -3.4756079e-01
 -7.9313040e-02
  5.6985978e-02
  1.5715131e-01
  4.3081973e-02
  2.3643543e-01
 -1.3419354e-01
 -4.8715830e-02
  2.6352525e-01
  2.7908392e-02
  2.0285204e-02
 -1.1129247e+00
 -1.6432163e+00
  5.1088876e-01
  1.9392695e-01
  3.1238526e-01
  6.0209155e-02
 -3.3048384e-02
 -1.4879824e-02
 -3.7385061e-02
  4.7151569e-02
  5.2969134e-04
  1.7582756e+00
  6.3108230e-01
  2.9352802e-01
  1.5539386e+00
  1.6451727e-01
 -2.9137967e+00
 -2.2421403e-01
 -2.2744099e-04
 -1.4574054e-01
 -1.9095739e+00
  7.7678775e-03
 -2.6556647e-01
 -1.7469494e-01
  8.6440174e-03
 -7.0788572e-03
  7.8901369e-03
  5.2492592e-02
  6.2054456e-03
  6.6171162e-02
 -1.8502915e-02
 -9.3264366e-04
 -5.4325216e-02
 -4.8949093e-02
  1.8140879e-02
 -8.8637071e-03
  7.2908744e-02
 -5.9351069e-03
 -4.5466362e-04
  1.3327476e-01
  5.6598564e-03
 -3.7195534e-01
 -5.1539820e-02
 -4.0396699e-01
  1.8792527e-02
 -4.2093690e-02
  2.4782600e-01
  2.7008520e-02
  5.7603592e-01
  7.0042856e-02
  2.5933279e-02
 -3.0069408e-01
 -9.2918403e-02
 -2.7843797e-01
 -8.7616555e-03
 -3.9783041e-03
  1.0104784e+00
 -2.5099695e-02
 -2.6800495e-02
  2.2874463e-01
  8.3611451e-02
 -4.0190268e-01
 -2.7163047e-02
 -2.8768957e-02
 -5.3369232e-02
 -4.4663990e-01
 -9.4527528e-03
 -2.7265737e-02
  9.1031725e-03
 -3.4947358e-02
 -1.9494044e-02
  7.5290132e-01
 -4.2499429e-01
  1.9090535e-02
  3.7299957e-02
 -1.4347579e+00
  1.0017879e+00
  8.4497392e-01
  6.8415952e-01
  1.6690798e-02
 -1.9052835e-01
  3.3127751e-02
  7.1602099e-02
  1.4879704e-02
  6.4880215e-02
 -3.3157477e-03
 -5.7808202e-02
 -3.0978523e-02
  2.9641362e-02
  7.5856857e-03
 -1.3824870e-01
  5.6925915e-02
 -5.6599744e-02
 -6.0946204e-06
 -1.3269811e-02
 -1.0409317e-02
 -2.9912932e-02
  1.5879844e-01
  8.1973923e-03
 -3.8015421e-03
 -6.1978392e-02
 -1.7325362e-04
 -3.2013781e-02
  9.3758320e-03
  1.4497175e-02
 -9.8900609e-03
 -3.0743925e-02
 -3.2128964e-02
  1.3937320e-02
 -6.4988092e-02
 -3.6987963e-03
 -3.6230483e-03
 -3.3717081e-02
  7.1785355e-05
 -5.5035367e-03
  6.6404194e-03
 -9.1845756e-03
 -6.4463108e-03
  3.4305782e-03
  2.6389156e-02
 -2.4639241e-02
  3.1690480e-04
 -1.2493387e-02
  4.0179323e-02
 -1.9197298e-03
  3.4619938e-03
 -1.5346857e-02
  4.8702601e-03
 -3.1420168e-02
 -4.5178480e-02
 -1.5492233e-02
  6.3090646e-03
  4.9242550e-03
  2.2096230e-02
 -2.6078453e-02
  1.1664608e-02
 -2.0804748e-02
  5.0980601e-02
  2.4228231e-03
  3.7468188e-02
 -9.6090073e-03
 -3.4567952e-02
 -1.9243169e-01
 -6.7621745e-02
  1.7092368e-02
  3.8852479e-02
 -5.0270306e-03
 -1.2311667e-01
  6.4865762e-01
  3.7456926e-02
 -4.8786331e-02
  1.3716027e-01
 -1.6985394e-02
 -1.5334624e-02
 -6.4084423e-03
  9.1468478e-03
  5.1169037e-03
 -2.8053771e-03
 -3.3580605e-03
 -5.2360781e-03
 -4.4078227e-02
  7.7972454e-03
 -9.5941108e-03
 -2.2198794e+00
 -1.5235364e+00
  3.3410545e-02
 -6.7813052e-03
  1.3554116e-01
  1.3042603e-02
 -3.2246474e-02
 -1.2650910e-03
  1.0490861e-02
  2.1556545e-02
 -3.0377817e-03
 -3.6138963e-02
  8.3455015e-03
 -4.9915118e-04
 -3.7008449e-03
  3.9451499e-02
  6.2335744e-03
  3.9521903e-02
 -2.3863264e-03
  4.0801153e-02
  1.6801991e-01
 -3.4103829e-02
 -3.3134749e-04
  1.7822834e-02
 -1.8711480e-01
 -3.7934966e-02
  2.5885925e-02
 -5.1653800e-03
 -5.7601985e-03
 -2.3658853e-02
  6.4043333e-03
  5.5772990e-02
  2.0157311e-02
  1.6996529e-02
 -2.5419861e-02
 -2.6155701e-02
  2.4788300e-02
  9.0920152e-03
 -1.3936745e-02
 -1.2367662e-02
 -3.6565047e-03
 -2.0129479e-02
  3.6993977e-02
  3.3564750e-02
  1.5881693e-02
  1.2863831e-02
 -2.1710780e-02
 -1.9362994e-03
 -9.7114183e-03
 -2.4253910e-04
 -6.2057775e-02
 -2.1616558e-02
 -1.2425019e-02
 -8.1153885e-03
  1.9534003e-02
 -3.5307243e-02
  2.1031497e-02
 -1.7923871e-02
  2.9698082e-03
  2.3117566e-02
 -9.1067821e-02
 -5.6163417e-03
  6.6533107e-03
 -1.4351739e-02
 -5.2011092e-03
  1.4807700e-02
  1.8150114e-02
 -1.4963820e-02
  6.6669155e-03
  3.3692513e-03
  6.6050789e-03
  3.1917810e-02
  5.0300192e-02
  2.4931645e-04
 -1.2418350e-02
  1.7431678e-02
 -1.2979263e-03
 -3.1751988e-05
 -2.3720862e-02
  1.7971819e-02
 -2.4473023e-02
 -2.6064528e-02
 -3.1367797e-02
 -4.4453584e-02
  2.6642552e-03
  4.6688667e-03
  3.3814136e-02
  4.9933828e-02
 -4.4797361e-02
 -1.7015640e-02
  1.3699264e-02
  3.4450114e-02
  2.1073930e-02
  1.6105361e-02
  1.0164785e-01
 -3.1802874e-02
  1.8611555e-01
  4.0686093e-02
  6.6784038e-03
 -6.5125669e-03
  6.3887816e-03
 -7.0465021e-02
 -4.8237644e-02
 -2.7502340e-03
  2.5677972e-02
  6.6958047e-03
 -4.6038929e-02
 -4.4440847e-02
 -1.3165954e-02
  1.2200222e-01
  3.6692284e-02
 -2.4694763e-04
  5.0957710e-02
 -3.5367519e-02
  7.0130713e-02
  2.8583217e-02
  4.6857208e-02
 -6.2137120e-03
  6.3345589e-02
  4.9816728e-02
 -1.0566718e-02
 -3.6364086e-02
  1.1308066e-02
 -1.6280595e-02
  6.8084620e-02
 -6.1820872e-04
 -6.8365212e-04
  1.9754877e-03
 -2.5278665e-02
  6.2671967e-02
 -2.4776828e-02
  1.5131886e-01
 -1.4876535e-02
 -3.5090962e-01
 -3.1567227e-02
 -4.8604388e-02
 -6.7074276e-03
  2.7613001e-02
  1.5530011e-02
 -2.6921067e-02
  9.5245074e-03
 -1.0486485e-02
  6.9392412e-03
  3.7355341e-02
 -3.4462124e-02
 -7.5908139e-02
  1.8256729e-02
  5.0091671e-06
  1.3616215e-02
  2.3925979e-02
  1.6005972e-02
  3.3925253e-03
 -7.9697147e-03
 -6.0730749e-03
 -1.3025470e-01
 -9.8679876e-03
 -4.4945711e-03
  1.7715968e-02
 -1.8343695e-02
 -2.4608199e-03
  5.5323672e-03
  5.0082024e-02
 -6.8018287e-02
  2.8666083e-05
 -5.4046302e-03
 -3.8404182e-02
  1.1439078e-02
  1.7914858e-02
  7.5633596e-03
 -2.2944050e-02
  2.7793048e-02
 -2.3748375e-02
 -1.6890503e-02
  1.1195524e-02
 -1.5480701e-02
 -9.0971636e-03
  4.3891920e-03
 -1.6873179e-02
 -4.3428227e-02
 -1.8980062e-02
 -2.1344105e-02
 -2.8834431e-02
 -2.6627248e-03
  2.2134410e-02
  2.3153338e-01
 -6.3117021e-01
  8.8732362e-01
 -1.4073664e-01
 -5.0971490e-01
  5.6494218e-01
 -5.5187255e-01
 -2.2683290e-01
  1.8549293e-01
 -8.1831776e-02
  4.7311085e-01
 -1.5305451e-01
 -2.1328092e-01
  4.3263838e-01
  4.9940613e-01
  2.8516018e-01
 -2.1712852e-01
 -4.9795222e-01
  1.3520427e-01
  4.4913486e-01
  3.4122515e-02
  9.7815412e-01
 -1.4832614e-01
  4.4545446e-02
 -6.4142175e-02
 -2.2931870e-03
 -1.6073146e+00
 -2.4540050e-02
 -2.4333518e-02
 -1.6850876e-02
  4.1181326e-02
 -2.2049183e-02
  1.0993085e+00
  6.9158560e-01
  5.3776175e-01
  7.4200022e-01
  6.2901103e-01
  1.6802804e+00
  1.3310912e-01
  7.1709669e-01
  1.0540885e+00
 -1.4725592e+00
 -3.6754882e-01
 -1.7511931e-01
 -3.5409858e-03
  1.8691584e-01
 -3.8753495e-01
 -8.6532436e-02
 -2.6993102e-03
 -3.7015680e-02
 -4.0681660e-03
 -1.0864101e-01
 -1.6996708e-02
 -1.8848394e-03
  2.4202030e-02
 -1.3419953e-01
  5.9956700e-02
  1.8373782e-04
  9.5112110e-03
  5.3227092e-03
  3.8042065e-02
  4.6951137e-02
 -5.9400237e-01
 -3.6210164e-02
 -1.5513131e-06
  1.1129612e+00
 -5.0329823e-02
  6.8313593e-01
 -3.2180004e-02
  1.2324725e-01
 -4.9962237e-02
  1.0195741e-03
  7.6414393e-03
 -5.1015373e-02
  3.2218449e-02
  2.6943555e-01
 -2.5773974e-02
  5.1727816e-02
  1.3181699e-02
  4.9077895e-02
  6.7258395e-02
  1.1497870e-01
  4.1277397e-01
 -5.9917006e-03
  2.2304280e-02
  1.2242048e-01
 -1.3258410e-01
 -2.0882105e-02
 -1.5502267e-01
 -1.4620167e-01
  7.1464949e-03
 -4.8910152e-02
  2.7424809e-01
  9.8217195e-01
  4.5022987e-02
  2.2762483e-02
 -4.8774718e-03
 -4.3353029e-02
  5.4138545e-03
  1.9419078e-03
 -8.6499276e-03
  6.4648692e-03
 -1.3549583e-02
  1.8604532e-03
 -5.1036224e-02
 -3.7984367e-02
 -3.0829068e-02
  4.4742836e-05
  1.8038204e-02
 -6.0706623e-03
  6.0925592e-04
  2.1224247e-02
  2.1348509e-03
  1.5691591e-02
  7.3321639e-03
 -1.0012445e-03
 -9.2034815e-03
 -1.4719740e-02
  3.0043682e-02
  6.0930960e-03
 -3.9271428e-04
  6.8424419e-02
 -7.7017527e-03
 -3.4065779e-02
  5.0156597e-02
  7.4556861e-03
  1.1497694e-02
 -3.1095402e-02
 -7.7180220e-03
 -1.0651130e-02
  5.0169524e-02
  9.1765886e-03
 -1.3461523e-02
  3.9142538e-02
  3.7706106e-03
  3.3153188e-03
 -9.6251946e-03
  5.5051550e-02
 -9.5966123e-03
  2.0472070e-02
 -9.5452562e-02
 -1.2047365e-02
  5.0435793e-02
 -8.5280344e-02
  1.9818077e-02
 -6.3986816e-03
  1.0393148e-02
 -3.3471035e-03
  8.4585492e-03
 -1.1594434e-02
  2.9162211e-02
  2.9057182e-05
 -2.7489385e-02
 -1.2238019e-03
  1.5380363e-03
  4.4198021e-02
 -4.2122924e-03
 -3.3584867e-02
  9.0574898e-02
 -1.1069642e-02
  1.6630514e-02
  2.8975135e-02
  6.5446491e-03
 -8.1687476e-03
 -1.0389588e-02
  9.2585981e-03
 -3.5614262e-03
  4.1649146e-03
 -1.8972183e-02
  2.4621662e-02
 -5.3109708e-03
 -3.0149934e-03
  1.1216171e-02
  5.2480437e-03
  2.9673090e-02
 -5.2415594e-03
 -1.2181883e-02
 -8.1526283e-03
 -4.8453163e-02
  7.7915774e-03
  2.0875506e-02
 -8.9054685e-03
  3.6956824e-02
  2.5360741e-02
  2.5844324e-02
  1.5703798e-03
  1.2964079e-01
 -1.6769268e-01
  3.6422053e-01
 -5.3466058e-01
 -3.2300562e-02
 -4.4694308e-02
  2.2015067e-02
  8.7317310e-02
 -2.7894305e-02
 -9.9460967e-04
  1.5554166e-02
  4.7013868e-02
 -2.2144592e-01
 -9.0470292e-02
 -1.8773507e-02
  6.8230532e-02
  1.6373666e-02
  1.5254683e-02
 -2.3188720e-02
 -1.0321891e-01
 -4.4433888e-02
 -1.5637451e-01
 -5.1121390e-01
 -3.2713884e-01
  8.5296389e-03
  2.0725349e-02
 -3.1710964e-02
 -2.7852999e-02
  2.6712256e-02
  2.6122530e-03
 -1.9970339e-02
  1.5498834e-02
 -1.7114860e-01
  7.3559028e-03
  1.0608539e-03
 -1.2217367e-01
 -3.2004032e-02
  9.3490351e-03
 -4.3435201e-02
 -1.2709013e+00
  4.4307914e-03
 -7.3018563e-03
 -8.1337560e-03
  9.2715785e-02
  1.4602522e-02
  2.6118304e-03
  3.7755597e-02
 -7.6148519e-03
 -4.0760159e-02
 -1.4110926e-02
  1.4355395e-02
  1.2433440e-02
 -4.4808675e-02
  7.0839882e-02
  2.8396485e-02
  5.3560804e-03
  4.1114110e-03
 -8.6803343e-03
 -2.2574218e-02
  4.1798598e-04
 -3.9145878e-01
 -5.7851963e-02
  1.9759148e-02
 -1.1266262e-01
 -9.7162105e-02
  2.7339770e-02
  7.6302946e-02
  6.6073507e-02
  3.6247637e-02
  1.1415188e-01
 -3.3394441e-01
 -3.8519830e-03
 -2.3988215e-02
 -2.7948597e-03
  2.3621744e-02
 -9.4897248e-02
  6.0956937e-04
 -1.8748136e-02
  1.1892361e-02
 -1.1757450e-03
 -9.1930620e-02
 -4.1483205e-02
 -1.7970024e-02
 -5.8771698e-03
 -9.6171081e-02
 -9.0026017e-03
  6.5466583e-02
 -4.9060311e-02
  3.1507805e-02
  4.7890015e-02
  1.7859298e-01
  2.9230502e-01
  8.8417092e-03
  2.5148991e-02
 -2.3456143e-02
  1.5559659e-02
 -6.0182726e-03
  4.2737820e-03
 -1.8878851e-02
 -3.0211413e-02
 -2.6456993e-02
  6.4158477e-03
  9.2952829e-03
  1.4740572e-03
 -3.8469182e-03
 -1.3857038e-02
 -3.0356399e-03
 -7.5314027e-01
 -3.1788677e-02
 -1.1295145e-02
 -4.7406454e-02
 -1.9299362e-02
 -2.0469273e-02
  2.8222165e-04
  1.5330309e-02
  2.9241433e-02
 -4.6634264e-02
 -1.1721816e-03
  3.6011473e-03
  1.5309651e-02
 -1.5828192e-02
  1.7693691e-03
 -6.6721314e-03
  2.8108196e-02
  6.2772897e-03
 -8.9212153e-03
 -6.6723065e-03
  1.6066859e-02
 -8.0841817e-03
  2.2215890e-02
 -9.9084219e-03
 -1.9327002e-02
 -3.2398405e-03
 -1.7080374e-02
 -2.2059372e-02
  3.8649317e-02
  4.7349301e-03
 -1.6353933e-02
  4.6137959e-02
 -2.0607738e-03
 -1.6063767e-02
  6.1062244e-03
  5.7463530e-02
 -3.1449117e-02
 -8.7457336e-03
  1.0027106e-02
 -2.3244379e-02
 -1.5176087e-02
  1.0503096e-02
 -1.9658381e-02
  4.3590005e-02
 -2.8411457e-02
 -2.1371404e-02
 -2.6518218e-03
  5.7817556e-02
 -1.6033858e-02
 -1.4124720e-02
  2.7376777e-02
 -1.1986590e-02
  1.9380222e-03
  3.0159799e-03
  5.7027284e-03
  1.0164957e-03
  1.7757120e-03
 -2.9695099e-02
 -6.8694609e-03
 -1.2185503e-02
  1.2553776e-02
  2.9373802e-03
  8.9025581e-03
 -3.8705196e-02
  2.6394593e-02
 -6.2344554e-03
 -1.2036514e-02
 -1.8141642e-02
  1.2372018e-02
  4.1062899e-02
 -3.2075366e-03
  2.5654348e-04
  3.5895541e-02
  3.9365813e-02
 -1.8395063e-02
 -4.6126931e-03
 -4.4901047e-02
 -8.2714176e-03
 -3.7632424e-02
 -1.7149720e-02
 -5.6208260e-02
  3.8881836e-04
 -2.6465305e-03
  2.8886115e-02
  2.8684562e-02
  2.4173867e-03
 -6.5399827e-03
 -7.7226788e-02
 -4.8911285e-02
  6.0313116e-05
  7.3917098e-03
 -6.6184714e-02
  4.1154534e-02
  7.6544642e-02
  2.7158210e-02
 -1.9548096e-02
  1.3760107e-02
 -1.5369575e-02
  3.2288644e-02
 -4.8837233e-03
  1.0024042e-01
  1.0919908e-02
  1.8330120e-02
 -3.8015820e-02
 -3.6762264e-03
  2.1207089e-02
  2.1624602e-02
 -3.8979806e-02
  6.7893155e-03
 -1.0546462e-02
 -3.8666747e-04
  4.7089238e-02
 -8.2679192e-04
 -4.7965050e-03
 -5.0328478e-02
 -4.7393605e-02
  9.2200280e-05
 -1.7200457e-02
  8.6715631e-03
  1.0331686e-02
  8.3256923e-02
  1.9582964e-02
 -2.6364805e-02
 -6.1948538e-02
  2.8351165e-02
  1.1838433e-02
  5.1324759e-02
  3.0161703e-02
 -1.5703554e-03
  2.4578992e-02
  2.7456257e-02
 -2.6920822e-02
  2.8427863e-02
 -1.5911490e-02
 -2.6385659e-02
 -4.3969154e-02
  4.0440258e-02
  2.1524878e-02
 -6.0591090e-05
  2.6526295e-02
 -2.4243698e-02
  1.2562779e-02
  7.7593788e-03
 -2.6493074e-02
 -4.4668545e-03
  6.4097391e-03
 -4.1117298e-04
 -1.7285816e-02
 -2.0103464e-02
 -4.0518073e-03
  6.0182633e-03
 -3.2754265e-02
 -1.8949278e-02
 -4.4633096e-04
  4.3887958e-02
 -2.3230752e-02
  4.0585514e-02
  5.3017819e-03
 -8.5305106e-03
 -1.2731921e-02
 -4.2689526e-03
  8.3822076e-04
  1.3214770e-02
  6.3026622e-03
  3.0554731e-03
 -7.7369544e-03
 -1.8147133e-02
 -5.2268457e-02
  6.9839083e-02
 -1.8927168e-04
  6.6478354e-01
  9.1599941e-02
 -4.8072937e-01
  5.1966089e-01
 -1.2217129e+00
  4.6015006e-02
  1.6474990e-02
 -2.2841018e-01
 -2.2144599e-01
  2.2414949e-02
 -7.0651278e-02
 -2.0386141e-02
  1.9080362e-03
  4.0980112e-02
  1.0848903e-01
  3.6105457e-01
  6.4279914e-02
  8.5842498e-02
 -5.2245200e-02
 -5.6356704e-01
 -2.5709270e-02
  6.1409622e-01
  5.8985292e-03
 -6.8407408e-03
  2.9638177e-02
 -8.8506877e-02
  7.8917891e-03
 -4.0399279e-02
 -8.3461963e-03
 -8.5691774e-01
  2.5138541e-03
 -4.0520668e-01
 -1.5855893e-01
 -3.1911407e-02
 -7.5158817e-01
 -1.4931906e-03
  2.0160366e-02
 -1.2096801e-01
 -4.0197578e-01
 -7.1307623e-01
 -1.4121284e-01
 -3.4853633e-02
 -1.2043386e-02
 -5.5055772e-03
 -6.9199376e-02
 -7.9741720e-03
  6.5040127e-03
  3.5035320e-02
  1.8447254e-02
 -3.7055101e-02
  1.6244356e-02
 -2.7268354e-04
  4.7490881e-03
 -7.4685223e-02
  1.3461500e-02
 -1.7173488e-02
  3.6084861e-02
 -1.6934334e-01
 -1.3012680e-03
 -1.5034656e-01
 -4.2439122e-02
 -5.5583495e-01
  2.1912331e-02
 -1.0907299e-02
 -3.3062384e-02
 -2.0762278e-02
 -5.9678957e-02
 -3.3362961e-01
 -2.8372867e-02
 -2.4384035e-01
 -4.9989387e-02
 -3.2037789e-01
 -9.7847864e-02
 -4.3049820e-02
  1.7499708e-01
 -8.8383975e-03
 -7.9591451e-03
  1.2961290e-03
 -5.0075535e-02
 -8.4020078e-02
 -6.9313124e-02
 -8.8163547e-02
 -2.7870645e-03
 -4.9782065e-03
 -2.9324993e-01
 -2.9035652e-02
 -5.4338016e-02
 -4.8812260e-03
 -7.1750134e-02
 -5.7244682e-01
  3.1235509e-04
  7.4352920e-03
  2.3426134e-02
  4.8286482e-03
  2.1274937e-02
 -1.3346272e-02
 -3.5754066e-02
  9.8607652e-03
  2.6907982e-02
  3.6221277e-02
 -5.2518714e-02
 -6.9181295e-04
  8.0294553e-03
  7.1642699e-04
 -6.9104033e-03
  4.6600077e-02
 -4.2477082e-03
  3.4971370e-03
  3.4768846e-02
  9.0331668e-03
 -4.5937680e-02
 -6.4238030e-03
 -9.1520622e-03
  1.4566753e-02
  2.6016582e-02
  1.4044421e-02
 -6.9420575e-03
  2.8943992e-03
 -8.3359778e-02
 -9.4732299e-04
 -2.3001228e-02
 -5.4873634e-02
  1.6519748e-02
 -3.1078728e-02
  1.1381306e-02
  1.0685631e-02
 -9.7246533e-03
 -2.1624802e-02
  2.4591031e-02
 -2.3477811e-02
 -8.4965482e-02
 -2.9868404e-03
  1.5706403e-02
  4.3708991e-02
  4.0547461e-03
 -3.1413624e-04
  2.3867460e-03
 -4.8516416e-03
 -1.7109198e-02
  1.6394980e-02
 -4.1471764e-02
  4.1103456e-02
  2.8754108e-02
 -4.6599090e-02
  1.6800890e-02
 -2.2443572e-02
 -1.0264688e-02
 -5.5891452e-03
 -1.1060962e-02
 -9.4938643e-02
  3.3308819e-02
 -3.7352890e-02
  1.6601749e-02
 -4.6388481e-02
  5.4170229e-02
  1.1443822e-02
  8.3130980e-03
 -1.8273314e-02
  5.0088647e-03
  1.1689514e-02
  5.0329201e-02
  1.0551795e-03
 -2.2690998e-02
 -4.1858987e-03
  1.5709035e-02
  3.3376811e-03
  1.9334801e-02
  6.8012863e-02
 -2.6622824e-02
 -3.2535654e-02
  1.2966988e-03
 -3.3562500e-02
 -2.3773814e-02
  3.4061395e-02
 -1.6653268e-02
 -5.8026824e-02
 -1.7206050e-02
 -7.1224809e-02
  5.0874013e-02
  2.4637983e-03
  1.1385547e-01
 -6.3430415e-03
  4.7750352e-03
  1.1323950e-01
 -1.6803341e-02
  2.5041046e-02
  3.5660292e-04
 -1.2844381e-01
  3.1286182e-03
 -1.7825298e-03
 -7.2354460e-03
  3.1134266e-02
 -3.8124781e-02
 -2.9277161e-01
  4.9016375e-02
 -1.0067835e-04
  4.3225169e-02
  7.5417450e-03
 -4.0000174e-02
 -4.0091169e-03
  1.5881594e-03
  6.1725937e-02
 -3.8651243e-02
 -8.2601689e-02
  6.2815472e-02
  7.9538360e-02
  4.5539485e-03
 -6.5503200e-03
  7.3075742e-02
  3.3658678e-03
 -5.8978714e-02
  6.8417184e-02
 -4.2899922e-02
  4.7159895e-02
 -3.2921433e-02
 -5.5962126e-03
 -2.4802154e-02
  1.5288239e-02
 -2.3677783e-01
 -8.0665434e-03
 -2.6078371e-03
  3.5375927e-02
 -3.3676854e-01
  8.2753174e-02
 -1.9537203e-02
  7.9098940e-02
  5.0865121e-02
 -1.6562805e-02
 -1.2826654e-03
  6.7653090e-02
  1.1900953e-02
  6.6595827e-03
 -2.9369937e-03
 -9.7539619e-02
  1.3293247e-01
 -1.5798241e-02
 -7.2958618e-03
  9.4488382e-02
 -6.4002208e-02
 -3.0174876e-02
  5.8581039e-02
  3.8504235e-02
 -3.6930732e-02
  1.8599009e-02
  1.2919077e-02
  1.3923911e-02
 -1.7303411e-02
 -3.3207137e-02
 -3.2295976e-02
 -2.4709417e-02
 -1.7820708e-02
 -6.9864422e-02
  6.4314553e-03
 -4.4475522e-02
  1.8485622e-02
 -2.7661322e-02
  3.0369794e-03
  4.3710521e-03
 -1.3647600e-02
  4.0683664e-02
  1.4824232e-02
 -2.6836051e-03
  2.9414101e-03
  4.3381238e-03
 -5.9173469e-02
  1.2102938e-02
 -6.7356847e-02
  8.4998421e-03
  2.5712730e-02
  1.2129303e-02
  6.9527045e-02
  3.1428117e-02
 -5.3295717e-03
  2.0392273e-02
  5.6446588e-01
  2.0535967e+00
 -2.5804228e-01
 -1.4443901e-01
  1.3027700e+00
  2.9183084e-01
  9.7104418e-01
  2.6015386e-02
 -1.0918875e-01
 -1.1559962e-02
  5.9112650e-01
  5.5363131e-01
  2.1782698e-01
  7.0507640e-01
  1.3327177e-01
  4.4713985e-02
 -1.0448122e+00
  5.9061509e-01
  6.3635629e-01
  1.8323536e-01
 -2.6522815e-01
 -3.4810328e+00
  5.3458297e-01
 -6.2531799e-02
 -1.6949183e-01
 -5.2111179e-01
 -3.6314342e-02
 -3.2401022e-02
  4.6099886e-02
  7.2429188e-02
  2.5685471e-02
  2.6202660e+00
  5.3100854e-02
 -4.3251547e-01
  9.6844286e-01
  1.5809806e-03
  2.0876637e+00
 -2.2988684e-02
  5.3893996e-04
  9.5862734e-01
 -1.1797355e-03
 -7.5022751e-01
 -2.2975404e-02
  2.3356978e-02
 -2.3156381e-01
 -1.1349386e-02
 -8.3391014e-03
  1.9732894e-02
 -4.9982069e-04
 -2.9952331e-02
  1.2139705e-02
  5.1586190e-03
 -1.8807322e-02
 -2.5294403e-02
 -2.1362221e-02
 -3.9490737e-02
  4.1162316e-02
 -2.9009715e-02
 -4.2860587e-03
  2.9992783e-02
 -4.7966234e-02
  2.4555263e-01
 -2.3370195e-04
  2.7840817e-02
  7.4739784e-02
  1.2302028e-02
  2.1135349e+00
  2.0047914e-02
  1.7530996e-02
 -5.2090868e-02
  9.5014870e-02
  8.8730540e-06
 -2.0972765e-03
  1.6324276e-02
  2.9571541e-04
  3.0877370e-02
 -3.5158411e-01
 -6.1680391e-02
  1.1011963e-01
  2.6060456e-02
 -1.1216698e-02
  3.4299478e-02
  1.7925058e-02
 -4.3813430e-02
  4.1341871e-02
  5.7944586e-03
 -1.8675889e-01
  2.9006034e-02
  4.2691085e-02
 -3.3883322e-02
 -3.2114075e-03
  4.7291294e-03
 -3.7004021e-01
  7.5852263e-01
  1.0242351e-02
 -1.6927072e-01
  1.5972240e+00
 -9.7677612e-01
 -9.1453880e-01
  1.4630657e-01
 -7.8338020e-02
  1.1008023e-01
  3.8875428e-01
  4.1638546e-02
  2.3942892e-01
  1.2862313e-01
 -4.6490155e-02
  8.1459079e-03
  2.0795265e-01
  3.5734469e-01
  6.0493577e-02
  1.2347270e-01
 -8.8032046e-03
  1.2387437e+00
  1.3914475e-02
 -7.5588930e-01
  2.7221078e-01
 -6.7369550e-01
 -7.2148461e-03
 -3.8445245e-03
  1.6937226e-03
  6.8533137e-02
  5.8777048e-03
  1.9826135e-01
 -1.7021969e-03
 -3.1626392e-02
 -4.5795405e-01
  1.5741067e-02
 -1.3859951e-01
 -1.4883826e-02
  6.4852379e-02
  2.6649946e-01
 -5.8696234e-01
  3.5362905e-01
 -1.5132841e-01
 -3.4794975e-02
  3.0924523e-02
 -2.0047924e-02
  1.6931154e-01
 -1.1353808e-02
 -5.1698475e-03
  1.8888779e-02
  8.1249550e-02
  2.8877708e-01
 -6.0702652e-02
 -3.5658419e-02
 -4.4926815e-03
  3.8323417e-02
  9.8086692e-02
 -1.4867838e-02
  3.8387299e-02
  2.4038674e-02
 -1.2846482e-02
  2.4119219e-01
 -4.6974663e-02
 -3.0158788e-01
 -3.3587109e-02
 -1.9766679e-03
 -8.5276306e-01
 -2.2606980e-02
 -6.7635425e-03
  6.8667554e-03
 -3.3434317e-03
  5.7500577e-01
  7.2384685e-02
 -1.1673932e-02
 -1.0426713e-02
 -3.1809002e-02
 -3.1782929e-03
 -1.5912587e-02
 -3.0826444e-03
  5.4854187e-03
  4.1163042e-02
  1.6303994e-02
  6.1629233e-03
 -4.6460427e-02
 -1.8938599e-03
  3.2081476e-03
 -4.0410787e-02
 -3.3323992e-02
 -1.0013905e-02
  4.5615179e-03
  3.7636319e-03
 -6.9720542e-01
 -1.1096412e-01
 -5.5252542e-03
  1.4665365e-02
  1.2362647e+00
  6.9958889e-03
 -5.5382145e-03
  1.8679103e-02
  3.0898647e-02
  3.7966997e-03
 -1.6328204e-02
 -2.4581440e-02
 -1.2006524e-02
 -4.6582684e-02
 -2.6199280e-03
  9.9322619e-03
 -3.6411729e-02
  3.0391179e-02
 -8.1255034e-02
  2.1546196e-02
 -8.4982850e-03
  1.5158084e-02
  6.1498159e-03
 -1.5948823e-02
  7.6969191e-02
  1.9988755e-02
 -8.6588496e-03
 -1.1116778e-02
  3.5395734e-02
  8.4129609e-03
 -6.6830842e-03
  1.1572732e-02
 -5.2140478e-02
 -5.0912570e-02
  6.0675526e-03
 -3.5178550e-03
 -1.2321082e-01
  2.7198347e-01
 -2.2732861e-02
  1.7541857e-02
  1.9309783e-02
  1.2114209e-01
 -3.2865836e-03
 -6.2393699e-02
  2.2654921e-02
 -2.0308405e-02
 -3.6130112e-02
  1.3122061e-02
  1.0288303e-02
 -4.2118900e-02
  5.4822881e-03
  3.7525326e-03
 -1.9594530e-02
  4.4114161e-02
 -5.0860398e-02
 -1.9126467e-02
  6.3528871e-04
  5.2200590e-04
  9.2198066e-02
  4.2198017e-02
  5.9618458e-02
  1.7126029e-03
  7.3595017e-02
 -3.6791708e-02
  1.2947271e-02
  4.8704099e-02
 -1.0122837e-02
 -3.3446044e-02
  1.0625742e-02
 -2.5655283e-02
 -3.5160587e-03
  5.9916312e-03
  1.5887402e-02
 -1.1780680e-02
 -1.1783540e-04
  1.5653562e-02
  9.3463123e-02
 -7.5978716e-04
 -2.2344852e-03
  2.0703742e-02
 -2.8421942e-02
  5.8632649e-02
  2.8850522e-02
 -2.5616486e-02
 -5.8093807e-03
  4.2883657e-02
 -5.4944647e-03
 -2.3260977e-02
  4.2196643e-03
 -3.5059236e-02
 -4.3054618e-02
  4.1424149e-01
  2.1042634e-02
 -3.2446581e-01
  1.4990604e+00
 -1.3749236e+00
 -1.0132715e+00
 -7.9979092e-01
  3.4938714e-01
  6.6922659e-01
 -1.7477145e-02
 -8.1141412e-02
  1.5665742e-02
  2.4244513e-01
  8.7627610e-03
  6.6288620e-02
  2.0645688e-01
  1.9109823e-01
  5.6156141e-01
 -7.2777845e-02
  4.3710243e-02
 -7.6602995e-02
  2.1800932e-02
  7.0496696e-01
  2.4594004e+00
  1.3626738e-02
  1.2466335e-03
  1.2460751e-02
 -4.2379469e-01
 -1.9123405e-02
 -2.1170513e-03
  8.2937563e-03
  3.5263002e-02
  2.9638669e-02
  2.1560891e-01
  3.1426147e-02
  1.9241780e-02
 -1.0085800e+00
  1.9503964e-01
 -6.4407974e-01
 -2.7174216e-02
  7.7013892e-01
 -5.7805326e-02
 -1.6909001e-02
 -2.8061543e-02
  2.5581941e-02
  5.1668238e-02
 -1.4234181e-02
 -8.8436631e-03
 -8.0884069e-02
  3.5955459e-03
  2.9045722e-04
  1.0463157e-02
  8.5202027e-03
  2.8891414e-01
 -2.1165721e-03
 -1.5583492e-02
 -9.9861976e-03
 -1.7871620e-02
 -3.6288295e-02
 -1.2574720e-02
  1.1817879e-03
  5.3449500e-02
 -8.0342125e-03
 -1.2653373e+00
 -9.7670719e-02
  4.8091464e-02
 -2.3761618e-01
  5.8213379e-02
  2.5568470e-01
 -2.0775368e-02
  3.4677830e-02
 -1.6007328e-01
 -2.1232724e-02
 -2.8866574e-02
 -3.7811842e-02
  1.7990719e-01
 -9.3997449e-02
 -5.1202223e-02
 -5.7080978e-01
  5.5298937e-04
  6.9451374e-03
 -2.7811128e-01
  7.3580067e-03
 -5.7455409e-01
  9.7244782e-03
  1.7717880e-01
 -2.7064177e-01
  5.3105829e-04
  6.3397340e-02
 -3.4618173e-02
  5.5915155e-03
 -4.0976409e-02
  5.3403168e-03
  1.2055049e+00
  1.3092686e+00
  3.5572162e+00
 -2.8162399e-01
 -1.1458451e-01
 -6.1463952e-01
  1.4363585e+00
 -1.0682787e+00
  2.1834531e-01
 -1.3964769e-01
 -5.7838005e-01
  8.6310035e-01
 -8.1554502e-02
  1.2931205e-01
 -4.3382898e-02
 -2.0279855e-02
 -1.5192318e-01
  5.0282478e-01
 -9.0797260e-02
 -3.5651874e-02
  1.7292033e-01
 -6.3307351e-03
 -1.3188680e-01
 -1.1365726e-01
  5.3867900e-01
  9.8802273e-05
 -5.1159877e-01
 -1.0533114e-02
 -5.6865681e-02
 -5.2018357e-03
  1.3738771e-01
 -1.1872943e-02
 -7.6466644e-01
  1.6017857e-01
 -2.6159886e-01
 -2.4628215e-01
  3.7693780e-02
  1.5957776e+00
  2.0962541e-01
  9.4871575e-01
  4.8144647e-01
 -1.9702004e-02
  9.4321156e-01
 -1.2619674e-02
  1.0949909e-01
 -4.5610987e-02
  6.0696206e-03
 -9.9324891e-03
 -9.6402355e-03
  1.5795339e-02
 -1.7656527e-02
  2.4897821e-02
  1.1206926e-02
 -1.5712388e-02
 -1.6312085e-02
  1.5289186e-03
  3.2542922e-02
  1.0878179e-01
 -1.6538577e-02
 -9.9459946e-02
  9.0537407e-03
 -1.5368740e-02
  1.7055254e-01
 -9.4611645e-02
 -8.6316474e-02
  1.3712660e-02
  3.8980242e-02
 -6.2955171e-01
 -7.3277622e-02
 -3.8847539e-03
 -2.5138813e-03
 -1.0474551e-01
  2.9418159e-01
 -4.8035711e-02
  1.4695281e-01
 -6.9486487e-01
 -5.7085946e-02
  7.2763968e-01
  4.5981491e-03
 -9.8021698e-01
  5.4639649e-01
 -2.9242856e-02
  1.2373977e+00
  1.0927574e-02
  2.0953012e-01
  1.1121701e-01
  5.5346435e-01
  2.1748601e-02
 -5.5718157e-03
 -4.8590716e-02
 -1.6229751e-02
 -1.4794641e-02
 -7.5292289e-01
 -5.1888818e-01
 -5.2494895e-02
  3.4184322e-02
 -4.4910139e-01
  5.5508632e-02
  2.4726276e-01
  4.7186215e-05
 -6.6135772e-02
  5.8513504e-02
 -2.2100665e-02
  2.0180667e-02
  8.5536111e-03
 -3.2599203e-02
  2.6317677e-02
  4.1976590e-02
  3.6276255e-02
 -2.7716171e-02
  2.5122214e-02
 -6.3340433e-02
 -5.4788526e-02
  1.2807192e-02
  3.3517596e-03
 -9.8791629e-02
  3.3307106e-03
 -7.9838280e-03
  1.6792180e-02
  3.3102952e-02
 -4.2491417e-02
 -1.2605470e-02
 -7.3664069e-02
 -1.1320823e-02
  9.7604450e-03
 -1.8180689e-02
  1.8150738e-02
  1.4223115e-01
  6.8741818e-03
  4.3088607e-02
 -3.8296077e-02
 -1.0654553e-01
 -2.0736400e-02
  1.6684574e-01
  3.7299972e-02
 -7.2624399e-03
 -1.9780630e-02
  4.6288539e-02
  5.0921261e-02
 -1.8938774e-02
 -1.1799423e-02
  7.4614241e-04
 -6.3917502e-03
 -4.0986691e-02
  1.1025128e-02
  1.3354222e-02
 -4.5532105e-03
 -3.0039633e-02
  1.1994069e-02
 -3.0594429e-02
 -6.8424582e-02
  3.5560515e-02
  4.5352206e-03
 -4.1710794e-02
 -6.8783122e-03
  3.6171377e-03
  6.5421395e-02
 -1.2552860e-02
  1.3770359e-02
  7.0174532e-03
 -1.6433964e-02
  3.1843137e-02
  5.9376977e-02
  2.5356147e-03
  1.1395132e-03
  1.4332019e-02
  3.5458345e-02
  2.0027209e-02
 -6.8837074e-03
  1.9000566e-02
 -2.3967076e-02
 -2.7904978e-02
 -8.6780892e-06
 -6.9871638e-03
  3.0533953e-03
  2.1091476e-02
  1.0231464e-02
  7.7955048e-03
  5.2756485e-02
  2.2361074e-02
  7.1447133e-03
 -2.1237705e-02
 -2.5796147e-02
  1.4019740e-02
 -4.9139762e-01
 -1.3501842e-01
  2.0385463e+00
 -9.0409493e-01
 -1.4163054e+00
  1.9748648e-01
 -1.9634570e+00
 -1.2715558e+00
  4.8008266e-01
 -4.7343731e-01
 -3.1374553e-01
  2.6712465e-01
  5.2236140e-01
  8.7261122e-01
 -6.8636245e-01
 -1.0356971e-02
 -2.3375730e-01
 -5.5941987e-01
  1.6641690e-01
 -2.2935173e-01
  2.7951384e-01
  8.1862944e-01
  1.3121985e-01
 -4.0920403e-02
 -1.7737820e+00
  9.2982465e-01
  1.7017553e+00
 -1.9095604e-03
 -3.9553713e-02
 -1.3893162e-03
  1.1042777e-02
  1.4354110e-01
  9.3770540e-01
 -1.6184978e-02
 -1.7007731e+00
 -3.8559577e+00
  2.6754445e-01
  9.5029306e-01
  4.7335967e-01
  3.5283866e+00
  6.7488462e-01
  2.3041198e-02
  1.9202147e-01
 -1.0004546e-01
  9.6519363e-01
  2.2001132e-02
  4.0553011e-02
  1.8837938e-01
 -8.1841946e-03
  7.8463461e-05
 -1.5548034e-02
  1.2753625e-01
 -5.7182652e-01
  5.1424321e-02
 -2.6056939e-01
  7.3737401e-01
  1.0605328e-02
 -1.2834135e-02
  1.6487020e-01
  1.5523048e-01
 -1.5222779e-02
 -7.3712305e-03
  3.7536156e-01
 -5.8552947e-02
  1.3506057e+00
  1.3031984e-02
  6.5120870e-01
 -4.9138135e-01
 -1.4443158e-01
  6.2636033e-02
 -5.1435556e-02
 -9.7321622e-02
 -5.5581506e-02
  5.4441631e-02
  1.8246879e-01
  3.8128367e-01
  3.3702996e-01
 -2.5604343e+00
 -7.8362081e-04
  2.3600397e-01
 -1.6070842e+00
  3.6674512e-03
 -9.7546667e-02
  7.0032878e-03
  7.0448345e-01
 -3.4379254e-03
  2.8354448e-01
 -1.1178526e-01
  8.6806407e-03
 -3.6846895e-02
  1.6430776e-01
  1.6250993e-01
  4.7697800e-01
 -1.7402259e-01
  4.0143397e-02
 -2.0347927e-02
 -2.2340981e-02
 -7.4753605e-02
 -1.4336783e-02
  2.6941085e-03
  1.2625217e-01
 -2.8766844e-02
 -6.8869531e-02
  4.5610494e-03
 -5.9618782e-02
 -2.7324776e-03
  5.4278621e-03
 -2.8671820e-02
  2.5675599e-02
  1.9455954e-02
 -7.9910085e-04
  2.7048914e-03
  7.2967508e-03
 -1.2251715e-01
  3.2779153e-03
  1.9700944e-02
  9.8969741e-03
 -5.8945678e-02
 -1.3341954e-02
  1.5541438e-02
 -3.3328386e-03
  5.3515069e-02
 -2.7888801e-03
  4.9884047e-02
 -3.7946459e-02
 -1.1113306e-02
 -1.9325273e-02
  4.6565529e-02
  4.9706906e-02
  1.2011567e-02
  4.8620178e-04
  1.0111711e-02
 -4.0877685e-03
 -2.4225978e-02
 -5.1180203e-03
  4.7117621e-03
  1.3835262e-02
 -4.9956087e-02
  3.8763158e-02
  4.6769880e-02
 -1.2670548e-03
  3.0920768e-02
 -2.0159347e-02
 -7.9805702e-03
 -2.0951781e-02
  6.2863668e-03
 -3.7140310e-02
  2.3730000e-02
  1.0356769e-02
 -2.5709750e-02
  1.3175838e-02
  9.8502738e-03
  9.5050881e-04
  3.6948773e-03
 -6.3188978e-02
 -1.3432926e-02
 -5.9527520e-02
  5.4127425e-03
 -5.7430053e-03
  8.8984724e-03
  9.0681035e-03
 -1.4405879e-02
 -4.9771843e-03
 -2.1981839e-02
 -4.2637445e-02
 -8.1816205e-04
 -1.1684793e-02
  8.3418665e-03
 -7.6918386e-02
 -1.6667373e-03
 -1.3025057e-02
 -6.5926343e-02
 -3.5664481e-03
 -7.1931146e-02
 -3.6154171e-03
  7.3966105e-03
  2.9405085e-02
  1.5374295e-02
  1.8183844e-02
  2.3618005e-02
  4.3770999e-02
  1.0085626e-02
 -4.4653844e-02
  7.0489524e-03
  1.5500562e-02
  2.8568096e-02
 -3.3345416e-01
 -1.9094567e-01
  6.7799300e-01
 -5.1088673e-01
 -1.8743014e+00
  2.6873448e-01
  8.2858399e-02
 -6.4802044e-03
  3.4979868e-01
  2.0748690e-01
  3.7248965e-02
  7.9723395e-02
  1.8680659e-01
 -1.8865364e-02
  4.3546580e-02
  1.4208899e-01
  3.2720548e-01
  2.4261281e-03
 -6.4510024e-01
  2.5561896e-01
 -1.1816581e+00
  7.0266932e-01
  6.0062103e-02
 -9.1332126e-01
  2.0262878e+00
  2.9247559e-03
  1.3346696e-02
 -3.8739443e-02
  3.5455223e-02
  1.1005669e-02
 -9.5163345e-02
 -1.5543810e-02
  5.7351505e-03
 -9.6969672e-02
  1.9461924e-02
  6.8999296e-01
  7.8540789e-03
  9.5336325e-03
  2.9372383e-02
 -3.9916500e-01
 -1.2810662e-01
 -3.3991504e-02
 -1.7604655e-02
  4.0437128e-02
  1.1145844e-02
 -5.9659556e-03
  1.5520127e-02
  3.0213747e-02
 -3.2258096e-01
  5.5606302e-02
  6.2064648e-02
  6.1825156e-02
 -1.3268075e-02
 -2.3784107e-02
  2.6972851e-02
 -2.4927540e-02
 -2.6478421e-02
  1.3879332e-02
  1.8727772e-02
 -4.1188832e-02
  1.8813567e-01
 -2.7387779e-02
 -3.1543484e-01
  2.0425615e-01
  9.8108575e-03
  2.2606370e-01
  3.4650255e-02
 -9.0474203e-02
  1.1621837e-01
 -2.5463558e-03
  3.3401929e-02
 -3.8436040e-02
  1.0858685e-02
  5.8697384e-02
 -4.6030176e-03
  6.8972427e-01
 -1.0413038e-02
  9.5303426e-04
  1.6284199e-02
  3.3503737e-02
  7.0037954e-02
  1.7476710e-02
 -5.2748997e-02
  7.3868081e-02
  1.2380562e-02
 -5.1920717e-03
  1.3559482e-02
  1.2592000e-02
 -1.2030035e-02
  1.9595135e-02
 -9.1757691e-01
  5.5266742e-02
 -9.0119820e-03
  3.9236765e-02
  8.6929193e-03
  7.3818266e-02
  6.6562216e-03
  2.6209341e-02
 -2.8264981e-02
  3.5847279e-03
  2.6001170e-02
  4.2584211e-02
  3.3262976e-02
 -1.2530287e-02
  5.4268610e-05
  1.6841963e-02
 -1.4292042e-02
 -2.3926836e-03
  2.0733004e-02
 -3.5826124e-03
  4.4234712e-02
 -6.2017176e-02
 -2.1847347e-03
 -6.6100890e-03
 -7.1311286e-03
  6.4791378e-04
 -9.7508086e-03
 -6.6374339e-02
 -1.2989555e-02
  3.6226816e-02
 -4.9595043e-02
 -2.0128066e-02
 -1.5946487e-03
 -2.0169593e-02
  4.4180132e-03
  4.9121571e-03
 -5.2030403e-03
 -1.9979732e-02
  5.4349354e-03
  3.5589650e-02
  1.4454316e-02
  1.0764491e-02
 -8.8115092e-03
 -2.7970433e-02
 -2.4560266e-04
  4.9571089e-02
  2.3094842e-02
 -2.0952743e-02
  7.1276844e-02
  7.9893865e-02
  2.0561073e-02
  3.2559942e-02
  5.2421629e-02
 -6.3502882e-03
  3.8907323e-02
 -2.5775388e-02
  5.9114560e-02
  3.6415137e-02
 -1.9475152e-03
  4.8538577e-03
  8.8911973e-02
 -1.0848957e-03
 -1.5469039e-02
 -4.0166117e-02
 -1.2294795e-02
  1.5542116e-02
  2.0237930e-02
  4.3172487e-03
  1.2440750e-03
  1.1701918e-02
 -1.8909675e-03
  2.8352113e-02
  1.2951314e-02
 -6.1406486e-04
  4.8915907e-03
  6.4509645e-02
 -6.3237168e-02
  1.5545315e-03
 -2.5112435e-02
  2.6574733e-02
  1.7937521e-02
 -1.2845744e-02
  1.1546121e-02
 -4.8681102e-03
 -2.0342283e-01
 -2.6028823e-02
 -1.6169455e-02
 -5.4984339e-02
 -6.5300770e-02
  4.5239821e-02
 -5.5350126e-03
  1.7217012e-02
  7.1739089e-03
 -4.6708487e-02
 -4.8469815e-02
  4.2620275e-02
 -3.4327075e-02
 -1.0011964e-02
  5.1480741e-03
  1.3618101e-02
  3.1069566e-02
 -2.1922539e-03
 -4.6519667e-02
 -3.4148607e-02
  2.3947239e-02
  1.3733442e-02
  1.6052429e-02
  1.2016987e-03
  2.2376077e-02
  1.6088989e-02
  1.6090345e-02
  3.0022807e-02
  3.5372850e-02
 -7.1398136e-03
  8.1690624e-03
 -6.0964408e-03
  1.9791072e-02
  2.0941446e-02
 -1.9405544e-02
 -5.3977814e-02
 -6.3475676e-02
  3.2021057e-02
  7.6136030e-02
  3.3880167e-02
  4.5562807e-02
  7.5203244e-04
  8.9590373e-03
  2.9593116e-02
 -3.7143645e-03
  7.8906402e-02
 -4.9435981e-03
  5.4366998e-02
 -7.0664082e-03
  5.0133292e-02
  3.8364153e-02
 -5.3913649e-03
  1.1561436e-02
 -1.3683769e-03
 -5.4529384e-02
 -1.2813589e-02
  1.9413395e-02
  2.8066523e-02
 -2.3095937e-02
 -2.9523611e-02
 -1.2913034e-02
  4.0010386e-03
  3.1658135e-02
  5.9246467e-03
  1.5207064e-01
 -3.8981943e-03
  7.7829473e-03
 -1.3113223e-02
  1.5736792e-02
 -1.2594711e-02
 -2.2843227e-02
 -3.3024091e-03
  3.5441891e-04
  1.0998682e-02
  4.5559760e-02
 -7.4088715e-02
 -2.3865692e-02
  1.0431953e-02
  5.7751365e-02
  4.1439966e-03
  8.4296353e-03
  2.6689222e-02
  2.5790775e-02
  2.6116960e-02
  1.4699503e-03
  1.0093677e-01
  3.9863517e-03
 -2.5362276e-02
  1.5271537e-02
 -9.1215577e-03
 -5.5500078e-03
  1.2820802e-03
 -3.1174310e-02
 -4.1918937e-02
  8.2586342e-03
  9.9454410e-03
 -8.5315816e-03
 -2.5379576e-02
 -2.5575723e-02
 -3.6754792e-03
 -1.4316849e-02
  3.0386711e-02
  7.1612805e-01
 -5.5913448e-01
  6.0753739e-01
 -2.3874817e+00
  2.5827444e-01
 -6.1646831e-01
 -2.1522453e-02
 -4.4746745e-01
  2.3834914e-01
  1.0360721e-01
 -2.9502846e-02
  3.3964600e-02
  6.3722020e-01
  2.3602168e-01
 -6.6291474e-02
 -1.0251151e+00
 -5.8474082e-01
 -5.0916386e-01
 -7.8700878e-02
  5.9140671e-02
  7.5600781e-02
  3.2677481e-01
  1.0655368e-01
 -2.2182988e-01
  1.3547371e-01
 -8.6600836e-03
  1.4214899e-02
  3.8016602e-02
 -2.5747569e-02
  1.7332833e-02
  1.8578489e-01
 -8.3370015e-02
  4.7680248e-02
  2.6949406e-01
 -2.5668067e-01
  4.9901456e-01
 -4.4909663e-02
 -6.5041077e-01
  1.6427888e-01
  2.0054789e-01
 -8.1131816e-02
  1.9236794e-02
 -5.7721749e-02
  6.4820531e-03
  5.0022185e-04
 -6.7549511e-03
 -2.5384013e-02
 -2.3208726e-02
  6.1114356e-03
  3.6487676e-02
 -6.4884834e-02
 -1.4583006e-02
  3.2541409e-02
  7.2071284e-02
  1.7270258e-02
 -4.2657595e-02
  1.0140987e-02
  7.7893935e-02
  4.3670174e-02
 -3.5752065e-02
  1.5135549e-01
  1.7003343e-02
  7.8660334e-03
  2.1051537e-01
 -1.8649128e-01
 -4.4747123e-01
 -4.4282931e-03
 -4.1541943e-01
  3.2614436e-02
 -1.2452081e-02
 -2.3493096e-01
  2.4618914e-02
  3.2324677e-03
  1.2628322e-03
  1.7175760e-02
  7.8804541e-01
 -1.0520592e-02
 -3.3461741e-01
  4.6887177e-01
  4.6698753e-02
  2.0370316e-02
 -1.3011814e-02
  1.4097466e-03
 -1.1444057e-01
 -6.3986920e-02
 -3.1927940e-01
  6.7240172e-03
  1.3079028e-01
 -2.7609896e-03
 -6.1134542e-03
  7.8333437e-02
 -1.4758162e-01
  5.2676135e-01
 -5.9797395e-02
  1.2656550e+00
  2.0539258e-01
  1.7517963e-01
  5.9265900e-01
 -6.9574691e-02
  6.5034926e-01
  2.4777548e-01
 -6.3524681e-01
 -8.2880348e-02
 -5.7814753e-01
 -7.9159629e-01
 -5.6016357e-03
 -2.5643548e-02
  1.2642317e+00
  2.9173914e-01
 -1.5499899e-01
 -4.1540998e-01
 -7.8386986e-01
  1.3148140e+00
  9.5338756e-01
 -1.4065124e+00
 -1.3267022e+00
 -7.9786815e-02
 -5.2718893e-03
  2.6172377e-02
  5.8610600e-01
 -5.6183088e-01
 -2.8315591e-02
 -3.8361204e-01
 -3.0608047e-03
  5.6072861e-01
  1.6512756e-01
 -1.4519154e-01
  1.0993376e+00
  7.9343045e-01
  3.2442427e+00
 -1.3638292e-01
  3.4550366e+00
 -4.0405133e-01
  1.0007996e-01
  1.6030915e-01
 -1.9583724e-01
  8.1963795e-01
  6.9205798e-02
  4.5850527e-02
 -1.2245647e-01
  1.1594628e-02
  1.5063382e-02
 -2.6008123e-01
 -5.3539522e-02
 -9.8267347e-03
  5.0914544e-01
  1.0419587e-01
  1.9609220e-01
  1.2623950e-02
 -8.1728607e-02
  1.3801387e-01
 -1.8955752e-02
 -6.3685757e-01
  2.5635383e-01
  1.2452703e+00
 -2.8859252e-01
  8.6177862e-01
  5.0967455e-01
 -2.4037130e-02
 -1.1187509e-01
  5.0968369e-03
 -1.6661039e-02
  1.5033549e-01
 -4.1291046e-01
 -1.9768231e-01
  1.3855228e-02
  3.2134783e-01
 -8.7408721e-01
  1.1787432e-02
  7.4420273e-02
  3.2446459e-01
 -3.3309363e-02
 -4.3565473e-03
  9.5752198e-03
  4.6753153e-01
 -3.6808379e-02
  1.2656361e+00
  1.8221711e-01
  4.8063736e-02
 -1.8543050e-02
 -1.8420967e-01
 -3.5467219e-02
  4.6672267e-01
  2.5509706e-01
 -2.8408146e-01
 -7.7159876e-01
 -3.8140032e-01
 -3.8025615e-01
 -3.0616316e-01
  8.3212718e-02
 -3.2208338e-02
 -1.7870661e-03
  2.1003519e-01
  3.3133239e-01
  5.9817165e-01
 -2.7819669e-03
 -3.9869078e-04
  4.1309916e-03
  1.5656173e-01
  1.3190479e+00
 -1.0548690e-01
  1.2553140e+00
  1.0047064e+00
 -1.3843548e-01
 -4.0483919e-01
 -1.2397511e-02
 -3.5038778e-01
 -6.7259312e-01
 -1.0293713e+00
  9.6182926e-03
 -5.5726524e-02
  5.8494460e-02
 -2.0124947e-03
 -9.0693152e-03
  2.6277559e+00
  3.1398848e-02
  2.2875130e-01
  6.3871378e-01
  7.2698290e-03
  1.4515046e+00
  7.9450868e-02
  2.9003521e-02
  2.2975777e-01
  5.2291989e-01
  2.3527429e-01
  8.2687467e-02
  2.6382479e-01
  2.4047756e-01
 -4.1616503e-02
 -1.9616140e-02
 -3.5127241e-02
 -1.4328399e-02
 -2.7583370e-02
 -9.2345889e-04
 -4.1287034e-03
 -8.5620368e-03
  2.6134856e-03
 -2.3231519e-02
  1.2543933e-02
  8.0936842e-02
  1.5636655e-02
  2.2645062e-02
  5.7376359e-02
 -9.9280765e-03
  1.4778841e-01
  1.9570433e-01
  8.1306213e-01
 -7.8395400e-03
  4.8044561e-03
  1.7870022e-01
  2.1769065e-02
  5.7006497e-02
  4.8004143e-02
  2.9057711e-02
 -2.9107889e-02
  2.8244296e-02
  2.4681963e-01
 -2.8015774e-02
 -1.4719991e-02
  2.8211754e-02
 -1.5283081e-02
  1.4488980e-03
  1.0416686e-03
  1.3063318e-02
 -1.9201916e-02
  3.0376967e-02
  3.3964943e-02
 -5.9477683e-02
 -7.2858916e-03
  1.5942585e-01
  2.9208990e-02
  8.2124978e-02
 -9.5030017e-02
 -8.5363248e-03
  1.4102348e+00
  1.3805017e-01
 -1.6081095e-01
  1.7089734e-02
  3.8473204e-01
  1.0941088e-01
  2.2020860e-02
 -6.0746938e-02
 -1.7227831e-01
  1.5396895e-01
 -1.0078692e-01
 -1.8737933e-01
  1.4613681e-01
 -1.6341774e-02
  1.0763312e-02
  9.0570813e-03
  1.6263455e-02
  2.0607010e-02
  4.1075307e-03
  1.5475884e-01
 -4.0222060e-02
  1.0688718e-02
  6.8056440e-01
 -3.1116650e-02
 -2.0828594e-01
 -7.1695194e-02
  1.0319406e-01
  2.1712096e-02
  8.3695836e-03
 -1.4380390e-03
 -2.5838017e-02
 -1.8668765e-02
 -5.1730517e-02
  1.6064109e-02
  8.3371925e-01
  2.3054715e-02
 -3.6033697e-02
  8.2979167e-01
  2.5362464e-02
 -2.9169759e-01
  1.3694414e-01
  4.9390858e-01
  1.3877009e-01
  3.2966923e-02
 -9.9323327e-03
  8.0993354e-02
  3.1595327e-02
  4.6415911e-03
 -4.3305624e-02
 -1.0077591e-01
 -2.1269178e-02
  2.5227120e-02
 -1.8343735e-01
 -1.1122279e-02
  9.3025726e-04
  1.5032399e-02
  1.7817736e-02
 -1.0974154e-02
  1.7020117e-02
  2.7281916e-01
 -5.0909137e-03
  3.1870186e-02
  2.1194936e-01
  8.0268174e-02
  8.8233277e-02
  9.3772769e-02
  2.2360707e-02
 -2.5060628e-02
  8.2744502e-02
  2.4263687e-01
  8.0328854e-03
 -1.0932666e-03
  3.6688575e-01
  7.4238786e-03
  1.1954726e-01
  1.5678836e-01
 -4.8083469e-02
 -9.0836853e-01
 -8.9826453e-03
  2.8737545e-02
 -2.0359543e-03
 -1.7350536e-02
  2.6729229e-01
  2.0725911e-02
  2.5394661e-02
 -9.2693586e-03
  2.2846259e-02
  2.6473725e-02
 -5.8044497e-02
  6.6117585e-02
  5.3530894e-02
 -1.6545275e-02
  6.5038413e-02
 -3.0436441e-02
  1.1862103e+00
  5.6315765e-02
  5.6093711e-01
  1.8051689e+00
  1.5639303e+00
  5.3011465e-01
  3.5889095e-01
  3.3934620e-01
  6.2429965e-02
  7.4361449e-01
 -8.1750462e-03
  1.6110645e-01
  5.9211576e-01
 -1.1635218e-02
  3.1204307e-01
 -8.3646201e-02
  7.3789500e-02
  2.9428685e-01
  3.2379416e-01
  5.9063023e-01
 -6.4003336e-01
 -9.7379282e-02
  1.3115101e+00
 -1.6801113e-02
  3.1065115e-01
 -1.1802778e-02
 -4.8918664e-02
 -4.1805193e-01
  4.2610954e-02
  2.4494638e-01
 -3.5192318e-02
  3.1758270e-03
 -7.9148561e-01
  3.6235556e-01
  7.1774644e-01
 -2.8174901e-01
 -5.1810391e-02
 -4.2648044e-01
 -7.4737146e-02
 -2.5520258e+00
 -2.0553079e-02
 -2.3607802e-01
  2.4650074e-03
  5.5001117e-03
 -5.0800171e-02
 -1.1517066e-02
 -2.0730203e-02
 -9.3266912e-02
  8.7233409e-03
 -2.7286390e-02
  5.2491702e-02
 -3.0480962e-02
  6.6431850e-02
 -3.7838963e-03
  2.7980169e-03
 -3.2409034e-03
  3.5551880e-04
  1.5153777e-02
  6.9454854e-04
  8.4188702e-03
  1.0262272e+00
  2.0299355e-02
 -4.0973615e-02
  8.2732514e-02
  2.0481357e-01
  6.4666502e-02
  6.1229408e-02
 -5.5519540e-02
 -6.2899143e-02
  1.0625612e-01
  1.0741388e-01
  1.3524482e-02
  8.7581940e-02
 -2.7752839e-02
  1.3143656e-01
 -7.1370375e-01
  2.9787330e-03
  1.5936619e-01
 -6.5024585e-02
  1.7072251e-03
 -5.1862531e-04
 -3.6479305e-02
 -3.5555186e-03
 -5.9307296e-02
  8.3909638e-02
  1.9338371e-01
 -1.0166910e-01
  2.1699006e-03
 -1.8742011e-01
  9.0934141e-03
  1.9156660e+00
  9.2048919e-01
  2.7623421e-01
 -4.1151810e-02
 -1.9504012e+00
 -2.7389507e+00
  1.6465498e+00
 -7.3643535e-02
  2.6988817e-02
  5.6089133e-02
 -1.0089939e-03
  2.0877837e-01
  2.0609371e-02
 -1.8774410e-01
 -1.5057111e-02
  4.1930798e-02
  9.8397121e-02
 -4.4956753e-01
  3.3321196e-01
  9.6332505e-02
 -3.4231752e-02
  5.9388137e-01
  1.9959516e-03
  3.8234361e-03
  1.2179989e+00
  7.1083166e-02
  9.5060915e-03
  3.6874644e-02
  2.1811059e-02
  3.2843899e-02
  1.0721761e-02
 -9.1602638e-02
 -1.8467230e-01
 -1.6266828e-02
 -1.6984155e-02
  4.9597502e-02
 -1.5427095e-02
 -4.4557240e-02
  2.9878277e-02
 -1.7793495e-02
 -3.1958008e-03
  4.3306103e-01
 -4.3768391e-01
  1.8422320e-01
  6.4135134e-02
  3.9870683e-02
 -5.9055197e-03
  2.1492993e-02
  3.1598080e-02
 -3.5368346e-02
  3.6115654e-02
 -3.0695086e-02
  7.2258458e-02
  3.2652244e-02
 -2.8224841e-02
 -3.4595200e-01
  2.7783290e-03
  8.8847242e-03
 -4.9175028e-02
 -4.6121579e-02
  4.1572372e-03
  1.0487899e-02
  1.0251194e+00
 -6.8168892e-03
 -2.1500524e-02
 -1.7798366e-02
 -1.0059906e-02
 -3.3221509e-02
  1.8956821e-02
 -3.5551444e-02
  9.8040566e-02
 -1.4314422e-04
 -4.3411113e-02
  8.7293923e-02
 -9.0129627e-03
 -8.4903380e-03
  4.6783187e-03
 -1.8073313e+00
 -5.4128766e-02
  1.4482492e-01
 -4.1687974e-01
 -9.5070256e-03
  1.6888808e-02
  4.4898905e-02
 -3.3050839e-02
  1.0165120e-02
  3.8444504e-02
  2.3509217e-02
 -7.1158807e-04
 -1.0282179e-02
  3.1848079e-01
 -5.2571495e-04
  7.3932576e-01
  1.3313290e+00
 -2.9418722e-02
  2.4627397e-02
 -4.9794279e-03
  2.0225899e-02
 -4.4862316e-03
  3.7082396e-02
 -6.1176986e-02
  6.3904002e-03
 -2.4319498e-02
 -7.9386327e-03
  8.4877061e-03
  2.1356175e-02
 -1.4608364e-01
  2.6874600e-03
  1.4484814e-02
  2.8136972e-02
 -3.2657720e-02
  4.8340958e-02
 -3.2920935e-03
 -9.3464209e-03
 -9.2949234e-03
 -1.4413974e-02
 -3.7334864e-03
  2.3303849e-03
  2.2379078e-02
  6.1969880e-02
 -8.4507689e-03
 -9.1475723e-03
  1.0450803e-02
 -6.9457632e-03
 -1.0915358e-02
 -1.8402474e-02
 -2.2925609e-03
  6.4963903e-03
  6.1980505e-03
  6.2033795e-03
 -2.5420394e-02
 -5.5920524e-03
  7.3989950e-02
 -1.5875790e-03
  3.2493331e-02
  4.0420972e-02
 -2.0680856e-02
 -4.4511069e-02
 -1.8619208e-02
 -4.3155882e-03
 -6.2425043e-03
  7.3023648e-03
 -2.8435662e-02
  2.4893349e-02
  3.0045905e-03
 -2.1928865e-03
  1.7273750e-02
 -2.1783398e-03
 -5.1936865e-02
 -3.0907651e-02
  5.0090221e-03
  2.5195261e-02
  2.4129227e-02
  3.9766535e-02
 -2.0182846e-02
 -3.0745417e-02
  1.0568840e-02
 -3.7973374e-02
 -5.0408419e-02
 -5.7142582e-02
 -9.3820997e-02
 -8.2711522e-03
 -3.7936334e-02
  1.2706541e-02
 -1.8927140e-02
  3.2974888e-02
 -4.6314076e-02
 -3.6895495e-02
  1.8669713e-02
  4.3020722e-02
  3.4999810e-02
 -4.8695564e-02
 -1.6473250e-02
 -2.0755498e-02
  4.6419259e-03
  3.8248114e-02
  7.9455979e-02
 -3.0643398e-02
 -2.0258747e-02
 -7.0338808e-03
 -3.5311829e-02
  3.9330419e-02
  2.4900127e-02
 -1.2742755e-02
 -4.6100700e-03
 -9.1105588e-03
 -9.1733374e-02
  1.4054260e-02
 -1.1907703e-01
  6.2155175e-01
  2.5821261e-02
  1.8589891e-02
 -9.4046500e-03
  3.3621156e-05
 -6.5901084e-03
  4.8500519e-02
 -1.4739168e-02
 -6.4149816e-03
 -8.1756320e-03
 -3.3482987e-02
 -1.1181043e-02
 -4.8228081e-02
 -4.9317583e-02
  6.0052097e-02
 -8.2350392e-03
  7.7121899e-02
  1.0579533e-02
  2.1605363e-02
  2.1300943e-01
  5.2432898e-03
 -4.2563159e-02
 -1.8937951e-02
 -3.1812795e-02
  2.5059721e-02
 -1.6478762e-02
 -1.1129449e-02
  1.7467264e-02
 -3.9287955e-02
  7.3518716e-03
  1.9500529e-02
 -5.1770397e-02
  3.6772612e-02
  5.7183611e-03
 -1.8659016e-02
  1.2652884e-03
  3.0043525e-01
 -5.5491645e-03
  2.2966643e-04
 -1.5182974e-02
 -1.0103859e-02
  4.5780357e-02
  1.1330221e-02
 -5.2803062e-04
  1.4373565e-02
 -1.0355224e-02
  7.2687040e-03
 -1.5832100e-02
 -1.0966975e-02
  1.4568012e-02
  3.5857377e-03
 -1.8419079e-02
  6.4202091e-03
 -2.5823135e-02
 -1.1535941e-02
 -8.4206825e-03
 -4.8816367e-04
  5.7303160e-02
  4.1284330e-02
 -4.4733095e-03
  1.6320810e-02
 -2.1822013e-02
  3.9699137e-02
  7.8770174e-03
 -5.4748468e-02
 -1.5808158e-02
 -1.8047698e-02
  8.2030054e-03
  1.0778320e-02
 -1.9068388e-02
  2.0582543e-04
  5.2815331e-03
 -1.7940826e-03
 -7.9296967e-03
 -5.9970608e-03
  1.0002346e-01
 -1.0751294e-02
  7.5577818e-02
 -6.8491005e-04
 -6.1214867e-04
  2.1632644e-03
  6.0798906e-02
 -3.0588573e-03
  4.5272186e-02
  3.7279662e-02
 -1.1894230e-02
  9.6985633e-03
 -3.4494836e-02
 -5.7026505e-01
 -1.5311702e-02
  6.7782044e-02
 -7.4556665e-03
  3.7671712e-01
 -2.7733214e-02
  4.6315573e-02
  3.4990720e-02
  2.9428253e-05
  8.9556834e-04
  2.3575343e-02
 -2.5941522e-03
 -6.1421603e-04
 -1.9223962e-02
 -2.7309699e-02
  9.6975872e-03
 -8.2858494e-03
 -1.2646511e-01
 -7.3731408e-02
 -2.7088109e-02
 -3.1089133e-02
 -2.8540432e-03
 -2.5312819e-02
  4.0713586e-03
  3.3948243e-02
 -5.7177050e-03
 -1.0874190e-02
  3.7428256e-02
  8.6567424e-02
  3.2764056e-03
 -3.1189900e-02
  6.1000641e-02
 -3.4807611e-02
  2.1458272e-02
 -2.7354000e-02
  5.3165471e-03
  1.1185167e-04
  2.5229747e-03
 -1.5525705e-02
 -4.5754085e-04
  7.4618114e-03
 -1.2039889e-02
 -1.1103731e-02
 -2.0667128e-02
  1.7245099e-02
  3.5003595e-02
 -3.1656325e-02
 -2.4608500e-02
  1.4485257e-02
  8.1797605e-03
 -1.5734158e-02
 -3.0627294e-02
 -3.2055043e-03
 -4.7767512e-03
  1.7603843e-04
  4.6687223e-02
  5.1783323e-03
  4.3040350e-02
 -1.9118320e-02
 -1.4008496e-02
  2.2437802e-02
  4.6655115e-02
 -1.6393149e-02
 -2.5160914e-02
 -1.0448110e-02
 -1.3586195e-02
 -1.1566399e-03
  2.2909401e-02
  9.5037287e-03
  1.1609043e-02
 -6.1093591e-02
 -1.8678933e-02
  4.4943215e-03
 -8.3377836e-03
 -1.0077166e-02
  2.3491066e-03
  4.1951894e-04
  6.2737174e-02
  1.9817447e-02
  3.6299139e-02
 -6.1251044e-02
  1.1799891e-02
  1.0410877e-02
 -1.8325681e-02
 -2.2907960e-03
  2.1595990e-02
  9.6665882e-03
  8.1913434e-03
 -2.8721515e-02
  2.1133544e-02
 -5.5931032e-02
  9.8028854e-03
 -6.6448934e-02
  2.8705135e-02
  7.6025873e-02
  8.2461882e-01
  3.4912890e-01
  1.5414934e+00
  4.2057720e-01
  1.6205344e-02
  7.6838066e-03
  1.3644000e-02
 -3.1755891e-01
 -7.3217057e-02
 -3.1129366e-02
 -7.0723236e-02
 -3.8423277e-02
  7.5024538e-02
 -8.5857799e-03
 -1.5187711e-02
 -7.8666493e-02
  1.4530203e-02
 -4.2370267e-02
  6.1938655e-01
 -1.4304695e-01
 -5.7399649e-02
 -2.9988434e-02
  2.0711763e-01
  8.3074877e-03
  1.7043505e-02
  1.6819316e-01
 -3.0571638e-02
 -3.3941507e-02
  2.0903683e-01
  3.0712504e-02
 -1.0432209e-01
  8.6057223e-02
 -2.0111898e-02
  1.1645687e-01
  9.4999988e-03
 -1.2568231e-02
  3.2440171e-02
  3.0536646e-01
  6.2336801e-03
  2.1779992e-02
  1.2682009e-02
  8.9138709e-03
  1.0365837e-03
  2.4387531e-02
 -4.1812919e-03
  4.3939534e-03
  1.6926148e-03
  6.1066803e-02
  7.5895116e-02
  3.3330179e-03
 -4.2991474e-02
  1.4191444e-02
  1.5827702e-02
  9.8898979e-03
  3.2545809e-02
  1.2153144e-02
 -1.1937405e-02
  5.4922667e-03
  1.4472625e-01
 -2.2126492e-02
 -1.5708301e-02
  2.4189098e-02
  1.4354472e-02
  1.9522522e-01
 -3.0654814e-02
 -4.9266148e-02
  6.1253101e-02
 -3.8199037e-02
 -1.7907128e-02
 -1.9760900e-03
 -3.0299497e-03
 -1.8356703e-02
 -2.0853363e-03
  1.2672327e-01
 -2.3352131e-03
 -3.7190817e-02
  2.7408253e-02
 -7.5931209e-03
 -3.3413561e-03
  6.3269138e-02
 -3.0069309e-04
  1.0654072e-02
  1.0090745e-02
  4.5023132e-02
  1.1770382e-02
 -3.6394250e-02
  5.1054050e-04
 -3.7924465e-02
 -1.5122154e+00
 -1.3032337e+00
 -2.2301646e-02
  1.0415821e-02
  3.2499496e-02
 -6.2428701e-01
 -1.6622832e-02
  7.0022739e-02
  3.9778661e-02
 -1.1294681e-02
  2.0721832e-02
  5.8775134e-02
  4.2646848e-02
  9.6430220e-02
  8.7461859e-02
 -3.3260368e-02
 -1.2053441e-01
 -4.1301657e-02
 -2.3563774e-02
 -3.0264113e-02
  2.0789998e-03
 -6.2245810e-03
 -1.3885850e-01
  2.1464029e-02
  2.2580822e-03
  9.1264779e-03
 -3.5677163e-03
  1.1167857e-02
 -1.5176169e-02
 -1.4700526e-02
 -1.2506842e-02
  1.1055875e-02
 -8.7731024e-03
  1.7117422e-02
  4.7007687e-02
 -8.5606035e-03
  9.3164377e-02
  3.2554314e-02
 -1.1221200e-03
  2.0185364e-02
  2.9403294e-02
 -1.0871565e-01
  8.2030203e-03
  4.2395119e-02
 -2.9853888e-02
 -2.1475421e-02
  2.7327627e-02
  3.7283408e-03
 -2.3047368e-03
  3.7590860e-04
 -2.0616636e-02
 -1.2812268e-02
  2.9001471e-03
  3.7598754e-03
 -3.8471583e-02
  1.1123264e-02
  9.2334277e-04
 -2.8535120e-02
 -6.2538660e-04
  2.1981601e-02
 -1.9855071e-02
  1.3068408e-02
 -2.4122309e-02
  1.0081789e-02
 -2.5718752e-02
  6.3642375e-03
 -3.2608178e-02
 -6.6597544e-02
 -2.1224167e-02
  5.5892561e-03
  8.8125393e-03
  3.8946673e-02
  1.0271465e-02
 -4.7304824e-02
  2.8397718e-02
  1.2619152e-02
  9.6663190e-03
 -3.5649610e-03
 -2.1551531e-02
 -5.7948441e-03
 -2.1454532e-02
 -2.5326833e-02
 -2.1602871e-02
 -4.0712222e-03
  2.5766477e-02
  8.7108248e-04
 -1.7427385e-02
 -7.3699201e-03
  8.6721424e-03
 -1.0806444e-03
 -6.1906740e-04
 -5.0297077e-03
  5.1687468e-02
  3.2137519e-01
  4.1121515e-04
  2.0112120e-02
 -7.4125804e-02
  1.6787333e-02
  2.6734412e-02
  8.6483397e-02
 -7.9282299e-03
  2.4660472e-02
 -1.0309385e-01
 -1.9690843e-02
 -6.2265410e-03
  9.3013188e-04
 -1.8034196e-02
 -4.8019417e-02
  4.6143912e-02
  3.2611531e-03
 -1.9167570e-02
 -1.7517966e-01
 -5.2402396e-02
  3.7659972e-03
 -2.4417717e-02
 -5.9743021e-03
 -2.7566466e-02
 -2.0308341e-03
  8.8586817e-03
  3.8919594e-02
 -2.8388632e-02
 -2.8638437e-02
 -7.8154458e-03
 -2.6101897e-02
 -5.1736239e-02
 -1.9786287e-02
 -3.6655761e-02
 -1.0797570e-02
  1.4536804e-02
  3.6639695e-03
  9.4136354e-03
  2.4354663e-03
 -1.4556648e-02
 -2.7541114e-02
  9.3361586e-03
  1.6869897e-02
  7.6957713e-03
 -7.0932992e-03
  7.0595019e-02
  5.7963602e-02
  1.5928263e-02
 -6.4794473e-02
 -8.5607387e-02
  3.2432163e-03
  3.4305438e-02
 -1.1930407e-02
  5.0450475e-03
  2.8576273e-02
  9.0614231e-03
  1.8133879e-02
 -2.2768611e-02
 -1.1738424e-02
 -3.3266041e-03
  6.3475049e-03
  5.2575555e-02
  4.3048751e-02
 -2.5800120e-02
 -4.8267212e-02
  1.8426601e-02
  3.4605630e-02
 -1.1146006e-02
 -9.4322721e-03
  1.2823343e-02
 -2.1253314e-02
  7.9100858e-03
  4.7145326e-02
 -7.5532882e-03
  2.1832117e-03
  3.5537101e-02
 -6.3846298e-02
  7.1067852e-03
  3.3488583e-02
 -3.0075291e-02
 -1.9326523e-02
  1.2832156e-01
  4.0306527e-02
 -1.8085798e-02
  5.7397861e-02
  2.6843690e-03
  2.0473095e-02
 -8.6415745e-03
 -7.9776058e-03
  6.4376486e-03
 -1.9555716e-02
  1.6142001e-02
  1.0295480e-02
 -1.0621636e-02
 -6.0391925e-02
  6.8226248e-02
 -2.6736069e-01
 -2.4358887e-02
 -9.5501672e-03
  3.5046745e-02
 -3.1918585e-03
  1.7561140e-02
 -1.1130739e-01
 -2.7376704e-02
 -1.1567312e-02
 -6.0076085e-03
 -5.4215156e-02
 -2.3248772e-01
  1.4223887e-03
  3.2173336e-02
 -3.2209363e-02
  3.2004777e-02
 -1.4249036e-01
 -9.4146766e-03
  1.3837272e-02
 -6.3258655e-02
 -1.4161019e-02
 -1.7626086e-01
  1.4618744e-02
  9.4176307e-03
  4.1521493e-02
 -1.0873855e-02
 -4.4594795e-02
 -3.6758896e-02
 -2.5746400e-02
  2.9523958e-02
  5.7493919e-03
  4.5095865e-02
 -1.8553576e-01
 -2.8786011e-02
 -6.3551785e-03
 -1.5641438e-02
 -1.8496202e-01
 -2.0635772e-02
  9.9657383e-03
  9.2167873e-03
  3.8492274e-02
 -3.4512047e-02
 -2.2941263e-02
  3.1419721e-02
 -3.0301545e-02
  1.1472092e-02
 -2.3602659e-02
 -4.8766598e-02
 -1.2042922e-02
 -1.0759095e-02
 -2.3201935e-03
  7.6834825e-03
  1.8908290e-02
 -7.4731549e-03
 -2.3645595e-02
 -1.6900859e-03
 -2.9072927e-02
 -4.3625981e-02
 -2.2659026e-02
  6.3362634e-03
 -3.0835263e-02
 -4.4702478e-02
 -1.2623012e-01
  8.1579415e-03
  3.6396094e-02
  8.6859809e-03
  2.3583453e-02
  1.3440985e-02
  1.2011089e-02
 -1.3919155e-02
  6.6902237e-03
 -1.1144428e-02
 -1.1146264e-02
 -3.1459506e-04
 -8.8941334e-03
 -1.6494172e-02
  1.5146418e-02
 -1.6572883e-03
  9.0827681e-03
 -3.7839157e-03
 -1.4729677e-02
 -6.4338408e-03
 -5.4345191e-01
  5.8311634e-02
  1.9048288e-02
 -3.1626404e-03
 -2.7963540e-02
  8.0123019e-01
 -1.5199720e+00
  1.2995156e-02
 -7.5119603e-03
  2.3692807e-02
 -1.6461935e-02
  3.1135475e-02
  5.3002764e-03
 -2.9658921e-02
  1.4022762e-02
 -1.0138500e-02
 -1.5465865e-03
  7.3788175e-03
 -2.9972147e-03
 -1.0104938e-01
 -1.3035950e-03
  4.5168553e-02
  5.9976918e-03
  3.9087221e-02
 -2.9983243e-02
  1.2267069e-02
 -1.0726330e-01
 -2.0829303e-02
 -1.5240829e-02
  2.0092223e-02
 -1.0056377e-02
 -4.3057118e-02
  1.3179818e-02
 -1.1323233e-02
 -5.8584865e-03
  5.4470077e-02
  2.3743484e-02
  1.0121584e-02
  1.3828661e-02
 -1.6728992e-03
  1.1462821e-02
 -2.3890305e-02
  4.9390625e-02
  3.5149797e-03
  2.4355780e-02
 -4.9091130e-02
 -3.9088663e-02
  1.5458947e-02
  4.6850622e-02
 -3.9992840e-03
  3.5396811e-02
  3.1009583e-02
 -2.4755565e-02
 -2.4840429e-03
 -1.5016134e-03
  2.8342014e-02
 -2.7056020e-02
  1.2634369e-02
  1.7279554e-02
 -3.6390163e-03
  2.3229383e-02
 -5.7175783e-03
 -1.8324280e-02
 -4.4517862e-03
  3.3474832e-03
  9.5382798e-03
  1.9225569e-03
 -3.5843641e-02
  5.8689337e-02
 -4.6583847e-03
 -1.1763038e-02
 -1.4245098e-02
 -3.9461823e-03
 -6.0777250e-04
 -1.0030570e-02
 -4.0662293e-03
  5.4310601e-02
 -6.8608173e-03
 -3.1652696e-02
 -1.1006889e-02
  2.8850630e-02
 -9.3852766e-03
  5.2453862e-03
  2.8164295e-02
  3.3085641e-02
 -3.0102253e-02
 -6.6282623e-02
  1.1922626e-02
  1.7068852e-02
  4.8867436e-03
  3.6772307e-02
 -1.5424406e-02
 -6.9425260e-03
  1.3759217e-02
  1.3951355e-02
 -3.5466455e-02
 -4.7872826e-02
  2.0755315e-03
 -1.8559203e-03
  4.0845172e-03
 -2.7648897e-03
 -1.7119442e-01
  5.9195394e-03
  2.0552638e-01
  7.9342470e-02
 -1.4884436e-02
  2.5914369e-02
 -4.3756124e-02
 -2.0791234e-02
 -2.4276435e-02
 -4.4682166e-03
 -1.3615587e-02
 -1.4487841e-03
  1.9400639e-02
 -2.2839613e-03
 -6.1365642e-04
  6.8126558e-03
 -5.6545264e-03
 -1.3760068e-02
  3.4033716e-02
 -4.3485083e-02
  5.8165356e-03
  5.5366512e-03
  3.7463497e-02
 -5.5877822e-03
  1.6053876e-02
  6.0534760e-02
 -2.6117804e-02
  3.5748202e-02
  2.8607104e-02
 -2.0010101e-02
 -5.5148052e-03
  1.2205597e-02
 -2.6043944e-02
 -1.5159443e-02
  1.1160527e-01
  2.9914346e-02
  7.9660751e-03
  3.1565543e-02
  3.9420128e-03
  2.5878791e-02
  1.4406761e-02
  1.1231432e-03
 -1.5634153e-02
  8.3992831e-02
  1.7362487e-02
  1.5196669e-03
 -2.9980759e-03
 -1.9779848e-02
 -2.6455701e-03
 -1.3938461e-02
  6.8399750e-02
  1.7479189e-02
 -3.5749994e-02
 -1.9001562e-02
  1.4979533e-02
 -3.6849372e-02
  9.0601882e-03
  1.2361665e-02
  1.2426502e-03
  3.5482060e-02
 -2.5205376e-02
 -2.0024683e-02
 -7.2760903e-03
 -4.6091691e-02
  2.7750663e-02
 -3.0572541e-02
 -4.1114157e-03
 -4.7127169e-02
 -1.9566849e-02
  1.7518772e-02
 -9.5704962e-03
  1.6374744e-02
 -4.9482221e-03
  7.3069036e-02
 -8.2949856e-03
  4.3098174e-02
 -7.3168459e-03
 -6.5833656e-03
  2.9477341e-02
 -4.4871778e-03
  5.3430840e-02
  2.3690814e-02
  3.0228735e-03
  1.4309618e-02
 -3.5615250e-02
  1.1530639e-02
  7.3645092e-03
 -1.2859821e-03
 -9.7592151e-01
 -1.0507849e+00
  6.1763316e-02
 -5.9868526e-01
  1.3030866e-01
 -3.5698336e-02
 -6.4797950e-01
  1.4815346e-02
  1.3526875e-02
  1.5043814e-01
  2.5986120e-01
  2.2755726e-01
 -1.8370003e-02
  3.0592456e-02
 -6.2494581e-03
  1.3509130e-01
  2.8243342e-02
 -1.0335164e+00
  1.9827286e-02
  3.2740340e-02
  9.7566903e-02
 -3.8070746e-02
 -1.6088602e-01
  2.0277893e-02
  1.9154514e-01
  1.5003161e-03
 -5.2017707e-02
  5.7505756e-03
 -1.1394253e-02
  7.5089475e-03
  3.2618906e-02
 -3.1103645e-02
  4.2818397e-02
 -1.3011681e-02
  1.7867332e-02
  7.0822099e-03
  8.0253994e-03
  7.5958155e-02
 -3.1243924e-02
  4.1880071e-02
  2.0401017e-01
 -2.5557631e-01
 -1.1034416e-01
 -8.4991865e-03
  3.2001345e-03
 -2.3128104e-03
 -1.0377929e-01
 -3.1694945e-02
 -3.2576650e-02
 -1.3947790e-02
 -4.6775941e-02
 -2.3525655e-03
 -1.2386132e-03
  5.6707971e-03
  3.6035590e-02
 -1.5806677e-02
 -1.3825052e-02
 -3.9319820e-03
  6.3810856e-03
  3.5133231e-02
  4.9790926e-02
  7.9250860e-04
  7.9745717e-02
 -7.9803884e-02
  8.4291119e-04
  1.6999297e-02
  3.7793035e-04
 -4.2315668e-01
 -1.1405963e-01
 -2.4277749e-02
  8.3967508e-04
  1.4745175e-03
 -1.3753527e-02
 -5.5100252e-03
 -5.2591324e-02
 -4.6783119e-02
  1.1413781e-01
 -7.6268293e-02
 -2.0009138e-02
  7.8501806e-02
 -4.4907946e-03
  7.1824387e-02
  6.6574775e-02
  8.2116184e-04
 -1.1412060e-02
  3.3976339e-02
 -5.3460766e-02
 -1.3748564e-01
  8.4664552e-03
 -1.9525338e-02
  3.4461755e-02
  3.9545037e-02
  6.7761254e-01
 -1.0039116e-01
 -2.7235487e+00
 -3.4178862e-01
  1.1094767e+00
  1.2371173e+00
 -2.8659931e-01
  5.5640489e-01
  6.8889037e-02
  3.8452548e-01
 -1.4473225e-02
 -6.2742698e-01
  7.7625340e-01
  5.7028434e-03
 -7.5461102e-01
 -4.6664959e-01
 -3.8669366e-01
  9.8524487e-01
 -5.1453240e-02
 -1.4997718e-02
 -1.8010011e-02
  5.1411271e-01
  1.7405323e+00
 -9.0102613e-01
 -1.5340697e+00
 -1.0996957e+00
  1.5444851e+00
  1.0157956e-01
  7.4802029e-01
 -1.2408473e-01
  2.0300342e-01
 -1.1355425e-03
 -8.8669395e-01
 -6.2393016e-01
 -5.5970031e-01
 -4.7426125e-01
 -2.7841605e-02
 -1.6186446e+00
 -5.0901639e-01
 -1.1919346e+00
 -1.9099271e-01
 -2.5038037e+00
  1.2062760e-01
 -9.0679370e-02
 -8.6830392e-02
 -2.4675854e-04
 -1.8994422e-01
  1.7747689e-02
  4.5823436e-02
  3.8835309e-02
 -1.3027312e-02
  2.4411118e-02
 -2.2305569e-02
 -2.0053387e-03
  1.0056470e-02
  6.6431439e-03
  1.7722079e-03
  2.0230818e-01
  9.0597989e-03
 -8.2267849e-03
  4.3883458e-02
  1.9099640e-02
 -7.3062181e-01
 -8.3063645e-03
  3.7936831e-01
 -1.1914491e-02
 -8.0168277e-01
 -2.3369305e-01
  2.2398159e-02
 -3.3282060e-02
 -1.5956616e-01
  4.1980561e-02
  1.3067301e-01
 -2.0183167e-01
 -1.7158265e-01
  2.0057657e-01
 -2.0945230e-01
 -6.1932075e-01
 -7.2332881e-02
 -8.5509587e-03
 -7.4160263e-02
 -5.5672933e-04
 -4.5956433e-01
 -5.2070379e-02
 -5.2674696e-02
  8.7019801e-03
 -6.4029485e-01
  1.7355119e-01
  1.4937260e-03
  6.6540092e-02
 -9.4455637e-02
  1.9198600e-02
  4.7506562e-01
  3.2298529e-01
 -1.0710934e-01
 -2.9640915e-02
 -1.4048136e-02
  6.5080114e-03
  4.9097678e-03
 -1.8266458e-02
  3.7432987e-02
  2.7348209e-02
 -1.1212247e-02
  1.7325691e-03
 -4.1464455e-02
 -1.5563157e-01
 -1.2885729e-03
 -1.2805661e-02
 -2.3521099e-02
  2.3034750e-02
 -3.5683651e-02
  2.0397104e-02
 -3.6991160e-02
  8.9489613e-03
  3.2966424e-02
  2.7032150e-02
 -1.7951561e-02
 -2.0745726e-02
  4.2994968e-03
  1.1562312e-02
 -1.4091417e-02
 -4.3703161e-02
  2.0358685e-02
  8.9402627e-03
 -2.4098684e-03
  1.5652480e-02
 -6.2496059e-02
  2.5129221e-02
  9.8776901e-03
  1.5787713e-02
  1.0786529e-03
  2.8105700e-02
 -3.2839451e-02
  1.8604212e-02
 -3.2521703e-03
  3.3949859e-02
 -1.9631373e-02
 -2.8753844e-03
 -4.7926554e-03
  7.0156562e-03
 -1.6258756e-02
 -7.6815286e-03
  3.1287163e-02
 -4.7296472e-03
  8.2382550e-03
  9.1893058e-03
 -2.5647877e-02
  2.4178151e-02
 -1.6663248e-02
  1.3465098e-02
 -3.6520339e-03
 -1.1295761e-02
  1.5024646e-02
 -3.0385167e-03
  4.8868995e-02
  1.8273819e-02
 -7.9322075e-03
  2.2810251e-02
 -4.3456377e-03
 -8.8044694e-03
 -1.0762556e-02
 -8.5510433e-02
  1.0429391e-02
  2.8952010e-02
 -1.2598259e-02
 -1.3218433e-02
 -1.4286242e-02
  6.1458530e-04
  1.7054636e-02
 -1.4490692e-03
  7.0661078e-03
 -9.5114391e-03
  4.4471003e-02
 -1.7330792e-02
 -7.1990723e-03
  1.8792253e-02
  6.6420189e-03
  3.8188476e-02
 -2.0366123e-02
 -1.0872734e-02
 -1.6564419e-02
  2.8839860e-02
 -5.9942856e-02
 -1.8297587e-02
  1.2236370e-02
  3.1539425e-02
  1.0981370e+00
  7.4758884e-03
 -9.0257905e-02
  3.0710241e-01
 -2.1988053e+00
 -8.3687568e-01
 -6.1004709e-02
 -8.3719328e-02
 -2.4198437e-02
  6.2046957e-01
 -5.2763289e-01
  1.3848564e-02
  5.8868504e-01
 -7.1001929e-01
  3.0030020e-02
 -1.5496414e+00
 -1.7315214e-02
 -4.6148080e-02
 -8.3876628e-01
 -1.1119912e-02
  3.1960052e-02
 -1.1143352e+00
  2.8791410e-01
 -1.4736410e+00
  1.7228097e+00
 -2.2036586e+00
  2.3818471e-01
  1.3092707e+00
  4.8319413e-03
 -5.7744259e-01
 -4.6238489e-03
  1.5236602e-02
 -2.3465772e+00
 -1.6109780e+00
  3.5808542e-01
  1.0789633e+00
  2.4873905e+00
  9.2983615e-01
 -8.9411259e-02
  9.5709330e-01
  3.9345960e-04
 -6.0478580e-01
  6.3624930e-01
 -4.5410525e-03
  5.0300288e-01
  1.9415737e-03
 -2.0992607e-02
 -1.3016437e+00
 -5.8561885e-01
 -2.1439383e-03
  1.7487576e+00
  1.9005026e-01
 -7.1654506e-02
 -1.5499425e-01
 -3.2255642e+00
 -5.2846217e-01
  2.9639252e-02
 -2.3104098e-01
 -2.6421191e-02
  9.2486501e-01
  1.4729162e-01
  1.9131960e-02
  2.6360703e-01
  6.5960240e-01
 -2.6993256e-02
  8.7090772e-01
 -4.8781293e-03
  3.1393461e-02
  4.2372090e-01
  7.9511695e-02
  1.0876467e-01
  1.8697679e-01
  2.8703320e-01
 -1.2221398e-01
  3.3401647e-01
  1.4739037e+00
 -1.6805865e-01
  5.8989686e-01
  2.9609790e-02
  3.4431458e-01
  2.7237099e-03
 -6.8537913e-02
 -7.0242882e-01
 -1.3181742e+00
 -3.7157336e-01
 -9.1459620e-01
  1.4854221e+00
 -2.4582744e-01
  2.9053487e-02
 -2.6870507e-01
 -2.8225420e-02
 -1.3004501e-01
  3.5390535e-01
 -2.0911230e-02
  1.4025515e-01
 -2.6648054e-02
 -7.6491557e-02
  7.5899422e-01
  7.1800685e-01
 -1.3158030e-02
  3.8817072e+00
  1.2510231e+00
  9.1503423e-01
 -2.2272450e-01
 -9.4676173e-01
  1.7738488e+00
  2.0220525e+00
 -7.8698868e-01
 -2.7960033e+00
 -1.3443427e+00
 -3.8887134e-01
 -9.9405307e-01
 -5.1667981e-02
 -3.1667992e-01
  1.1774263e-01
 -6.8264455e-01
  5.1304135e-02
  1.4544517e+00
  1.5399553e+00
 -1.1430578e+00
 -2.8852756e+00
  1.0765967e+00
 -1.1878357e+00
  1.5641638e+00
 -1.5641809e+00
 -5.6390017e-01
  6.9295871e-01
  9.4398665e-01
  1.4986035e+00
 -1.3737849e+00
 -6.1917198e-01
  2.0398805e-01
  7.0550576e-02
  2.1639273e+00
  7.9108655e-01
 -1.0706446e+00
 -1.6265455e+00
 -9.5228873e-02
 -8.3450037e-01
 -1.6984217e+00
 -8.0087945e-02
  2.4204862e+00
 -1.5862843e+00
 -1.5411266e+00
  2.2131695e-01
  2.5317314e+00
 -1.5331175e-02
 -1.9163347e+00
 -1.5225354e+00
  1.1041987e-01
  1.1132798e+00
  1.9794649e-01
  3.6105379e-03
  8.4702849e-01
  8.5254329e-01
 -1.5654181e-01
 -5.7981497e-01
 -9.5316541e-01
 -1.2384354e+00
 -2.3592373e-02
  8.6710823e-01
  1.2897202e-01
 -1.5858432e-02
 -1.2876780e-01
  2.9019997e-02
  8.7221451e-02
  3.2130769e-01
 -1.7684391e+00
  8.7202591e-01
  2.3187392e+00
  1.3262650e+00
 -7.8830385e-01
  1.7857698e-01
 -1.2060145e-01
  3.1566128e-01
 -1.1403638e+00
 -3.9294067e-01
 -4.6902260e-01
  2.9452547e-01
 -6.6253412e-01
  9.4228876e-01
 -3.1356189e-01
 -3.6402234e-01
 -3.2244372e+00
  4.3446428e-01
  8.5162574e-01
 -3.7593019e-01
 -3.4386951e-01
  5.6633580e-01
  4.7833627e-01
 -4.3098152e-01
 -4.5632157e-01
 -2.2298123e-01
 -1.6600008e+00
  2.2730657e-01
 -1.8851386e+00
 -5.1461190e-01
  1.2112011e-01
  2.9796949e-01
 -8.7450273e-02
 -7.7865320e-01
  1.7302879e+00
  1.1339282e+00
  3.3955657e-01
 -1.1912509e+00
 -3.0196306e-01
  3.0875054e-01
  4.2244345e-01
 -2.9408386e-01
  1.6530180e+00
 -1.8855503e+00
  2.3614883e+00
  7.1850426e-02
 -1.1018565e+00
 -1.3638593e+00
 -4.6648383e-01
  6.8077415e-02
 -5.5469221e-01
 -9.1195256e-02
 -1.1566231e+00
  6.9179356e-01
  2.6506218e-01
 -6.5608114e-01
 -1.2729958e+00
 -1.5068851e-01
 -7.2913304e-02
  1.2006705e-01
  3.4721234e-01
 -2.2449842e-02
 -3.8963479e-01
 -5.4558969e-01
  7.0904928e-01
  1.1911491e+00
  4.2981890e-01
 -2.9446423e-01
 -1.2463057e+00
  1.4748233e-02
  1.4748233e-02
  1.4748233e-02
  1.4748233e-02
  1.4748233e-02
  1.6496208e-01
  1.6496208e-01
  1.6496208e-01
  1.6496208e-01
  1.6496208e-01
  1.3526976e-01
  1.3526976e-01
  1.3526976e-01
  1.3526976e-01
  1.3526976e-01
  8.9144491e-02
  8.9144491e-02
  8.9144491e-02
  8.9144491e-02
  8.9144491e-02
  4.4329267e-02
  4.4329267e-02
  4.4329267e-02
  4.4329267e-02
  4.4329267e-02
  1.3422611e-01
  1.3422611e-01
  1.3422611e-01
  1.3422611e-01
  1.3422611e-01
  8.4136875e-04
  8.4136875e-04
  8.4136875e-04
  8.4136875e-04
  8.4136875e-04
  6.4424286e-04
  6.4424286e-04
  6.4424286e-04
  6.4424286e-04
  6.4424286e-04
  6.4151228e-04
  6.4151228e-04
  6.4151228e-04
  6.4151228e-04
  6.4151228e-04
  2.5199039e-03
  2.5199039e-03
  2.5199039e-03
  2.5199039e-03
  2.5199039e-03
  4.8909844e-03
  4.8909844e-03
  4.8909844e-03
  4.8909844e-03
  4.8909844e-03
  3.3775531e-03
  3.3775531e-03
  3.3775531e-03
  3.3775531e-03
  3.3775531e-03
  1.7062433e-03
  1.7062433e-03
  1.7062433e-03
  1.7062433e-03
  1.7062433e-03
  3.3440532e-03
  3.3440532e-03
  3.3440532e-03
  3.3440532e-03
  3.3440532e-03
  2.5909236e-03
  2.5909236e-03
  2.5909236e-03
  2.5909236e-03
  2.5909236e-03
  1.5153295e-03
  1.5153295e-03
  1.5153295e-03
  1.5153295e-03
  1.5153295e-03
  1.1391509e-03
  1.1391509e-03
  1.1391509e-03
  1.1391509e-03
  1.1391509e-03
  1.4099157e-03
  1.4099157e-03
  1.4099157e-03
  1.4099157e-03
  1.4099157e-03
  5.2794874e-01
  5.0019985e-01
