nep4 1 Fe 
cutoff 7 6 134 79
n_max 4 4
basis_size 8 8
l_max 4 2 0
ANN 30 0
 -6.6748708e-01
  3.7751734e-01
  6.0685862e-02
 -2.9757005e-01
 -3.1850839e-01
 -6.0623807e-01
 -4.1431007e-01
  1.1644389e-02
 -1.1352178e+00
 -8.1181109e-02
 -4.0999060e-03
 -7.7837175e-01
 -3.5923317e-01
  5.3163058e-01
  9.7127482e-02
  1.5580489e-01
  4.6502876e-01
 -3.1008971e-01
  2.6657230e-01
 -1.5112680e-01
 -4.9105385e-01
  8.1183064e-01
 -5.7708949e-01
 -4.2505652e-01
  7.9855543e-01
  3.9703715e-01
  4.8111159e-01
 -1.0399859e+00
 -2.0095403e-01
  3.0114883e-01
 -5.8714245e-02
 -3.2319501e-01
 -1.1740125e+00
  1.1440516e-01
 -6.6182393e-01
  5.5966985e-01
  7.7274674e-01
 -1.2374021e+00
 -3.3748093e-01
 -6.8744522e-01
  9.1586918e-01
 -4.7809494e-01
  5.1473546e-01
 -5.3954387e-01
  7.3989332e-01
 -5.2647632e-01
 -4.4025326e-01
  1.8692315e-01
  2.6148123e-01
  2.0529729e-01
 -2.0619191e-01
 -1.1411746e+00
  6.1406291e-01
 -1.6434465e-01
  3.6130556e-01
  4.3439665e-01
  6.8480730e-01
 -4.1581255e-01
  2.1109247e-01
 -3.7614685e-01
  8.3809149e-01
 -4.8786727e-01
 -6.0796082e-01
  8.0574447e-01
  1.1562074e-01
 -1.6272014e-01
 -9.2219792e-02
  7.2026974e-01
 -1.2027292e+00
  6.1313534e-01
 -1.8873239e-01
 -7.1313876e-01
  2.7649486e-01
 -3.8928884e-01
  6.3872649e-03
  8.0385393e-01
 -2.4250540e-01
 -4.8978916e-01
 -1.9746138e-01
 -9.1514575e-01
 -5.4964751e-01
  6.5066814e-01
 -1.8426567e-01
 -5.4521382e-01
  9.6772754e-01
  3.1672058e-01
 -3.4162748e-01
 -1.0616900e+00
 -8.6069220e-01
  1.7347458e-01
 -9.1284376e-01
 -6.3295341e-01
  5.0979382e-01
 -6.1205363e-01
  3.0866969e-01
  7.4792230e-01
  1.6859144e-01
  9.0724921e-01
  3.7774229e-01
 -6.4530230e-01
 -9.3270846e-02
 -8.6430413e-01
  3.0978346e-01
  3.9198437e-01
 -2.2087222e-01
  6.5624022e-01
  7.0789635e-01
 -1.2849383e+00
 -6.4675458e-02
 -1.0795312e+00
 -8.4708768e-01
  9.8565690e-02
  4.3061250e-01
 -6.1316574e-01
  3.9593115e-01
 -4.6779251e-01
  5.4438210e-01
  3.0108541e-01
  2.8784743e-01
 -1.9653405e-01
 -8.9420667e-03
 -1.1532059e-01
  4.6115080e-01
 -1.1029153e-01
 -5.2571964e-01
  3.6130914e-01
  6.6028136e-01
  9.0804368e-01
 -1.2795079e-01
 -2.9913220e-01
  2.5678566e-01
  2.6276901e-01
 -5.1884312e-02
 -1.0078322e+00
 -4.2283145e-01
  2.7969077e-01
 -5.8431202e-01
  5.0530744e-01
 -4.2057869e-01
 -3.0487448e-01
 -5.5112583e-03
 -1.0845758e+00
  6.2262875e-01
 -6.6813207e-01
  1.1614718e+00
  6.3116407e-01
 -5.1990724e-01
 -6.0968375e-01
 -3.8988313e-01
 -2.7273035e-01
 -4.2182034e-01
  7.6328260e-01
 -4.4058621e-01
  3.3396068e-01
 -5.8979261e-01
 -2.1609008e-01
  9.0486032e-01
 -4.3706420e-01
 -1.1476195e+00
  3.0975804e-01
  7.6950568e-01
 -8.1437004e-01
 -2.5170717e-01
  3.5731277e-01
 -4.1860092e-01
 -1.0570067e+00
  1.1827866e+00
  5.0604755e-01
 -6.7061949e-01
 -1.5303907e-01
  6.7800665e-01
 -2.4422917e-01
 -5.6498641e-01
 -9.9209261e-01
  2.0933773e-01
  9.9370337e-01
 -4.4352400e-01
 -1.0181065e+00
  1.0200235e-01
 -9.8224618e-02
  2.9472211e-01
  9.8726004e-01
 -5.4596144e-01
  8.2399470e-01
 -5.6033021e-01
  3.4686204e-02
 -5.9395874e-01
 -2.3830126e-01
  4.3349451e-01
 -4.7966021e-01
  6.0671544e-01
 -1.0801501e+00
 -5.1990724e-01
 -7.1584219e-01
 -5.0758892e-01
  9.7385995e-02
  9.5863450e-01
  7.1045649e-01
  3.0274106e-02
  5.1957548e-01
 -6.5907367e-02
  4.9483678e-01
  1.8160322e-01
  3.0386564e-01
  8.0382013e-01
  6.7877483e-01
 -1.2170067e+00
 -3.3084166e-01
  3.4277785e-01
 -1.5768671e-01
  3.9843246e-02
  6.3404739e-01
  1.7981048e-01
  6.9007173e-02
 -1.0427740e+00
 -1.0110358e+00
  2.1179198e-01
 -7.0679885e-01
  6.9809920e-01
  1.2352570e+00
 -4.5013785e-01
 -5.2828446e-02
  2.8382209e-01
  6.9983363e-01
 -2.7419960e-01
 -1.1279386e+00
 -4.5184204e-01
  9.0772706e-01
  7.6602262e-01
  4.0614659e-01
  5.8236772e-01
  8.7552327e-01
  7.7269769e-01
 -6.5706506e-02
  1.5745646e-01
  3.2258913e-01
  3.2046649e-01
 -2.8193539e-01
  1.6997048e-01
  4.3310456e-02
  6.3396645e-01
  5.7256156e-01
  4.3775821e-01
 -2.9107705e-01
 -1.2657799e-01
 -3.9302140e-01
  3.8549435e-01
  3.7915745e-01
 -1.1743584e+00
 -6.2100083e-01
  4.3729541e-01
  4.0092891e-01
 -5.6063205e-01
 -1.0563710e+00
 -8.1326056e-01
  8.6193830e-01
  6.5172784e-02
  6.7646593e-02
  5.8004880e-01
 -3.5645065e-01
 -7.8255814e-01
 -1.3952830e-01
 -1.2960175e+00
  1.2837756e-01
  1.1942296e+00
  1.9425313e-01
 -3.2960722e-01
  1.6926755e-01
 -4.9760339e-01
  9.8459303e-02
 -2.7286382e-02
  9.3136895e-01
  7.2325879e-01
 -2.6128814e-01
 -5.3357232e-01
 -3.5960591e-01
  7.5946003e-01
 -1.3240460e-01
 -1.8809994e-01
 -2.2801433e-02
  8.7506527e-01
 -1.8527994e-01
 -7.9764858e-02
 -5.1655698e-01
  1.5611638e-01
 -2.2627777e-01
 -8.8077909e-01
 -7.4593142e-02
 -6.8621951e-01
  6.4359611e-01
 -4.4001102e-01
  2.7544412e-01
 -8.1020987e-01
  8.5491866e-01
 -9.7561067e-01
  8.8337761e-01
 -1.3307022e-01
  3.9082816e-01
  3.4530455e-01
 -2.4172972e-01
  1.1034679e-01
 -1.0058969e+00
  8.4552628e-01
 -2.5573674e-01
 -2.4809611e-01
  1.2011246e-01
  4.5174301e-01
 -7.8688616e-01
 -7.1165395e-01
  3.8168415e-01
 -5.5455911e-01
 -7.8904045e-01
  8.2367814e-01
  5.2488017e-01
 -2.6982591e-01
  8.1354254e-01
  5.4171973e-01
  9.4666976e-01
 -6.5956104e-01
  4.5035648e-01
 -9.9158132e-01
 -3.9054182e-01
 -2.6651242e-01
 -5.5855280e-01
  1.7032072e-01
 -8.9145249e-01
 -7.1331167e-01
 -7.8548503e-01
 -1.3964985e-01
  4.0163983e-02
  1.4677497e+00
  2.4611914e-01
  9.6300113e-01
 -1.5534006e-01
  9.6197146e-01
 -2.5133520e-01
  4.1017145e-01
  1.6555896e-01
 -1.1993705e-01
  3.8327968e-01
 -7.3076659e-01
  4.3558583e-01
 -7.6849186e-01
 -7.9684758e-01
 -6.3059515e-01
 -2.6243484e-02
  3.2095742e-01
  4.3215585e-01
  3.5787460e-01
  4.1589427e-01
 -5.1668372e-02
  6.5573639e-01
  1.2296569e-01
 -3.3821535e-01
 -6.6973418e-01
 -2.9415089e-01
  1.0510803e+00
 -1.4406988e-01
  4.8682767e-01
 -5.4810268e-01
  7.6454157e-01
 -6.7192179e-01
 -5.5353224e-01
 -2.9452547e-01
  1.0481789e+00
 -4.1503947e-02
  8.7630942e-02
  2.0247561e-01
  5.7835269e-01
 -4.4980323e-01
 -9.3728274e-01
  7.8099006e-01
  6.9974536e-01
  6.1053056e-01
 -6.9743651e-01
 -8.3918399e-01
 -8.1064767e-01
 -8.4606242e-01
 -5.3501487e-01
 -9.8501578e-02
  3.2844988e-01
 -4.0900749e-01
  2.2293858e-01
  8.4382361e-01
  7.3395741e-01
 -8.7129511e-02
 -4.1472813e-01
 -1.0729288e+00
 -9.7522825e-01
 -1.2306303e+00
 -1.0303048e+00
 -2.0933485e-01
 -7.9198641e-01
 -9.9295169e-01
  4.4993371e-02
  8.5242748e-01
  1.0673987e+00
 -7.2563732e-01
  1.0503699e+00
 -7.8595084e-01
  8.7688345e-01
  8.9559990e-01
  1.0123012e+00
  6.9334590e-01
  1.2357765e-01
  9.9276322e-01
 -9.0548372e-01
 -1.1499028e+00
 -9.5884818e-01
  5.0103683e-02
  3.1901467e-01
  3.5751668e-01
  6.9927239e-01
 -3.1383734e-02
  8.7103552e-01
 -8.1577855e-01
 -4.9986634e-01
  1.1439887e+00
  1.7546884e+00
  3.6866030e-01
 -2.1213433e-01
  7.3065871e-01
  5.5595851e-01
 -7.1606064e-01
  5.7999218e-01
 -9.1229975e-01
 -2.8624260e-01
  2.5898840e-02
  7.6302421e-01
  8.0324925e-02
  6.9913954e-01
 -2.6910907e-02
 -3.9350310e-01
  9.9052705e-02
  6.2459981e-01
  1.9378597e-01
 -3.3711979e-01
 -2.2009282e-01
  2.1386012e-01
 -2.4627103e-01
 -5.4077333e-01
 -2.8586492e-01
 -4.8718128e-01
  7.1267217e-01
  1.4701590e-01
 -7.4488647e-02
 -4.4707066e-01
 -7.7302748e-01
  1.1524109e-01
  1.1276245e-01
 -5.5122483e-01
  2.0027667e-01
  5.8338004e-01
 -1.5254065e-01
  9.1013014e-01
 -7.2908476e-03
 -6.7749953e-01
  5.6532019e-01
  5.5672950e-01
  3.7031722e-01
  1.6529055e-01
  3.9441228e-01
 -8.5356170e-01
 -6.0133499e-01
 -7.1729124e-02
 -4.1568336e-01
  8.0455536e-01
  7.9556555e-01
 -4.1959247e-01
 -7.6327646e-01
  1.0265262e-01
  1.9230907e-01
  3.8251841e-01
 -6.0854018e-02
 -2.6932412e-01
  5.8934736e-01
  7.0661895e-02
  2.9139012e-02
 -8.5916740e-01
 -7.7046108e-01
  5.8488476e-01
 -7.9155213e-01
 -4.4180331e-01
 -6.6569966e-01
 -6.6916388e-01
  9.8124748e-01
  6.7677224e-01
 -9.9354488e-01
 -2.4033329e-01
  3.1237021e-01
  6.9755667e-01
 -6.5953690e-01
  4.4847649e-01
  1.1434894e+00
  7.0715237e-01
 -3.1393832e-01
  3.7538481e-01
  3.1315783e-01
  1.6273624e-01
  2.2032008e-01
  3.9436653e-01
 -9.4920474e-01
 -8.1173755e-02
 -2.6394758e-01
  8.9999747e-01
  9.1637388e-02
 -1.4626139e-01
  8.0798417e-01
  2.2471833e-01
 -8.0981994e-01
 -7.5273886e-02
  1.0459517e+00
  8.3131731e-01
  5.8655143e-01
  1.2305292e-01
  1.5931185e-01
 -5.0476754e-01
  1.1520545e+00
 -6.9711560e-01
  1.0007355e-01
 -5.7200927e-01
 -1.1181861e+00
 -6.5401340e-01
  1.3643233e-01
  1.0390906e+00
  2.3769879e-01
 -5.9036195e-01
  6.5889978e-01
 -1.3772121e-01
 -1.0561361e+00
  9.4166243e-01
  3.5045961e-01
 -1.8093772e-01
  7.9201400e-01
 -4.4909731e-01
 -1.0240854e+00
 -1.2775454e-01
  7.6440841e-01
 -5.3373462e-01
  3.0518377e-01
 -1.2652078e-02
 -6.1047953e-01
 -4.7929144e-01
  6.2884551e-01
  1.1007501e+00
  8.6874294e-01
 -4.5031059e-01
 -7.4687499e-01
  1.1837665e+00
 -5.8023584e-01
 -1.0300527e+00
  6.1678392e-01
 -6.1392522e-01
 -1.2420906e+00
 -1.8150173e-01
 -3.1660005e-02
 -3.3189511e-01
 -2.9779994e-01
  4.9644247e-01
  1.5306395e-01
  4.4983050e-01
  5.3354561e-01
  2.4053412e-02
 -3.6434090e-01
 -4.6057785e-01
  3.3195987e-01
 -1.9492930e-01
  2.1091364e-01
 -7.0186472e-01
  9.0652895e-01
 -6.2482810e-01
 -9.7884214e-01
 -5.2846628e-01
  6.3375795e-01
  8.3813429e-01
 -9.1581142e-01
 -1.0494528e+00
  1.5061960e-01
 -1.0032775e+00
  1.4100572e-01
 -2.4623300e-01
  5.2023202e-01
  2.1250146e-03
  6.7645788e-01
 -3.3416152e-01
 -1.6101193e-01
  8.9433205e-01
  5.5061078e-01
 -1.0208615e+00
 -9.6489465e-01
 -5.3185016e-01
  8.0919331e-01
  1.1222603e-01
  8.1406879e-01
 -1.3490281e-02
  7.2032380e-01
 -8.6305279e-01
  5.3267908e-01
  6.7276710e-01
  1.7183930e-01
  7.6354128e-01
 -8.9489651e-01
 -5.5236953e-01
  1.4218070e-01
 -1.6753344e-01
 -2.8753540e-01
  1.4356879e-02
  7.9988277e-01
 -3.6280951e-01
 -5.1395148e-01
  2.9776457e-01
 -5.5617750e-01
 -5.5105752e-01
  1.2711687e-01
  1.0117779e+00
 -1.4859271e-01
  4.2549056e-01
 -2.9624745e-01
 -3.3659924e-02
  5.2902844e-02
  2.7287388e-01
 -4.1462573e-01
 -8.2469898e-01
 -8.0846465e-01
 -1.8938330e-01
 -9.9745584e-01
  2.1416523e-01
  3.7096298e-01
  6.0544443e-01
 -5.9331560e-01
  9.6619284e-01
  5.9301120e-01
 -9.6092552e-01
  4.0201220e-01
  1.5135546e-01
 -1.7369573e-01
  3.8680130e-01
 -1.1384146e+00
 -4.5455950e-03
  2.3043783e-01
  2.8961635e-01
 -3.6136010e-01
 -9.2874672e-03
  2.0578384e-01
 -3.4924725e-01
 -3.9147183e-01
  2.0629916e-01
 -7.5736433e-01
 -1.9015390e-01
 -7.7859581e-01
 -4.9735528e-01
 -5.8713760e-02
  8.9450979e-01
 -4.9403045e-01
  2.6286197e-01
 -1.8482089e-02
 -8.8205218e-01
 -1.0041474e+00
  1.0701882e+00
 -7.4304396e-01
  7.3133671e-01
  6.7204279e-01
 -1.0585822e+00
 -1.1268263e+00
  5.9318477e-01
 -1.1713196e+00
 -1.2039998e-01
  4.5977098e-01
  4.0784237e-01
  3.7823537e-01
 -8.9218885e-01
 -1.3113368e+00
  7.5807589e-01
 -8.4878910e-01
  1.6714941e-01
  6.9160424e-02
  4.9667189e-01
  4.5592144e-01
 -3.4625512e-01
  7.9141974e-01
 -1.1815619e+00
 -1.1664865e+00
 -2.1170697e-01
  1.0102466e-01
 -1.0418711e+00
 -6.1464238e-01
  1.2444994e+00
  5.9690261e-01
  2.8123549e-01
 -5.8164275e-01
  1.0829286e-01
 -3.2896385e-01
 -5.3073406e-01
  5.0572449e-01
  7.7140057e-01
  9.5889293e-02
 -3.9319858e-01
  6.6827840e-01
  1.4169724e+00
  6.7530632e-02
 -4.8985600e-01
  4.4186208e-01
 -1.0601689e+00
 -7.6086336e-01
  9.3834275e-01
  1.1646965e+00
  1.1201308e+00
  1.0192907e+00
 -5.2819717e-01
  4.3427473e-01
  1.3958693e-01
 -2.4515335e-01
  5.7544792e-01
 -4.4766352e-02
  3.0882433e-01
  6.6059071e-01
 -8.3369672e-01
  5.7001781e-01
  4.5020425e-01
 -1.0438606e+00
 -9.4678837e-01
  4.4412598e-01
  6.9088477e-01
 -4.3802142e-01
 -8.4487981e-01
 -1.9281216e-01
 -8.3704048e-01
 -1.7207436e-01
  2.6120490e-01
 -7.9808754e-01
  3.8587070e-01
  2.4746306e-01
  5.8753890e-01
 -2.9556762e-02
  9.7729760e-01
  4.3226525e-02
  5.9074455e-01
 -7.9778659e-01
  6.1610878e-01
 -4.3021718e-01
 -7.4072218e-01
 -3.9282745e-01
  5.2498531e-01
  1.0654896e-01
 -6.8641269e-01
 -2.1873781e-02
 -9.8997824e-02
  9.9913484e-01
 -5.1441163e-01
 -1.2742090e-02
  1.5910403e-01
  7.3409384e-01
  2.3320498e-01
  3.4897432e-01
 -9.2665076e-01
 -6.5273233e-02
 -6.0201660e-02
  9.2156953e-01
 -6.3778913e-01
 -2.7847040e-01
  3.7573212e-01
 -8.8125545e-01
  5.4791945e-01
  7.1898222e-02
 -1.1320537e+00
  8.9660501e-01
 -5.8172840e-01
 -6.6104090e-01
  5.2850944e-01
 -3.1381932e-01
 -7.9450476e-01
  3.4936371e-01
 -1.1269890e+00
  4.7832289e-01
  6.5007067e-01
 -5.8778971e-01
  1.1076989e+00
  1.0029467e+00
 -9.4144392e-01
 -3.3003975e-02
 -5.1090926e-01
 -2.3169924e-01
 -7.4044615e-02
  8.4599830e-02
 -1.9726412e-01
 -8.3246887e-01
  3.9912874e-01
 -5.3453517e-01
  5.8874077e-01
 -2.9246813e-01
  8.2642889e-01
  7.1195787e-01
  4.2482194e-02
 -6.1470956e-01
 -4.4248977e-01
  5.5840749e-01
 -1.2749928e-01
  6.1931825e-01
  5.6991965e-01
  5.5549979e-01
 -3.9202237e-01
 -6.2014979e-01
  2.4464278e-01
 -4.4999786e-02
  8.4048295e-01
 -5.5353487e-01
 -5.0820565e-01
 -8.1477088e-01
  3.6078468e-01
 -2.6584056e-01
 -2.2223972e-01
  6.1119372e-01
  5.3097796e-01
  8.7760866e-01
 -8.0281901e-01
  3.4281200e-01
 -3.5362506e-01
  6.7236334e-01
  2.2061780e-01
  6.3135797e-01
 -6.8460174e-02
  1.5812145e-01
  1.1973503e-01
  6.6827941e-01
  7.6086938e-01
 -6.1401188e-01
  1.1767521e+00
  5.7089543e-01
  9.3342787e-01
 -2.0554174e-01
 -3.2865554e-01
 -3.5455171e-02
 -2.1926101e-01
  1.0313896e-01
  5.2197647e-01
  8.2965678e-01
  1.1345184e+00
  4.8391604e-01
  4.7102816e-02
 -8.6600769e-01
  3.6540893e-01
 -2.7013704e-01
 -4.0078181e-01
  3.0677629e-01
 -9.3615085e-02
  5.1853901e-01
  4.3649969e-01
 -7.0237881e-01
 -8.0240476e-01
 -3.7166706e-01
  3.5464868e-02
  7.6275158e-01
 -4.9706984e-01
  3.9927071e-01
 -2.9662414e-02
 -7.7474779e-01
  9.2024550e-02
  7.1950984e-01
 -5.2001067e-02
 -7.4416262e-01
 -9.1236544e-01
 -1.3262328e+00
  3.4090972e-01
  2.0327775e-01
  3.7010390e-01
  1.4263578e-01
  2.2240046e-01
 -3.7488705e-01
  6.3138175e-01
  3.9330688e-01
 -7.7489561e-01
 -6.2128294e-01
 -5.9042245e-01
 -8.8694549e-01
 -5.1660460e-01
  4.7512513e-01
  5.9910011e-02
  7.6105553e-01
 -3.6765555e-01
  1.0077312e+00
  8.0488628e-01
 -3.4155033e-03
  3.4296446e-02
 -1.0776721e+00
  7.4674892e-01
  4.9548343e-01
 -3.8029107e-01
 -2.3365539e-01
  2.7381921e-01
 -6.5332377e-01
  4.3151703e-01
 -2.8285626e-01
  1.4406521e+00
 -2.8059186e-02
 -6.8461549e-01
  5.8319694e-01
 -5.4521495e-01
  3.6083469e-01
  4.2335942e-01
  1.2909932e-01
  7.0610851e-01
  1.7797455e-02
 -3.9188915e-01
 -3.2745436e-01
 -4.5989090e-01
  1.2288339e-01
  5.3651857e-01
  1.0832921e+00
  6.7819035e-01
 -4.5800042e-01
 -1.8826099e-01
  2.7356365e-01
  7.8099877e-01
  4.3151116e-01
 -5.8705318e-01
  1.2351027e+00
 -9.6543175e-01
 -7.0199144e-01
 -8.5369825e-01
 -6.6785777e-01
  8.6128569e-01
 -5.0958240e-01
 -7.7523418e-02
  3.3871111e-01
 -1.0107515e+00
  3.6839080e-01
 -1.0932275e-01
 -5.1308995e-01
 -5.9403116e-01
  8.4302759e-01
  4.7959667e-01
 -5.0427890e-01
  9.4441050e-01
 -8.8331747e-01
  7.9923880e-01
 -3.6485052e-01
  1.2088827e+00
  2.7402118e-01
 -2.3456965e-01
  4.8396960e-01
 -6.0639066e-01
 -3.9943042e-01
 -7.7889919e-02
  2.3500749e-01
 -2.2802611e-01
 -2.9449937e-01
  3.7276474e-01
  9.8496139e-01
  7.5029254e-02
  1.3513635e-01
 -2.0366098e-01
 -1.2285854e+00
 -1.1027422e+00
 -4.6231157e-01
 -8.9835852e-01
 -1.9848357e-01
  7.5463837e-01
  1.0811509e+00
 -2.5843120e-01
 -3.8257003e-01
  4.4799533e+00
  1.1390295e-02
 -3.7192762e-01
  9.3072671e-01
 -3.2820448e-01
 -8.3367534e-02
 -3.5644943e-01
 -8.1945384e-01
  1.8806241e-01
  9.6956365e-02
 -2.4329469e-01
 -4.7423932e-01
  5.2174073e-01
  4.1096064e-01
 -1.7930883e-01
 -2.1333992e-01
  1.9223158e-01
 -1.0247293e+00
  4.6450236e-01
  4.3437019e-01
 -7.0602667e-01
  1.0052148e-01
  3.0145314e-01
 -1.0289171e-01
 -4.2970276e-01
  2.6312545e-01
 -1.1816038e+00
  2.7621362e-01
 -6.0347450e-01
  6.5700191e-01
 -9.5146424e-01
 -1.6955531e-03
 -7.8980035e-01
 -3.9262915e-01
 -1.2369675e-02
 -5.8811486e-01
 -4.5138502e-01
 -4.0100992e-01
 -1.1176395e+00
 -6.4040059e-01
  8.6692518e-01
 -6.4497453e-01
 -7.9010475e-01
  8.7329334e-01
 -1.2062846e+00
 -3.7632841e-01
 -1.0511950e-02
  6.0981470e-01
 -4.6937206e-01
 -1.3482322e-01
 -8.9711392e-01
 -6.3152365e-02
  6.0735118e-01
 -3.9408249e-01
  2.2794470e-01
  5.1993799e-01
 -1.3782732e-01
 -6.9285679e-01
 -5.2347010e-01
 -1.0026712e-01
 -3.9337990e-01
  5.8204788e-01
 -1.2777337e-01
 -2.2974230e-01
  1.0432295e+00
 -1.9597802e-01
  3.5788894e-01
  3.6810911e-01
  5.8021790e-01
 -1.7021762e-01
  1.0921952e+00
 -5.5780250e-01
 -5.9698399e-02
  4.0453479e-01
 -1.2779298e-01
 -6.6727573e-01
  1.2198696e-01
  8.9110905e-01
  4.5744279e-01
  8.2144397e-01
 -7.0798028e-01
 -6.5481377e-01
  4.7552425e-01
 -1.1895967e-01
  7.9940003e-01
 -8.2036394e-01
 -1.5482767e-01
 -6.8698430e-01
  1.8806732e-01
  1.9416830e-01
 -4.8960686e-01
  1.1329588e+00
  1.1329588e+00
  1.1329588e+00
  1.1329588e+00
  1.1329588e+00
  2.0445299e+00
  2.0445299e+00
  2.0445299e+00
  2.0445299e+00
  2.0445299e+00
  2.9741342e+00
  2.9741342e+00
  2.9741342e+00
  2.9741342e+00
  2.9741342e+00
  6.2661117e-01
  6.2661117e-01
  6.2661117e-01
  6.2661117e-01
  6.2661117e-01
  4.9875516e-01
  4.9875516e-01
  4.9875516e-01
  4.9875516e-01
  4.9875516e-01
  1.3895833e+01
  1.3895833e+01
  1.3895833e+01
  1.3895833e+01
  1.3895833e+01
